//Numpy array shape [64]
//Min -0.804687500000
//Max 3.347656250000
//Number of zeros 0

#ifndef B15_H_
#define B15_H_

#ifndef __SYNTHESIS__
bias15_t b15[64];
#else
bias15_t b15[64] = {1.99218750, -0.08203125, -0.76562500, -0.14843750, -0.15234375, 0.16406250, 0.31640625, -0.01953125, -0.16406250, 3.34765625, 0.49609375, -0.12500000, -0.03906250, 0.42187500, 0.16406250, -0.03125000, 1.07812500, -0.12109375, -0.50390625, 0.30859375, 0.13671875, 0.98046875, 1.18750000, -0.10546875, -0.74609375, -0.17968750, 1.21484375, 0.39453125, -0.08984375, -0.10937500, -0.03906250, 1.59765625, 0.51562500, 0.86718750, 0.30859375, 0.39843750, 1.19140625, -0.11328125, -0.04296875, 0.35546875, 1.80859375, 0.16406250, -0.80468750, 0.15234375, -0.07812500, 0.53906250, 0.37500000, 0.26953125, -0.14453125, 1.01562500, -0.42187500, 0.32031250, -0.48828125, -0.14843750, 0.26562500, 0.46093750, -0.03125000, 0.35546875, -0.11328125, -0.08984375, -0.15625000, 0.26171875, 0.24609375, -0.07812500};
#endif

#endif
