//Numpy array shape [64]
//Min -2.355468750000
//Max 2.363281250000
//Number of zeros 1

#ifndef B18_H_
#define B18_H_

#ifndef __SYNTHESIS__
bias18_t b18[64];
#else
bias18_t b18[64] = {-0.05859375, 2.32421875, -0.14062500, -0.03125000, 2.36328125, -0.05078125, -0.08203125, -0.08203125, 0.19921875, 1.12109375, 1.54296875, 0.14843750, -0.01562500, -0.07812500, -0.08593750, 0.95703125, -0.60546875, 0.98046875, -0.04296875, -0.13281250, 0.13281250, 1.05859375, -0.07421875, -0.05859375, -0.03125000, -2.35546875, 0.29687500, -0.08984375, -0.05859375, -0.06250000, 1.96875000, 1.48828125, -0.03906250, -0.08593750, 0.50781250, -0.03125000, -0.48046875, 0.14062500, -0.07031250, -0.10546875, -0.22265625, 0.22656250, -0.07031250, -0.02734375, 1.37890625, 0.01171875, -0.03515625, 1.19531250, -0.33984375, -0.08593750, -0.04687500, -0.09375000, 0.00000000, -0.10546875, -0.23828125, 1.61718750, -0.06640625, -0.06640625, 0.07031250, 0.01171875, 0.12109375, -0.01171875, 0.30468750, -0.15234375};
#endif

#endif
