//Numpy array shape [128]
//Min -4.394531250000
//Max 4.378906250000
//Number of zeros 0

#ifndef B22_H_
#define B22_H_

#ifndef __SYNTHESIS__
bias22_t b22[128];
#else
bias22_t b22[128] = {-0.39453125, 1.44531250, -0.58593750, -0.05859375, -1.68359375, 2.83984375, 0.21484375, 2.01953125, 1.71875000, 0.53515625, 3.87500000, -0.35937500, 0.40625000, 0.49609375, -0.47656250, -1.80078125, 0.17187500, 0.08984375, 0.16406250, 0.40234375, -0.10156250, 0.20703125, 0.07421875, 0.39453125, 0.07031250, 2.36718750, -2.33203125, 0.32812500, 1.43359375, -0.16796875, 0.16406250, 0.10546875, 0.22656250, 0.32421875, 0.42578125, -0.14843750, 0.93750000, -0.08984375, -0.17578125, 0.46484375, 0.27734375, 0.00390625, -0.28125000, -0.27734375, 1.87109375, 0.43359375, 2.83593750, -1.87890625, -0.17578125, -0.05078125, -0.29687500, 0.45312500, -0.13281250, -0.54296875, 0.10156250, -0.07031250, 0.35156250, -0.37890625, -0.51171875, -0.63671875, 0.13281250, 0.11328125, 4.37890625, 0.61718750, 0.64453125, 1.93359375, -4.39453125, 0.32812500, 2.19531250, 0.60546875, 0.32031250, 3.07812500, 0.30078125, -0.06250000, -0.71093750, 0.08984375, -0.49609375, 0.21093750, 1.54296875, -0.06640625, -0.38281250, -0.71484375, -0.10546875, 0.08984375, 0.09375000, -0.44921875, 0.27734375, -0.49218750, -0.40234375, 2.32812500, 0.07812500, 0.41015625, 0.38671875, 0.41796875, -3.25000000, 0.25390625, 0.94921875, -0.63671875, -4.06250000, 0.20312500, 0.84375000, -0.26953125, 4.03125000, 0.57421875, 0.08593750, -0.31640625, 0.29687500, 0.47265625, 0.08593750, -0.24609375, 0.24609375, 0.23046875, -1.00781250, -0.28125000, 0.51171875, -0.20703125, 0.33203125, -0.56640625, 2.28515625, -0.06250000, 0.02343750, 1.65625000, 0.27734375, 0.10546875, -0.46875000, 3.22656250, 0.26953125, 0.75000000};
#endif

#endif
