//Numpy array shape [256]
//Min -2.433593750000
//Max 1.847656250000
//Number of zeros 0

#ifndef B32_H_
#define B32_H_

#ifndef __SYNTHESIS__
bias32_t b32[256];
#else
bias32_t b32[256] = {0.43750000, 0.29687500, -0.48828125, 0.32812500, 0.73437500, -1.11328125, -1.22656250, 0.49218750, -0.56640625, 0.37109375, 0.51562500, 1.32031250, 0.31250000, 0.87109375, 0.18359375, -0.76171875, 0.83984375, 0.98828125, 0.52734375, 0.66406250, 0.64453125, 0.76562500, 0.28125000, 0.60546875, 0.69921875, -0.08593750, -0.94140625, 0.45312500, 1.77734375, -1.20703125, 0.43750000, 0.48437500, -0.59375000, 0.42578125, 0.46875000, 0.37109375, 0.54296875, 0.29296875, 0.04687500, 0.27734375, 1.38671875, 0.47265625, 0.43359375, -0.71875000, 0.28515625, 0.66796875, 0.55859375, 0.68750000, 0.00390625, 0.88671875, -0.75781250, 0.70703125, 0.89062500, -0.72656250, 1.06640625, -1.13671875, 0.17187500, -1.51171875, 0.38281250, -1.10546875, 0.37890625, -0.12109375, 0.45312500, 0.65234375, 0.41015625, -1.09375000, 0.53125000, 1.16796875, 0.69921875, 0.48437500, 0.35156250, 1.25781250, 0.34375000, 1.04687500, 0.36328125, 0.54296875, 0.67578125, 0.16015625, 0.37890625, -0.35156250, 0.43750000, 0.32812500, -1.29296875, 0.26171875, 0.55859375, 0.41015625, 0.63671875, 1.35937500, 0.68750000, -0.87109375, -1.17578125, 0.21484375, 1.38281250, 0.76562500, 1.23437500, 0.57421875, -1.03515625, -1.25000000, -1.22656250, -1.40234375, 0.24609375, -0.44531250, 0.35156250, 0.42187500, -1.29296875, -1.37109375, -1.10546875, -1.64453125, 0.37890625, 1.46093750, -0.96875000, 0.50390625, 0.38671875, -0.03906250, 1.65234375, 0.93359375, 1.62109375, 0.76171875, -0.77734375, 0.93359375, -0.95312500, 0.81640625, -1.48437500, -1.12890625, 1.02343750, 0.78125000, 0.58203125, 0.21875000, -0.94531250, 0.40234375, -0.95703125, 0.51562500, 0.28125000, 0.55468750, -0.36718750, 0.25000000, 0.32421875, 0.68359375, -0.71093750, 0.28906250, 0.24609375, 1.17578125, 0.48828125, -0.40625000, -1.06250000, 0.32031250, -1.37109375, 0.56640625, -1.19140625, 0.16796875, -1.45703125, 0.64453125, 0.29296875, -0.13671875, 1.59765625, 0.34765625, -1.83203125, 0.38281250, 0.69140625, 0.11718750, 1.33203125, 0.31640625, -0.24609375, 0.08593750, 0.52343750, 0.36328125, 1.03515625, 0.19140625, -1.03515625, -0.87109375, 0.73046875, -1.28906250, 0.60937500, 1.84765625, -1.14453125, 1.52343750, -0.48437500, 0.71093750, 0.49218750, 0.67578125, -1.19140625, 0.67187500, 0.41015625, 1.07812500, 0.28906250, -1.29296875, 0.30078125, 0.12890625, 0.87500000, 0.29687500, 0.72656250, 0.22656250, 0.27343750, 0.30859375, -1.32421875, 0.42968750, 0.38671875, 0.48828125, 0.30468750, -0.97656250, 0.30078125, -1.03125000, -0.11718750, -1.23046875, 0.01562500, -1.14843750, -0.74218750, 0.49609375, 0.82031250, -0.58593750, 0.03515625, 0.02734375, 0.18359375, 0.78515625, -1.42968750, -1.13671875, 1.74218750, -1.08984375, 0.25781250, -0.46484375, 0.35937500, 0.33203125, 0.37109375, -0.13671875, 0.44531250, 0.16796875, 0.96484375, -2.43359375, -0.68359375, 0.38671875, -0.66015625, 0.42578125, -0.55078125, 0.54687500, 0.29296875, 0.35937500, 0.42968750, 0.33203125, 0.32421875, 0.79296875, 0.37500000, 0.33203125, -1.11328125, 0.22265625, 0.76171875, -1.19140625, 0.16796875, 0.36718750, -0.49218750, 1.69921875, 0.38281250, 0.43750000, -0.78906250, 0.20703125, 0.21484375, 0.76953125};
#endif

#endif
