//Numpy array shape [256]
//Min -1.841013431549
//Max 8.361390113831
//Number of zeros 0

#ifndef B39_H_
#define B39_H_

#ifndef __SYNTHESIS__
bias39_t b39[256];
#else
bias39_t b39[256] = {0.061510980129242, -0.098786234855652, -0.048179209232330, -0.136377185583115, 1.965761899948120, -0.139690175652504, -0.059933781623840, -0.212475895881653, -0.067977577447891, -0.083113923668861, 0.586513757705688, 0.702341079711914, -0.098773524165154, -1.145642518997192, -0.143558263778687, -0.128450930118561, -0.005151629447937, -0.120662659406662, -0.102171167731285, 1.528748989105225, 0.877002537250519, 1.471631050109863, -0.063263773918152, 0.433008372783661, -0.129797965288162, 0.513810634613037, -0.076181501150131, 0.685147166252136, 0.939060509204865, 0.609219491481781, 0.398707449436188, -0.228859424591064, 0.509118318557739, -0.086639598011971, 0.052013635635376, 0.389066100120544, -0.004115521907806, -0.125002503395081, 0.320373475551605, 0.256831049919128, -0.058217212557793, -0.132408320903778, 2.862270832061768, 0.499734640121460, 0.557110548019409, -0.088020369410515, 1.142882823944092, 0.260300248861313, -0.099486976861954, -1.841013431549072, 2.105158805847168, -0.109609991312027, 0.660366415977478, -0.342999637126923, -0.162641704082489, 0.103643774986267, -0.611164927482605, -0.171313643455505, -0.073298066854477, -1.058286190032959, 0.469667077064514, -0.163913413882256, 0.522752344608307, -0.081553101539612, -0.160688042640686, -0.116198107600212, -0.126406759023666, -0.093295633792877, 0.840588331222534, 0.247581481933594, -0.174865812063217, -0.774138927459717, 0.644700288772583, -0.437467932701111, 0.263079226016998, -0.152170211076736, 0.488249987363815, -0.141165733337402, -0.315623104572296, 0.753575503826141, -0.248309299349785, 0.592515230178833, -0.123621858656406, 0.342594504356384, -0.595938086509705, -0.534268498420715, -0.113172717392445, -0.836805880069733, 0.247000038623810, 3.162282466888428, -0.868728280067444, -0.133106112480164, -0.107989996671677, 4.715388298034668, -0.128777980804443, 1.789204359054565, -0.105986878275871, 0.010425269603729, -0.101287677884102, -0.985446989536285, -0.077951669692993, 0.020897120237350, 0.744780242443085, 0.281485080718994, -0.100504219532013, 0.030379295349121, 0.497120887041092, 1.616377592086792, 0.468440771102905, 3.340228796005249, -0.143407911062241, 3.592885732650757, 1.062078237533569, 2.501152515411377, 1.288618922233582, 0.448905766010284, -0.108695916831493, -0.063866049051285, 0.684055209159851, -0.104332089424133, 0.851875901222229, 0.356859385967255, 1.318961620330811, 0.595431685447693, 0.719656348228455, 0.345484852790833, -0.105878949165344, 1.768977761268616, -1.010600090026855, 0.486286163330078, 0.120776832103729, -0.074077457189560, -0.079474285244942, 1.105176687240601, -0.053239181637764, 8.361390113830566, 4.009048461914062, -0.072281882166862, -0.479470431804657, 2.540222167968750, 3.020921230316162, 0.274025082588196, -0.106009796261787, -0.081536293029785, -0.090048313140869, -0.408404231071472, -0.148892074823380, 0.242471456527710, -0.089428365230560, 0.613922476768494, -0.012282252311707, -0.081144288182259, -0.191346526145935, 0.255596637725830, 0.769336223602295, -0.517722725868225, -0.110944256186485, -0.060175791382790, -0.095887288451195, 0.565062880516052, 0.707544445991516, 0.225998878479004, -0.122422613203526, -0.119762025773525, -0.626559376716614, 0.056426763534546, 0.019945859909058, -0.104443967342377, 0.301391482353210, 1.053729176521301, 0.362293303012848, 0.039998888969421, -0.124654099345207, -0.068968743085861, 1.210543155670166, -0.791900634765625, 2.319637298583984, -0.153304100036621, -0.133982986211777, 0.965957403182983, 1.905428051948547, -0.088299795985222, -0.235967397689819, -0.101140111684799, -0.165138214826584, 4.895711421966553, 0.827854454517365, -0.557965993881226, -0.089308783411980, 0.818559467792511, 0.560096621513367, -0.268222570419312, -0.110425002872944, -0.117110803723335, 0.774954736232758, -0.066205143928528, -0.127792954444885, -0.091186150908470, -0.083209574222565, 4.344959735870361, 0.236115813255310, -0.956550121307373, -0.234141349792480, 1.085628390312195, -0.047836929559708, -0.097171232104301, -0.064149528741837, -0.142295166850090, -0.086230441927910, 0.924485683441162, -0.070147931575775, 1.404335737228394, -0.111209601163864, -0.066339761018753, -0.164993882179260, 0.543658316135406, -0.106903471052647, -0.152657091617584, -0.083906590938568, 0.053245902061462, 1.843060731887817, -0.122639678418636, -0.116901546716690, 1.202037334442139, -0.128141134977341, 2.708551645278931, 0.257476627826691, 0.030632734298706, 0.066458135843277, -0.064613610506058, -0.088932424783707, 3.789604187011719, -0.108304992318153, 0.499219477176666, 0.220202624797821, -0.119727939367294, 0.421221196651459, -0.357639849185944, -0.079442515969276, -0.397895932197571, 2.533318042755127, 0.647447347640991, -0.163743242621422, -0.090491756796837, 0.375327289104462, -0.192134380340576, -0.127434998750687, -0.598841547966003, -0.110697656869888, -0.515164017677307, -0.161771163344383, -0.108446791768074, -0.043541669845581, 0.269138574600220, -0.074439361691475, 0.368651390075684};
#endif

#endif
