//Numpy array shape [3, 3, 64, 64]
//Min -0.417968750000
//Max 0.550781250000
//Number of zeros 9203

#ifndef W18_H_
#define W18_H_

#ifndef __SYNTHESIS__
weight18_t w18[36864];
#else
weight18_t w18[36864] = {0.00781250, 0.01171875, 0.00000000, 0.01171875, -0.00390625, 0.00000000, -0.00390625, -0.00390625, 0.01171875, 0.00000000, 0.00390625, 0.00781250, -0.00390625, 0.00000000, -0.00390625, 0.00781250, 0.00390625, 0.00000000, 0.00781250, 0.00000000, 0.00000000, 0.00000000, 0.00390625, 0.00781250, -0.00390625, 0.01171875, 0.00000000, -0.00390625, 0.01171875, 0.01171875, 0.00781250, 0.00390625, -0.00390625, 0.00000000, 0.00000000, 0.00781250, -0.01171875, 0.00781250, 0.01171875, -0.00781250, -0.00390625, 0.00000000, -0.00390625, 0.00000000, 0.01171875, -0.00390625, 0.00781250, -0.00390625, 0.00781250, -0.00781250, 0.00390625, 0.00390625, -0.00390625, 0.01171875, 0.00000000, -0.00781250, 0.01562500, 0.00390625, 0.01562500, 0.00781250, 0.01562500, 0.00000000, 0.00000000, 0.01171875, 0.00000000, 0.00390625, 0.00000000, 0.00390625, 0.00000000, 0.00000000, 0.00390625, 0.00000000, 0.00390625, -0.00390625, 0.00000000, 0.00000000, -0.00781250, -0.00390625, 0.00000000, 0.00390625, 0.00000000, 0.00000000, 0.00000000, 0.00000000, 0.00000000, 0.00000000, -0.00390625, 0.00781250, 0.00000000, 0.00781250, 0.00000000, 0.00000000, 0.00390625, 0.00390625, 0.00390625, 0.00000000, 0.00000000, 0.00000000, 0.00000000, 0.00000000, -0.00390625, 0.00781250, 0.00781250, 0.00390625, 0.00000000, -0.00781250, -0.00390625, -0.00781250, 0.00390625, 0.00000000, -0.00390625, 0.00000000, 0.00390625, 0.00000000, 0.00000000, 0.00390625, 0.00000000, 0.00781250, 0.00000000, -0.01171875, 0.00390625, 0.00000000, 0.00781250, 0.00781250, 0.00781250, 0.00000000, -0.00390625, 0.00390625, 0.00000000, 0.00390625, 0.00000000, 0.00390625, -0.00390625, 0.00000000, 0.00000000, 0.00390625, 0.00390625, -0.00390625, 0.00781250, 0.00390625, -0.00390625, -0.00390625, 0.00000000, 0.00390625, 0.00000000, -0.00390625, -0.00390625, -0.00390625, 0.00000000, -0.00390625, -0.00390625, 0.00390625, -0.00390625, 0.00390625, 0.00000000, -0.00390625, 0.00390625, 0.00390625, 0.00390625, 0.00781250, -0.00390625, -0.00390625, -0.00390625, 0.00000000, -0.00390625, 0.00390625, 0.00390625, 0.00000000, -0.00781250, -0.01562500, -0.00390625, -0.01171875, 0.00390625, -0.00390625, 0.00000000, 0.00000000, 0.00390625, 0.00390625, -0.00390625, 0.00390625, -0.00390625, 0.00390625, -0.00390625, -0.00390625, 0.00390625, 0.00000000, 0.00390625, 0.00390625, 0.00781250, 0.00000000, 0.00000000, 0.00000000, 0.00000000, 0.01171875, 0.00000000, 0.00781250, 0.00000000, 0.00000000, 0.00000000, -0.00390625, 0.00781250, 0.00000000, 0.00781250, 0.01171875, 0.00000000, 0.00000000, 0.00000000, 0.00781250, 0.00000000, 0.00000000, 0.00781250, 0.00390625, 0.00000000, 0.00390625, 0.01171875, 0.01171875, -0.00781250, 0.01171875, 0.00000000, 0.00000000, 0.01171875, 0.01171875, 0.01562500, 0.00390625, 0.00000000, -0.00390625, 0.00000000, 0.00390625, -0.00390625, 0.01171875, 0.01953125, -0.00390625, -0.00390625, 0.00000000, -0.00390625, -0.00390625, 0.01562500, 0.00000000, 0.00390625, 0.00000000, 0.01171875, 0.00390625, 0.00000000, 0.00000000, 0.00390625, 0.01953125, 0.00000000, 0.00000000, 0.01171875, -0.00390625, 0.01562500, 0.00781250, 0.01953125, 0.00000000, -0.00390625, 0.01171875, 0.00000000, 0.00390625, 0.00000000, 0.00390625, -0.00781250, -0.00390625, -0.00390625, 0.00000000, 0.00781250, -0.00390625, -0.00390625, 0.00781250, -0.00781250, 0.00000000, 0.00000000, 0.00390625, -0.00390625, -0.00390625, 0.00000000, 0.00000000, 0.00000000, -0.00390625, 0.00390625, 0.00781250, 0.00000000, 0.01171875, -0.00390625, 0.00000000, 0.00781250, 0.00781250, 0.00781250, 0.00000000, 0.00000000, 0.00000000, 0.00000000, 0.00000000, 0.00390625, 0.01171875, 0.00781250, -0.00781250, 0.00000000, 0.00000000, -0.00781250, -0.00781250, 0.00000000, 0.00000000, -0.00781250, 0.00000000, 0.00781250, 0.00000000, 0.00000000, 0.00000000, 0.00390625, 0.00390625, 0.00000000, 0.00000000, 0.00000000, 0.00000000, 0.01171875, 0.00390625, 0.01171875, 0.00390625, -0.00390625, 0.00390625, -0.00390625, 0.00390625, -0.00390625, 0.00781250, 0.00000000, 0.00000000, -0.00390625, -0.00390625, 0.00390625, 0.00390625, 0.00781250, 0.00390625, -0.01171875, 0.00000000, -0.00390625, 0.00390625, -0.00390625, 0.00000000, 0.00000000, 0.00390625, -0.00781250, 0.00390625, 0.00390625, 0.00781250, 0.00000000, 0.00781250, -0.00390625, 0.00000000, 0.00781250, 0.00781250, 0.00390625, 0.00390625, 0.00000000, 0.00000000, -0.00390625, 0.00390625, 0.00000000, 0.00781250, 0.00390625, -0.01171875, 0.00390625, -0.00781250, -0.00390625, -0.00390625, 0.00390625, -0.00390625, 0.00000000, -0.00390625, 0.00781250, 0.00390625, -0.00781250, -0.00390625, -0.00390625, 0.00781250, 0.00000000, 0.00390625, 0.00000000, 0.00000000, 0.00781250, 0.00000000, 0.00390625, -0.00390625, 0.00000000, 0.00390625, 0.00390625, 0.00390625, 0.00000000, 0.00390625, -0.00390625, 0.00000000, -0.00390625, 0.00000000, 0.00390625, 0.00781250, -0.00390625, 0.00390625, -0.00390625, -0.00390625, -0.00390625, 0.00390625, 0.00781250, -0.00781250, 0.00781250, 0.00390625, 0.00000000, 0.00390625, 0.00000000, 0.00390625, -0.01562500, 0.00390625, 0.00000000, -0.00390625, 0.00781250, 0.00390625, 0.00781250, 0.00000000, 0.00390625, 0.00390625, 0.00000000, -0.00390625, 0.00000000, 0.00390625, 0.01171875, 0.00000000, 0.00000000, -0.00390625, 0.00000000, -0.00781250, 0.00390625, -0.00390625, 0.00781250, -0.00390625, 0.00390625, 0.00390625, 0.00000000, 0.00000000, 0.00000000, 0.00781250, 0.00000000, 0.00000000, 0.00390625, 0.00000000, 0.00390625, 0.00390625, 0.00390625, -0.00390625, -0.00390625, 0.00390625, -0.00390625, 0.00390625, 0.00000000, 0.00390625, 0.00000000, -0.00390625, -0.00390625, 0.00000000, 0.00390625, 0.00000000, -0.00781250, 0.00390625, -0.00390625, -0.00390625, -0.00390625, 0.00000000, 0.00390625, 0.00000000, -0.00390625, 0.00390625, 0.00390625, -0.00390625, 0.00000000, 0.00390625, -0.00390625, 0.00781250, -0.00390625, -0.00390625, 0.00390625, 0.00000000, 0.00000000, -0.00390625, 0.00390625, 0.00000000, -0.00390625, -0.00390625, -0.00781250, 0.00390625, 0.00390625, 0.00000000, 0.00000000, 0.00000000, 0.00000000, -0.00781250, 0.00000000, -0.00390625, 0.00390625, 0.00000000, 0.00390625, 0.00000000, 0.00000000, -0.00781250, -0.00390625, 0.00390625, -0.00390625, 0.00000000, 0.00390625, -0.00390625, 0.00000000, 0.00000000, 0.00390625, 0.00000000, 0.00000000, 0.00000000, 0.00000000, 0.00000000, -0.00781250, 0.00390625, 0.00000000, 0.00781250, -0.00390625, -0.00390625, 0.00390625, 0.00390625, -0.01171875, 0.00390625, -0.00781250, -0.00390625, -0.00390625, 0.00390625, 0.00390625, 0.00000000, -0.00390625, 0.00390625, -0.00390625, 0.00000000, -0.00390625, 0.00390625, 0.00000000, 0.00781250, 0.00000000, -0.00390625, 0.00390625, 0.00390625, 0.00390625, 0.00390625, 0.00000000, 0.00390625, -0.00390625, -0.00390625, -0.00390625, 0.00390625, 0.00390625, 0.00000000, 0.00000000, -0.00781250, 0.00000000, -0.00781250, 0.00390625, -0.00781250, 0.00781250, -0.00781250, 0.00390625, -0.00390625, -0.00781250, -0.00781250, -0.00781250, 0.00390625, -0.00390625, 0.00390625, 0.00390625, -0.00390625, 0.00390625, 0.00390625, 0.00390625, -0.00390625, -0.00390625, 0.00000000, -0.01953125, 0.00781250, 0.06640625, 0.00781250, -0.16796875, -0.03906250, -0.08984375, -0.07031250, 0.03125000, 0.05859375, 0.04687500, 0.03515625, 0.04687500, -0.05468750, -0.23437500, -0.03906250, -0.00781250, -0.18359375, -0.08203125, -0.10546875, 0.05859375, 0.05859375, 0.06250000, -0.04687500, -0.03906250, 0.02734375, -0.01562500, -0.08984375, -0.03906250, 0.03125000, 0.01562500, 0.12109375, 0.05078125, -0.20703125, -0.05859375, 0.09375000, -0.07031250, 0.00000000, -0.03906250, -0.10546875, 0.15234375, 0.00000000, 0.00390625, -0.05078125, 0.05859375, -0.07421875, -0.09765625, -0.02734375, -0.01562500, 0.05468750, 0.02734375, 0.02343750, -0.01171875, -0.03125000, -0.11328125, 0.08203125, -0.01171875, -0.07421875, 0.00390625, -0.05468750, 0.03515625, -0.11718750, -0.16406250, -0.05468750, 0.02734375, -0.00390625, 0.05859375, -0.00390625, 0.00390625, -0.01562500, 0.02734375, 0.06640625, 0.02734375, 0.01953125, 0.00000000, 0.00390625, 0.01562500, -0.08593750, 0.06250000, -0.03125000, 0.07421875, 0.03515625, 0.03515625, -0.13671875, -0.03906250, -0.03906250, -0.00781250, -0.02343750, 0.06250000, -0.00781250, 0.07421875, -0.05078125, -0.02343750, 0.02734375, -0.00781250, -0.08984375, 0.18359375, 0.04296875, 0.00781250, 0.02343750, -0.01953125, -0.02343750, -0.02734375, -0.07812500, 0.03515625, 0.04687500, -0.03906250, -0.01562500, 0.01171875, -0.01171875, -0.07421875, 0.04296875, -0.00390625, -0.03906250, -0.16015625, -0.18359375, -0.07031250, -0.01171875, -0.01171875, 0.04296875, -0.01953125, 0.04687500, -0.01953125, -0.04687500, -0.01562500, 0.03125000, 0.01953125, -0.01953125, 0.11328125, -0.00390625, -0.12109375, 0.03515625, 0.05468750, 0.03515625, 0.10156250, 0.05468750, 0.04687500, -0.02343750, -0.00390625, 0.06640625, -0.03515625, -0.04687500, 0.04296875, 0.00000000, 0.14453125, 0.09375000, 0.02734375, -0.03125000, -0.06250000, -0.02734375, -0.00781250, 0.01171875, 0.02734375, 0.02734375, 0.11328125, -0.02734375, 0.05078125, 0.02734375, 0.03515625, -0.21875000, 0.08203125, 0.12109375, 0.03125000, -0.01953125, -0.02343750, 0.04296875, 0.02734375, 0.05078125, -0.03515625, 0.00000000, 0.01171875, 0.07812500, 0.04687500, -0.00781250, -0.02343750, -0.00781250, 0.03515625, -0.09375000, -0.25781250, -0.07421875, -0.05468750, 0.02343750, -0.01953125, 0.07031250, -0.01562500, 0.02343750, 0.00781250, -0.02734375, 0.01562500, -0.00781250, -0.02343750, -0.00390625, -0.25390625, 0.05468750, -0.06250000, 0.02734375, -0.07812500, -0.08593750, -0.06250000, -0.17968750, 0.05859375, 0.13671875, 0.14843750, 0.07421875, 0.06640625, -0.05468750, -0.17578125, 0.00390625, -0.07421875, -0.10546875, 0.04296875, 0.09765625, 0.07812500, -0.00781250, 0.02343750, -0.03906250, -0.05078125, 0.01171875, -0.01953125, -0.04687500, -0.03125000, 0.09375000, 0.00000000, 0.05859375, -0.07812500, -0.02343750, 0.05468750, 0.09765625, -0.00390625, -0.01171875, 0.03906250, 0.05078125, 0.10546875, 0.09765625, -0.02734375, 0.01171875, 0.05078125, -0.05859375, -0.08593750, -0.05468750, -0.03125000, 0.18359375, 0.00000000, 0.04687500, -0.01171875, 0.04687500, 0.01562500, 0.10937500, 0.00000000, -0.00781250, 0.02343750, 0.04687500, 0.02343750, -0.21484375, -0.17187500, -0.00781250, -0.07031250, -0.01171875, 0.00781250, -0.02343750, 0.05859375, 0.04296875, -0.04687500, -0.01953125, 0.00781250, 0.08593750, 0.07031250, -0.00390625, 0.07031250, -0.01562500, 0.08593750, -0.02343750, -0.05078125, -0.05468750, -0.05078125, 0.02734375, -0.04296875, -0.00390625, -0.01562500, -0.08203125, -0.10156250, -0.00781250, 0.04687500, 0.01953125, -0.01171875, 0.02343750, -0.01562500, 0.06640625, 0.03125000, 0.11718750, -0.00781250, -0.01562500, 0.05468750, -0.04296875, 0.00781250, 0.07812500, 0.08203125, 0.12890625, -0.01562500, 0.06640625, -0.01953125, -0.08203125, -0.13281250, -0.07421875, -0.03906250, 0.01953125, -0.03125000, -0.05468750, 0.10546875, 0.01171875, -0.04687500, 0.03125000, -0.03906250, 0.06640625, -0.01171875, 0.01953125, -0.05078125, -0.02734375, 0.03125000, -0.03906250, -0.05468750, -0.04296875, -0.04296875, -0.00390625, 0.16796875, 0.00781250, 0.01953125, 0.09375000, 0.02734375, 0.02343750, -0.01953125, 0.06640625, 0.00000000, -0.08593750, -0.06640625, 0.00390625, -0.18750000, -0.04296875, 0.00781250, -0.05859375, -0.09765625, -0.12109375, 0.05078125, -0.01171875, 0.02343750, 0.00000000, -0.03125000, -0.03125000, 0.05859375, 0.00781250, 0.08984375, -0.10937500, 0.01171875, 0.07031250, 0.05859375, -0.10937500, 0.09765625, 0.01953125, 0.04687500, 0.00390625, -0.11328125, -0.08203125, -0.01171875, 0.04687500, 0.01562500, -0.05468750, -0.07031250, 0.03125000, 0.04687500, 0.00781250, -0.03906250, -0.17968750, 0.13671875, 0.01171875, 0.01562500, 0.00390625, -0.06250000, 0.08984375, -0.00781250, -0.05078125, -0.01171875, -0.00781250, -0.07421875, 0.05078125, -0.01171875, 0.05468750, -0.04296875, 0.03906250, 0.00000000, -0.05859375, 0.01171875, -0.16796875, 0.03515625, 0.08984375, -0.07031250, 0.00000000, 0.12109375, 0.03906250, -0.21093750, 0.02734375, -0.04687500, -0.15625000, 0.11718750, -0.12109375, -0.20703125, -0.00390625, -0.12890625, -0.01562500, -0.06640625, 0.04296875, -0.23828125, -0.00390625, -0.01562500, 0.07421875, -0.00781250, -0.01953125, -0.10546875, -0.17578125, -0.13281250, 0.05468750, 0.12500000, 0.02734375, -0.01562500, -0.11328125, -0.06640625, 0.07031250, 0.00000000, 0.03906250, 0.09375000, 0.01953125, -0.12500000, -0.03125000, 0.03125000, 0.01953125, 0.00781250, 0.10156250, -0.12890625, -0.01562500, 0.03906250, 0.03906250, 0.05859375, -0.05078125, 0.07812500, -0.05859375, 0.03125000, 0.05078125, 0.05078125, 0.02343750, -0.04687500, 0.00781250, -0.10156250, 0.00000000, 0.01953125, 0.08984375, 0.00781250, -0.17187500, 0.01171875, 0.08984375, -0.09765625, -0.04296875, 0.01171875, -0.10156250, -0.08984375, -0.07031250, -0.02734375, 0.12109375, 0.06250000, -0.19921875, -0.07031250, 0.03906250, -0.05078125, -0.02343750, -0.07812500, -0.01953125, -0.08203125, -0.04687500, -0.09375000, -0.00390625, -0.01171875, 0.00390625, 0.02343750, 0.01171875, -0.09375000, -0.01953125, 0.00000000, -0.04687500, -0.08593750, 0.00000000, -0.01953125, -0.00390625, -0.10546875, 0.02343750, 0.05078125, -0.06640625, -0.12109375, -0.07031250, -0.02734375, -0.06640625, -0.10546875, 0.01171875, -0.00781250, -0.07421875, -0.05859375, -0.01171875, -0.00781250, -0.03515625, 0.03125000, -0.09375000, -0.01953125, -0.06250000, 0.18750000, -0.02343750, -0.19531250, -0.02343750, -0.06250000, 0.02343750, -0.00390625, 0.04296875, 0.06250000, -0.23828125, 0.03125000, 0.09375000, -0.08593750, 0.06640625, 0.06640625, -0.20312500, -0.09765625, -0.02343750, -0.10937500, -0.09375000, -0.00781250, -0.24218750, -0.16796875, -0.09375000, -0.02343750, -0.01171875, -0.12500000, 0.02343750, -0.09765625, -0.14843750, 0.03125000, -0.00390625, 0.03515625, -0.10156250, 0.00781250, 0.10937500, -0.17968750, -0.07421875, 0.03515625, 0.00000000, 0.01953125, 0.13671875, -0.07812500, -0.12890625, -0.08984375, -0.05078125, 0.03906250, -0.14843750, -0.26171875, -0.09765625, 0.03125000, -0.06250000, 0.05859375, -0.01562500, -0.09375000, -0.03125000, -0.10937500, -0.04687500, -0.04296875, -0.00781250, 0.01171875, -0.09375000, -0.00390625, -0.14062500, -0.07031250, 0.03906250, 0.01953125, 0.00781250, 0.00000000, 0.00390625, 0.00000000, -0.00390625, 0.01171875, 0.00000000, 0.00781250, 0.00000000, 0.00000000, 0.00390625, 0.00000000, 0.00000000, -0.01171875, 0.00390625, 0.00000000, 0.00390625, -0.00390625, 0.00000000, 0.00000000, -0.00390625, -0.00390625, 0.00781250, 0.00000000, 0.00781250, -0.00390625, 0.00000000, 0.00390625, 0.00390625, 0.00781250, 0.00781250, 0.00000000, -0.00781250, -0.00390625, -0.00390625, -0.00781250, 0.00781250, 0.00781250, 0.00390625, -0.02343750, -0.00390625, -0.00390625, 0.00000000, 0.00000000, 0.00000000, 0.00781250, 0.00000000, 0.00390625, -0.01562500, -0.00390625, 0.00390625, 0.00390625, 0.01171875, 0.00000000, -0.00781250, 0.00781250, 0.00000000, 0.00390625, 0.01171875, 0.01171875, 0.00000000, -0.00390625, 0.00390625, 0.00000000, 0.00390625, 0.00390625, 0.00390625, 0.00781250, -0.01171875, 0.00390625, 0.00390625, 0.00390625, -0.00390625, 0.01171875, 0.00000000, 0.00000000, -0.00390625, -0.00390625, 0.00000000, 0.00000000, -0.00390625, 0.00000000, 0.00000000, 0.00390625, -0.00781250, -0.01562500, 0.00390625, 0.00390625, 0.00390625, -0.00390625, 0.00390625, -0.00390625, 0.00390625, -0.00390625, -0.01562500, 0.00390625, -0.02343750, -0.00390625, -0.00781250, -0.00390625, 0.00000000, 0.00390625, 0.00390625, -0.01953125, -0.00390625, -0.00781250, -0.01171875, 0.00000000, 0.00390625, 0.00000000, 0.00390625, 0.00390625, 0.00390625, 0.00781250, 0.00390625, 0.01562500, 0.00390625, 0.00000000, -0.00781250, -0.00390625, 0.00390625, 0.00390625, 0.00390625, 0.00390625, 0.00000000, -0.00390625, 0.00390625, 0.01562500, 0.00390625, 0.00390625, 0.00390625, 0.01953125, 0.00000000, -0.00781250, 0.01562500, 0.00000000, 0.00390625, 0.02343750, 0.00000000, -0.00390625, 0.00390625, 0.00000000, 0.00390625, 0.00390625, 0.00000000, 0.01171875, -0.00781250, 0.00390625, -0.01171875, -0.00390625, 0.00390625, 0.00000000, 0.00781250, -0.01171875, 0.00000000, -0.00390625, 0.00390625, -0.00390625, 0.01171875, 0.00000000, -0.02343750, -0.00390625, 0.00390625, -0.01562500, 0.00000000, 0.00390625, -0.00390625, -0.01562500, -0.01953125, -0.00781250, -0.01562500, 0.00390625, -0.00390625, 0.00390625, 0.00000000, -0.00390625, 0.00781250, -0.00781250, 0.00781250, 0.00390625, 0.00390625, 0.00000000, -0.00390625, 0.00390625, 0.01171875, 0.00390625, 0.00781250, 0.00390625, 0.00000000, 0.00000000, -0.00390625, 0.00781250, 0.00390625, -0.00390625, 0.00781250, 0.00781250, -0.01171875, -0.01562500, -0.00390625, 0.00390625, 0.00390625, 0.00781250, 0.00390625, -0.00390625, -0.00390625, -0.00781250, 0.00000000, -0.00781250, 0.00781250, 0.01171875, -0.00781250, 0.00390625, -0.00390625, 0.01171875, 0.01171875, 0.00000000, 0.00390625, -0.00390625, 0.00000000, 0.00781250, 0.00390625, 0.00781250, 0.00000000, 0.00390625, -0.01171875, -0.00390625, -0.00781250, 0.00390625, 0.00781250, 0.00781250, -0.00781250, 0.00390625, 0.00000000, -0.00781250, -0.00781250, 0.00781250, -0.00390625, 0.00000000, 0.00000000, 0.01171875, 0.00390625, 0.00781250, 0.00000000, 0.00781250, 0.00390625, 0.00000000, 0.00390625, 0.00000000, 0.00390625, 0.00781250, 0.00000000, 0.01171875, -0.00390625, -0.00390625, 0.00390625, 0.00000000, 0.00781250, 0.00000000, 0.00390625, -0.00781250, -0.01953125, -0.01953125, 0.00390625, 0.00781250, 0.00390625, 0.00781250, 0.00781250, -0.00390625, 0.00390625, -0.00390625, 0.00000000, -0.00781250, 0.00390625, 0.01562500, 0.00390625, 0.00781250, 0.00000000, 0.00781250, 0.00781250, 0.01562500, 0.00781250, -0.00781250, 0.00000000, -0.00390625, 0.01171875, -0.00781250, -0.00781250, 0.00390625, -0.00781250, 0.00390625, 0.00390625, -0.00781250, 0.00390625, -0.00390625, -0.00390625, 0.01562500, 0.00000000, 0.00390625, -0.00781250, 0.00390625, 0.00000000, 0.00390625, 0.00000000, 0.00390625, 0.00000000, 0.00781250, 0.00000000, 0.00781250, 0.00000000, 0.00000000, 0.00390625, 0.00000000, 0.00390625, 0.00781250, 0.00390625, 0.00781250, 0.00000000, 0.00000000, 0.00390625, -0.01562500, 0.00390625, 0.00000000, 0.00390625, 0.00000000, 0.00390625, -0.02343750, 0.00000000, 0.00781250, 0.02343750, 0.03906250, 0.00000000, -0.00390625, 0.00000000, -0.00781250, 0.00000000, -0.00781250, -0.00781250, 0.01171875, -0.00390625, 0.00000000, -0.00390625, 0.01171875, 0.00390625, 0.00000000, 0.00781250, -0.00781250, 0.00000000, -0.00390625, 0.00781250, 0.00000000, 0.02343750, -0.00390625, -0.00781250, -0.00390625, 0.02343750, 0.00000000, 0.00390625, -0.00390625, -0.00781250, 0.01953125, -0.00390625, -0.00781250, -0.01171875, 0.00390625, 0.00000000, 0.02734375, -0.00390625, -0.00390625, 0.01171875, -0.00390625, 0.00000000, 0.00000000, 0.00390625, -0.00390625, 0.00390625, 0.00781250, 0.00390625, 0.01171875, 0.00781250, 0.00390625, -0.00390625, 0.00390625, -0.00390625, -0.00781250, 0.00000000, -0.00390625, 0.00781250, -0.00390625, 0.00000000, -0.00781250, -0.00390625, 0.00390625, -0.01171875, -0.01562500, 0.00000000, -0.00390625, -0.00390625, -0.00781250, 0.00390625, 0.00000000, 0.00781250, 0.00000000, 0.01171875, 0.00390625, 0.00781250, 0.00390625, 0.00781250, 0.01171875, 0.00390625, 0.00000000, -0.00390625, 0.00390625, 0.00390625, 0.00390625, -0.01171875, -0.00781250, 0.00000000, -0.00781250, -0.01171875, -0.00781250, 0.00781250, 0.00781250, 0.00000000, -0.01171875, 0.00781250, 0.00390625, 0.01171875, 0.00390625, -0.00390625, 0.00390625, -0.00390625, 0.00390625, 0.00390625, 0.00000000, -0.00390625, 0.00390625, 0.00781250, -0.00781250, -0.00390625, 0.00390625, 0.00000000, 0.00000000, 0.00390625, 0.00390625, -0.00781250, -0.00390625, 0.00781250, -0.01171875, 0.00390625, 0.00000000, 0.00390625, -0.01171875, -0.00781250, -0.00781250, -0.00390625, 0.00000000, -0.00781250, -0.01953125, 0.00000000, -0.00390625, 0.00390625, -0.00390625, 0.00390625, 0.00781250, 0.00781250, 0.00390625, 0.01562500, 0.01171875, 0.00781250, 0.00781250, 0.01171875, 0.02734375, 0.00390625, -0.00781250, -0.00390625, 0.00390625, 0.00390625, -0.00781250, -0.00781250, 0.00000000, 0.00390625, -0.00390625, -0.00390625, -0.02343750, 0.00390625, 0.00390625, 0.00000000, 0.00000000, -0.00390625, 0.01171875, 0.00000000, 0.00390625, 0.00000000, 0.00390625, -0.00390625, 0.00390625, -0.00390625, 0.00000000, -0.01171875, 0.00390625, 0.00390625, -0.00390625, 0.00000000, 0.00390625, 0.00390625, 0.00390625, 0.00781250, 0.00390625, -0.00390625, -0.00390625, 0.00390625, -0.01953125, 0.00390625, 0.00781250, 0.00390625, -0.00390625, 0.00390625, -0.01171875, -0.01562500, 0.00390625, 0.01562500, 0.00000000, 0.00000000, -0.00781250, -0.00781250, -0.00781250, 0.00390625, 0.00390625, 0.00000000, 0.00781250, 0.01953125, 0.00000000, 0.00781250, 0.03515625, 0.00781250, 0.00781250, 0.00781250, 0.01171875, -0.00781250, 0.00000000, 0.00390625, 0.00000000, 0.00781250, 0.00390625, 0.00390625, -0.00781250, 0.01171875, -0.00390625, 0.00000000, 0.00000000, 0.00000000, 0.00000000, -0.01171875, 0.00000000, -0.00781250, 0.00781250, -0.00781250, 0.00390625, -0.00781250, 0.00000000, -0.00390625, -0.00781250, 0.00000000, 0.00000000, 0.00390625, -0.00781250, 0.00781250, 0.00781250, -0.00390625, 0.00390625, 0.00781250, 0.00000000, -0.00390625, -0.00390625, 0.00000000, -0.00390625, 0.00000000, 0.00000000, 0.00000000, 0.00000000, 0.00000000, 0.00000000, 0.00000000, 0.00390625, 0.00000000, 0.00000000, 0.00000000, 0.00000000, 0.00000000, -0.00390625, 0.00000000, 0.00000000, 0.00000000, 0.00000000, 0.00000000, 0.00000000, 0.00000000, 0.00390625, 0.00000000, 0.00000000, 0.00000000, -0.00390625, 0.00000000, 0.00000000, 0.00000000, 0.00000000, 0.00390625, 0.00000000, 0.00000000, 0.00000000, 0.00390625, 0.00390625, 0.00000000, 0.00000000, -0.00390625, 0.00390625, 0.00000000, 0.00000000, 0.00000000, 0.00000000, 0.00000000, 0.00390625, 0.00000000, 0.00000000, -0.00390625, 0.00000000, 0.00000000, 0.00000000, 0.00000000, 0.00000000, 0.00000000, 0.00000000, 0.00000000, 0.00000000, 0.00000000, 0.00000000, 0.00000000, 0.00000000, 0.00000000, 0.00000000, 0.00000000, 0.00000000, 0.00000000, 0.00000000, -0.00390625, 0.00000000, -0.00390625, 0.00000000, 0.00000000, 0.00000000, 0.00000000, 0.00000000, 0.00000000, 0.00000000, 0.00000000, 0.00390625, 0.00000000, 0.00000000, 0.00000000, 0.00000000, 0.00000000, 0.00000000, 0.00000000, -0.00390625, 0.00000000, -0.00390625, -0.00390625, 0.00000000, 0.00000000, 0.00000000, -0.00390625, 0.00000000, 0.00000000, 0.00000000, -0.00390625, 0.00000000, 0.00000000, 0.00000000, 0.00000000, 0.00000000, 0.00000000, 0.00000000, 0.00000000, 0.00000000, 0.00000000, 0.00000000, 0.00000000, 0.00000000, 0.00000000, 0.00000000, 0.00000000, 0.00390625, 0.00000000, 0.00000000, 0.00000000, 0.00000000, 0.00000000, 0.00000000, 0.00000000, 0.00000000, 0.00000000, 0.00000000, 0.00000000, 0.00000000, 0.00000000, 0.00000000, 0.00000000, 0.00000000, 0.00000000, -0.00390625, 0.00000000, 0.00000000, 0.00000000, 0.00000000, 0.00000000, 0.00000000, 0.00000000, 0.00000000, 0.00000000, 0.00390625, 0.00000000, 0.00390625, 0.00000000, 0.00000000, 0.00000000, 0.00000000, 0.00390625, -0.00390625, 0.00000000, 0.00000000, 0.00000000, 0.00000000, 0.00000000, 0.00000000, -0.00390625, 0.00000000, 0.00000000, 0.00000000, 0.00000000, 0.00000000, 0.00000000, 0.00000000, -0.00390625, 0.00390625, -0.00390625, -0.00390625, 0.00000000, 0.00000000, 0.00000000, 0.00000000, 0.00000000, 0.00000000, 0.00390625, 0.00000000, 0.00000000, 0.00000000, 0.00000000, 0.00000000, 0.00000000, 0.00000000, 0.00000000, 0.00000000, 0.00000000, 0.00000000, 0.00000000, 0.00000000, 0.00000000, 0.00000000, 0.00390625, 0.00000000, 0.00390625, 0.00000000, 0.00000000, 0.00000000, 0.00000000, 0.00390625, 0.00000000, 0.00781250, 0.00390625, 0.00000000, 0.00000000, 0.00000000, 0.00000000, 0.00000000, 0.00000000, 0.00390625, 0.00000000, 0.00000000, 0.00000000, 0.00000000, 0.00390625, 0.00000000, 0.00390625, -0.00390625, 0.00000000, 0.00390625, 0.00390625, 0.00390625, 0.00000000, 0.00000000, -0.00390625, 0.00000000, 0.00000000, 0.00000000, 0.00390625, 0.00390625, 0.00000000, 0.00000000, 0.00000000, 0.00000000, -0.00390625, 0.00390625, 0.00000000, 0.00000000, 0.00000000, 0.00390625, 0.00000000, 0.00000000, 0.00000000, 0.00000000, 0.00390625, 0.00000000, 0.00000000, 0.00390625, 0.00000000, 0.00390625, 0.00390625, 0.00390625, 0.00000000, 0.00000000, 0.00390625, 0.00390625, 0.00390625, 0.00000000, 0.00390625, 0.00000000, -0.00390625, 0.00000000, 0.00000000, 0.00390625, 0.00000000, 0.00000000, 0.00390625, 0.00000000, 0.00000000, 0.00000000, 0.00000000, 0.00000000, 0.00000000, 0.00000000, 0.00000000, 0.00000000, 0.00000000, 0.00000000, 0.00390625, 0.00390625, 0.00390625, 0.00000000, 0.00000000, 0.00000000, 0.00390625, 0.00000000, 0.00000000, 0.00000000, -0.00390625, 0.00000000, 0.00000000, -0.00390625, 0.00390625, 0.00000000, 0.00000000, 0.00000000, 0.00000000, 0.00390625, 0.00000000, 0.00390625, 0.00000000, 0.00000000, 0.00000000, 0.00390625, 0.00000000, 0.00000000, 0.00000000, 0.00000000, 0.00000000, 0.00000000, 0.00000000, 0.00000000, 0.00000000, 0.00390625, 0.00390625, 0.00390625, 0.00000000, 0.00000000, 0.00390625, -0.00390625, 0.00390625, 0.00000000, 0.00390625, 0.00000000, 0.00000000, 0.00000000, 0.00000000, 0.00390625, 0.00000000, 0.00781250, 0.00390625, 0.00000000, 0.00000000, 0.00000000, 0.00000000, -0.00390625, -0.00390625, 0.00390625, 0.00000000, 0.00000000, -0.00390625, 0.00000000, 0.00390625, 0.00781250, 0.00390625, 0.00000000, 0.00000000, 0.00000000, 0.00390625, 0.00000000, 0.00000000, 0.00000000, 0.00000000, 0.00000000, 0.00390625, 0.00000000, 0.00390625, 0.00000000, -0.00390625, 0.00000000, -0.00390625, 0.00000000, 0.00000000, 0.00390625, 0.00000000, 0.00000000, 0.00000000, 0.00000000, 0.00000000, -0.00390625, 0.00000000, 0.00000000, 0.00000000, 0.00000000, 0.00000000, 0.00000000, 0.00000000, 0.00390625, 0.00000000, 0.00390625, 0.00000000, 0.00000000, 0.00000000, -0.00390625, 0.00390625, 0.00000000, 0.00390625, -0.00390625, 0.00000000, 0.00000000, 0.00000000, 0.00390625, 0.00000000, 0.00000000, 0.00000000, 0.00000000, 0.00000000, 0.00000000, 0.00390625, 0.00000000, 0.00000000, 0.00390625, 0.00390625, 0.00000000, 0.00000000, 0.00000000, 0.00390625, -0.00390625, 0.00390625, 0.00000000, 0.00000000, 0.00390625, 0.00000000, 0.00390625, 0.00000000, 0.00000000, 0.00000000, 0.00000000, 0.00000000, 0.00781250, 0.00390625, 0.00390625, 0.00000000, 0.00000000, 0.00000000, 0.00000000, 0.00000000, 0.00390625, 0.00000000, 0.00390625, 0.00000000, 0.00390625, 0.00000000, 0.00000000, 0.00390625, 0.00000000, 0.00390625, 0.00000000, 0.00000000, 0.00390625, 0.00000000, 0.00390625, 0.00000000, 0.00390625, 0.00000000, 0.00000000, 0.00390625, -0.00390625, 0.00390625, 0.00000000, 0.00000000, 0.00000000, 0.00000000, 0.00000000, 0.00000000, 0.00000000, -0.00390625, 0.00000000, 0.00000000, 0.00000000, 0.00000000, 0.00000000, 0.00000000, -0.00390625, 0.00000000, 0.00000000, 0.00000000, 0.00000000, -0.00390625, -0.00390625, 0.00000000, 0.00000000, 0.00390625, 0.00000000, 0.00000000, 0.00000000, 0.00390625, 0.00000000, 0.00000000, 0.00000000, 0.00000000, 0.00000000, 0.00000000, 0.00000000, 0.00000000, 0.00000000, 0.00000000, 0.00000000, 0.00000000, 0.00000000, 0.00000000, 0.00390625, 0.00000000, 0.00000000, 0.00000000, 0.00390625, 0.00000000, 0.00000000, 0.00000000, 0.00000000, 0.00390625, 0.00000000, 0.00000000, 0.00390625, 0.00000000, 0.00390625, 0.00000000, 0.00000000, 0.00000000, 0.00000000, 0.00000000, 0.00000000, 0.00000000, 0.00000000, 0.00000000, 0.00000000, 0.00390625, 0.00000000, 0.00000000, 0.00390625, 0.00000000, 0.00000000, 0.00000000, 0.00000000, 0.00000000, 0.00000000, 0.00000000, -0.00390625, 0.00000000, 0.00000000, 0.00390625, -0.00390625, -0.00390625, -0.00390625, 0.00390625, 0.00000000, 0.00390625, 0.00000000, 0.00000000, 0.00000000, 0.00000000, 0.00000000, 0.00390625, 0.00000000, 0.00000000, -0.00390625, 0.00000000, 0.00390625, 0.00000000, 0.00390625, 0.00000000, 0.00000000, -0.00390625, 0.00000000, 0.00000000, 0.00390625, 0.00000000, 0.00000000, 0.00000000, 0.00000000, 0.00000000, -0.00390625, 0.00390625, 0.00000000, 0.00390625, 0.00000000, 0.00000000, 0.00390625, 0.00000000, 0.00390625, 0.00000000, 0.00000000, 0.00000000, 0.00000000, 0.00000000, 0.12500000, -0.00781250, 0.03906250, 0.01953125, -0.04296875, 0.01562500, 0.02734375, 0.01171875, -0.01953125, 0.00781250, 0.05859375, 0.02343750, 0.01171875, -0.04296875, -0.02734375, 0.01562500, 0.19921875, 0.10546875, 0.02343750, -0.01171875, 0.03125000, -0.02734375, -0.03125000, 0.03125000, -0.08984375, 0.05078125, -0.01171875, -0.10937500, 0.03906250, -0.00781250, 0.02343750, -0.07812500, 0.11718750, 0.00390625, -0.03515625, 0.00781250, 0.02734375, 0.07031250, 0.03906250, 0.01562500, -0.01953125, 0.05859375, 0.13281250, 0.01953125, 0.00000000, -0.06640625, 0.09375000, -0.03515625, 0.02734375, -0.05468750, -0.02343750, 0.08984375, 0.00000000, 0.03515625, -0.08984375, -0.01953125, 0.01953125, -0.13671875, 0.00781250, -0.01562500, 0.01562500, -0.05468750, -0.11718750, 0.01953125, 0.12890625, -0.00781250, -0.03125000, 0.00390625, -0.18359375, 0.00000000, 0.10546875, 0.10546875, 0.00000000, 0.19140625, 0.01562500, 0.00390625, -0.03906250, 0.04296875, 0.11718750, -0.02343750, 0.01562500, 0.16406250, 0.01171875, 0.05078125, 0.17187500, 0.01562500, 0.01562500, 0.00390625, -0.12500000, 0.01953125, 0.12890625, -0.08984375, 0.02734375, 0.00000000, 0.02343750, 0.00390625, -0.02343750, 0.01953125, 0.03906250, 0.01562500, 0.05078125, 0.01953125, 0.01171875, -0.01171875, -0.00781250, -0.11328125, 0.05859375, -0.06640625, -0.01171875, 0.02734375, -0.00781250, -0.07421875, 0.01171875, 0.02734375, -0.04687500, 0.07421875, -0.07421875, 0.01562500, -0.06250000, -0.00781250, 0.00781250, -0.14062500, 0.03906250, -0.02734375, 0.01953125, 0.00781250, 0.04296875, -0.01953125, 0.03125000, -0.01562500, -0.19531250, -0.02343750, 0.00000000, 0.02343750, 0.00390625, 0.05859375, -0.01562500, 0.09765625, 0.04687500, -0.02343750, -0.03125000, -0.20703125, -0.00781250, -0.00781250, -0.02734375, -0.03515625, -0.00390625, 0.00390625, 0.05859375, 0.02734375, 0.10546875, -0.03125000, 0.04296875, -0.01562500, -0.08203125, -0.19531250, 0.01562500, -0.01171875, 0.01562500, 0.04296875, 0.03125000, -0.03906250, -0.07812500, 0.04296875, 0.11328125, -0.00781250, -0.00781250, -0.08203125, 0.02734375, 0.03125000, -0.05859375, -0.03906250, -0.01171875, -0.17578125, -0.02343750, -0.12890625, 0.01171875, 0.05859375, -0.08593750, 0.10156250, 0.03515625, -0.03906250, -0.10937500, 0.00390625, -0.02343750, -0.15234375, -0.01562500, -0.07421875, -0.01562500, -0.05859375, -0.07812500, -0.04296875, 0.03515625, -0.01171875, 0.00390625, 0.03515625, -0.04296875, -0.03125000, -0.05468750, 0.01953125, 0.02734375, 0.09375000, -0.02734375, 0.00781250, -0.11718750, -0.05859375, -0.16406250, 0.00000000, 0.00781250, -0.05468750, -0.06250000, -0.09375000, -0.00781250, 0.04296875, 0.13281250, 0.00781250, -0.16015625, -0.01562500, 0.12109375, -0.08984375, 0.00390625, 0.02343750, 0.02343750, 0.03515625, 0.03125000, -0.04687500, -0.05468750, 0.01171875, 0.01953125, 0.03125000, 0.01171875, -0.07421875, -0.02734375, 0.01171875, -0.12500000, -0.07812500, -0.01953125, -0.10156250, -0.14062500, -0.00781250, -0.01171875, 0.00390625, -0.03125000, 0.02734375, 0.07031250, -0.01171875, -0.05859375, 0.02734375, -0.02343750, -0.06250000, -0.00390625, 0.01953125, 0.00000000, -0.06640625, -0.10546875, -0.05468750, -0.02343750, -0.01171875, -0.03125000, -0.01953125, -0.13671875, 0.15625000, -0.02734375, 0.06640625, 0.00000000, 0.12109375, -0.01171875, 0.00000000, -0.17578125, 0.01562500, 0.01953125, -0.00781250, 0.05078125, -0.00781250, -0.05078125, -0.03906250, 0.03906250, 0.01953125, 0.07031250, 0.00390625, -0.09765625, -0.01562500, 0.07812500, -0.03515625, 0.01562500, 0.00781250, 0.05078125, 0.04296875, -0.06250000, 0.09375000, 0.02343750, 0.05468750, -0.01171875, 0.01953125, 0.03515625, -0.18750000, -0.03906250, -0.12890625, -0.08203125, -0.12109375, -0.01953125, -0.00781250, -0.10937500, -0.05078125, -0.01953125, -0.06640625, -0.25390625, 0.03515625, -0.21875000, 0.01562500, -0.02343750, 0.04687500, -0.01171875, -0.03515625, 0.00781250, -0.01171875, 0.00781250, -0.00390625, 0.02734375, -0.00781250, -0.08203125, -0.02343750, 0.01953125, -0.03125000, -0.09375000, 0.06250000, -0.08203125, -0.01171875, -0.03906250, 0.09765625, -0.08984375, -0.04687500, -0.03906250, -0.09765625, -0.03515625, -0.01953125, 0.06250000, -0.03515625, -0.02734375, 0.00000000, -0.06640625, 0.03515625, 0.04296875, -0.06640625, 0.07031250, -0.01562500, 0.01171875, -0.12890625, -0.03906250, -0.03906250, -0.00781250, 0.01562500, -0.01171875, 0.06640625, -0.11718750, 0.07812500, -0.01562500, -0.01171875, -0.00390625, -0.07031250, 0.04687500, 0.01562500, -0.10156250, -0.14843750, -0.03906250, -0.11718750, -0.07421875, -0.07812500, -0.04687500, -0.11328125, 0.12500000, 0.10546875, 0.03515625, -0.02343750, -0.09375000, -0.04687500, -0.00390625, -0.14062500, -0.02734375, -0.04687500, -0.04296875, -0.05468750, -0.07031250, -0.08203125, -0.21484375, -0.02343750, -0.10546875, 0.03515625, -0.12500000, -0.08984375, 0.08984375, -0.00390625, 0.06250000, -0.03125000, 0.00390625, 0.01562500, 0.02734375, -0.05468750, -0.16796875, -0.00781250, -0.03125000, -0.06250000, -0.03515625, -0.21093750, -0.07421875, -0.07421875, -0.02734375, -0.04296875, -0.15625000, -0.03515625, -0.05859375, -0.05859375, -0.01171875, 0.03125000, 0.02343750, 0.06640625, -0.08593750, 0.04296875, -0.05859375, -0.05468750, -0.00390625, 0.04687500, 0.01562500, 0.07812500, 0.04296875, 0.05468750, -0.30859375, -0.01171875, -0.03906250, -0.15234375, 0.00781250, -0.07031250, -0.02343750, -0.01953125, 0.05468750, 0.00390625, 0.27734375, -0.02343750, -0.07031250, 0.03906250, -0.01562500, -0.07812500, 0.01953125, -0.08984375, 0.04687500, -0.14062500, -0.22656250, 0.00390625, 0.05859375, 0.01562500, -0.02343750, 0.01953125, -0.23046875, -0.07031250, 0.01562500, 0.06640625, 0.05078125, -0.04296875, -0.05078125, 0.03515625, -0.03906250, -0.01562500, 0.08593750, -0.03515625, 0.03125000, 0.07031250, -0.03515625, -0.06250000, -0.10937500, -0.08203125, -0.14453125, 0.00781250, -0.04296875, 0.00390625, -0.05078125, 0.07031250, -0.00390625, 0.01562500, 0.03515625, 0.02343750, -0.10937500, -0.01171875, 0.00000000, 0.01171875, -0.02343750, 0.00390625, -0.02343750, -0.03906250, -0.00781250, -0.03906250, -0.18359375, -0.11328125, -0.02343750, 0.02343750, -0.05468750, 0.01171875, 0.00390625, 0.01171875, -0.13281250, -0.01171875, 0.02734375, -0.03125000, -0.01562500, -0.03515625, -0.04296875, 0.01171875, -0.00390625, -0.07421875, 0.02343750, 0.07031250, 0.04296875, -0.01171875, -0.01562500, 0.01562500, 0.02343750, 0.00390625, -0.30078125, 0.06250000, -0.01171875, -0.04296875, 0.02343750, 0.04296875, -0.02343750, 0.01171875, -0.03906250, 0.03906250, 0.01562500, -0.04687500, 0.05078125, 0.01171875, -0.08593750, 0.06640625, -0.16015625, -0.04687500, -0.01171875, -0.02343750, -0.05859375, 0.00000000, -0.09375000, 0.02734375, -0.03515625, 0.01562500, -0.00390625, 0.04687500, 0.01562500, 0.01171875, -0.08984375, 0.05468750, 0.05078125, -0.01953125, -0.10937500, 0.05859375, 0.03906250, -0.03515625, -0.16015625, -0.05078125, -0.05859375, -0.02734375, -0.03515625, 0.00390625, -0.05078125, -0.15234375, 0.04296875, 0.05468750, -0.01953125, -0.07421875, 0.02734375, -0.02343750, -0.03515625, -0.01171875, 0.00390625, -0.10546875, -0.00781250, 0.00000000, 0.05468750, -0.08203125, 0.00390625, 0.00390625, 0.00000000, 0.00390625, -0.00390625, 0.00000000, -0.00390625, 0.00000000, 0.00390625, 0.00000000, 0.00000000, 0.00390625, 0.00000000, 0.00000000, 0.00000000, 0.00390625, 0.00000000, 0.00000000, 0.00000000, 0.00000000, 0.00000000, 0.00000000, 0.00000000, 0.00390625, 0.00000000, 0.00390625, 0.00000000, 0.00000000, 0.00390625, 0.00390625, 0.00000000, 0.00000000, 0.00000000, 0.00000000, 0.00000000, 0.00390625, -0.00781250, 0.00390625, 0.00390625, -0.00390625, 0.00000000, 0.00000000, 0.00000000, 0.00000000, 0.00390625, 0.00000000, 0.00390625, 0.00000000, 0.00390625, -0.00390625, 0.00000000, 0.00390625, 0.00000000, 0.00390625, 0.00000000, 0.00000000, 0.00390625, 0.00000000, 0.00390625, 0.00390625, 0.00390625, 0.00000000, 0.00000000, 0.00000000, 0.00000000, 0.00390625, 0.00000000, 0.00000000, 0.00000000, 0.00000000, -0.00390625, 0.00000000, 0.00000000, 0.00000000, 0.00000000, 0.00000000, -0.00390625, 0.00000000, 0.00000000, 0.00390625, 0.00000000, 0.00000000, 0.00000000, -0.00390625, 0.00000000, 0.00000000, -0.00390625, 0.00390625, 0.00390625, 0.00000000, 0.00000000, 0.00000000, 0.00000000, 0.00390625, 0.00000000, 0.00000000, 0.00000000, 0.00000000, 0.00000000, 0.00000000, -0.00390625, 0.00390625, 0.00000000, 0.00000000, -0.00390625, 0.00000000, 0.00000000, -0.00390625, 0.00000000, 0.00000000, 0.00000000, 0.00000000, 0.00000000, 0.00000000, 0.00000000, 0.00390625, 0.00000000, 0.00390625, 0.00000000, -0.00390625, 0.00000000, 0.00000000, 0.00000000, 0.00000000, 0.00390625, 0.00000000, 0.00000000, 0.00000000, -0.00390625, 0.00000000, 0.00000000, 0.00000000, 0.00390625, 0.00000000, 0.00000000, 0.00000000, 0.00000000, 0.00000000, 0.00390625, 0.00000000, -0.00390625, 0.00000000, 0.00000000, 0.00000000, 0.00000000, -0.00390625, 0.00000000, -0.00390625, 0.00000000, 0.00000000, 0.00000000, 0.00390625, 0.00000000, 0.00000000, 0.00000000, 0.00000000, 0.00000000, 0.00390625, 0.00000000, 0.00390625, 0.00000000, 0.00000000, 0.00000000, 0.00000000, -0.00390625, 0.00390625, 0.00000000, 0.00000000, -0.00390625, -0.00390625, 0.00000000, -0.00390625, 0.00390625, 0.00000000, 0.00000000, 0.00000000, 0.00000000, 0.00000000, 0.00000000, 0.00000000, 0.00000000, 0.00000000, 0.00000000, 0.00000000, 0.00000000, 0.00000000, 0.00390625, 0.00390625, 0.00000000, 0.00000000, 0.00000000, 0.00000000, -0.00390625, 0.00390625, 0.00000000, 0.00390625, 0.00000000, 0.00000000, -0.00390625, 0.00000000, 0.00390625, 0.00000000, 0.00000000, 0.00390625, 0.00000000, 0.00000000, 0.00000000, 0.00390625, 0.00000000, 0.00000000, 0.00000000, 0.00000000, 0.00000000, 0.00000000, 0.00000000, 0.00390625, 0.00000000, 0.00390625, 0.00000000, 0.00000000, 0.00390625, 0.00390625, 0.00390625, 0.00000000, 0.00000000, -0.00390625, 0.00000000, 0.00000000, 0.00000000, 0.00390625, 0.00390625, 0.00000000, 0.00000000, 0.00000000, 0.00000000, 0.00000000, 0.00390625, 0.00000000, 0.00000000, 0.00000000, 0.00390625, 0.00000000, 0.00000000, 0.00000000, 0.00000000, 0.00390625, 0.00000000, 0.00000000, 0.00390625, 0.00000000, 0.00390625, 0.00390625, 0.00390625, 0.00000000, 0.00000000, 0.00390625, 0.00000000, 0.00000000, 0.00000000, 0.00390625, 0.00000000, 0.00000000, -0.00390625, 0.00000000, 0.00390625, 0.00000000, 0.00000000, 0.00390625, 0.00000000, 0.00000000, 0.00000000, 0.00000000, 0.00000000, 0.00000000, 0.00000000, 0.00000000, 0.00000000, 0.00000000, 0.00390625, 0.00390625, 0.00000000, 0.00390625, -0.00390625, 0.00000000, 0.00000000, 0.00390625, 0.00000000, 0.00390625, 0.00000000, 0.00000000, 0.00000000, 0.00000000, 0.00000000, 0.00390625, 0.00390625, -0.00390625, 0.00000000, 0.00000000, 0.00000000, -0.00390625, 0.00000000, 0.00000000, 0.00000000, 0.00000000, 0.00390625, 0.00000000, -0.00390625, 0.00000000, 0.00390625, 0.00390625, 0.00000000, 0.00000000, 0.00000000, 0.00000000, 0.00390625, 0.00000000, 0.00390625, 0.00000000, 0.00000000, 0.00000000, 0.00000000, 0.00000000, 0.00000000, 0.00000000, 0.00000000, 0.00390625, -0.00390625, 0.00000000, 0.00000000, 0.00390625, 0.00000000, 0.00000000, -0.00390625, 0.00000000, 0.00000000, 0.00000000, 0.00000000, 0.00000000, 0.00000000, 0.00000000, -0.00390625, 0.00000000, 0.00390625, 0.00000000, 0.00000000, 0.00390625, -0.00390625, 0.00000000, 0.00000000, 0.00000000, 0.00390625, 0.00781250, 0.00000000, 0.00000000, 0.00000000, 0.00000000, 0.00000000, 0.00000000, 0.00390625, -0.00390625, 0.00000000, -0.00390625, 0.00000000, 0.00000000, 0.00390625, 0.00000000, 0.00000000, 0.00000000, 0.00000000, 0.00390625, -0.00390625, 0.00000000, 0.00000000, 0.00000000, 0.00000000, 0.00000000, 0.00000000, 0.00000000, 0.00390625, 0.00000000, 0.00000000, 0.00000000, 0.00000000, 0.00000000, 0.00000000, 0.00000000, -0.00390625, 0.00390625, -0.00390625, 0.00000000, -0.00390625, 0.00000000, 0.00390625, 0.00000000, 0.00000000, 0.00390625, 0.00000000, 0.00000000, -0.00390625, 0.00000000, 0.00000000, 0.00000000, 0.00390625, 0.00000000, 0.00000000, 0.00000000, 0.00390625, 0.00390625, -0.00390625, 0.00390625, 0.00000000, 0.00000000, 0.00390625, 0.00000000, 0.00000000, 0.00000000, 0.00000000, 0.00000000, 0.00000000, 0.00000000, -0.00390625, 0.00390625, 0.00390625, 0.00000000, 0.00000000, 0.00000000, 0.00000000, -0.00390625, 0.00390625, 0.00000000, 0.00390625, 0.00000000, 0.00390625, 0.00000000, 0.00000000, 0.00000000, 0.00000000, 0.00390625, 0.00000000, 0.00000000, 0.00390625, 0.00000000, 0.00000000, 0.00390625, 0.00000000, 0.00000000, 0.00000000, 0.00390625, -0.00390625, 0.00000000, 0.00000000, 0.00000000, 0.00000000, -0.00390625, -0.00390625, 0.00000000, 0.00000000, 0.00000000, -0.00390625, 0.00000000, 0.00000000, 0.00000000, 0.00000000, 0.00000000, 0.00000000, 0.00000000, 0.00000000, 0.00000000, 0.00000000, 0.00000000, 0.00000000, 0.00000000, -0.00390625, 0.00000000, 0.00000000, 0.00000000, 0.00000000, 0.00000000, 0.00000000, 0.00000000, 0.00000000, 0.00000000, 0.00000000, 0.00000000, -0.00390625, 0.00000000, 0.00390625, 0.00000000, -0.00390625, 0.00000000, 0.00000000, 0.00000000, 0.00000000, 0.00000000, 0.00390625, 0.00000000, 0.00000000, 0.00000000, 0.00000000, 0.00000000, 0.00000000, 0.00390625, 0.00000000, 0.00000000, 0.00000000, 0.00000000, 0.00000000, 0.00000000, 0.00000000, 0.00000000, 0.00000000, 0.00000000, 0.00000000, 0.00000000, 0.00000000, 0.00000000, 0.00000000, 0.00390625, 0.00000000, -0.00390625, 0.00000000, 0.00390625, 0.00000000, 0.00000000, -0.00390625, 0.00000000, 0.00000000, 0.00000000, 0.00000000, 0.00000000, 0.00000000, 0.00000000, -0.00390625, 0.00000000, 0.00000000, 0.00000000, 0.00000000, 0.00000000, 0.00000000, -0.00390625, 0.00000000, 0.00000000, 0.00000000, 0.00390625, 0.00000000, 0.00000000, -0.00390625, 0.00000000, 0.00000000, 0.00000000, 0.00390625, -0.00390625, -0.00390625, -0.00390625, 0.00000000, 0.00000000, 0.00000000, -0.00390625, 0.00390625, -0.00390625, 0.00000000, 0.00000000, -0.00390625, 0.00000000, -0.00390625, 0.00390625, -0.00390625, 0.00000000, 0.00000000, 0.00000000, 0.00000000, 0.00000000, 0.00000000, 0.00000000, 0.00000000, 0.00000000, 0.00000000, 0.00390625, 0.00000000, 0.00390625, 0.00000000, 0.00000000, 0.00000000, 0.00000000, 0.00390625, 0.00000000, 0.00000000, 0.00390625, 0.00000000, 0.00000000, -0.00390625, 0.00000000, 0.00000000, 0.00000000, 0.00000000, 0.00000000, 0.00000000, 0.00000000, 0.00000000, 0.00390625, 0.00000000, 0.00000000, 0.00000000, 0.00000000, 0.00000000, 0.00390625, 0.00000000, -0.00390625, 0.00000000, 0.00000000, 0.00000000, 0.00000000, 0.00000000, 0.00000000, 0.00000000, 0.00000000, 0.00390625, 0.00000000, 0.00000000, 0.00000000, 0.00000000, 0.00000000, 0.00000000, 0.00000000, 0.00000000, -0.00390625, 0.00000000, 0.00000000, 0.00000000, 0.00000000, 0.00000000, 0.00390625, 0.00000000, 0.00000000, 0.00000000, 0.00000000, 0.00000000, 0.00000000, -0.00390625, 0.00000000, 0.00000000, 0.00000000, 0.00000000, 0.00000000, 0.00000000, 0.00000000, 0.00390625, -0.00390625, 0.00390625, 0.00000000, 0.00000000, 0.00390625, -0.00390625, 0.00000000, 0.00000000, 0.00000000, 0.00000000, 0.00000000, 0.00000000, 0.00000000, 0.00000000, 0.00000000, 0.00000000, 0.00390625, 0.00000000, 0.00000000, 0.00000000, 0.00000000, 0.00000000, 0.00000000, 0.00000000, -0.00390625, 0.00000000, -0.00390625, 0.00000000, 0.00000000, -0.00390625, 0.00000000, 0.00000000, 0.00390625, 0.00000000, 0.00000000, 0.00000000, 0.00000000, 0.00000000, 0.00000000, 0.00000000, 0.00000000, 0.00390625, 0.00000000, -0.00390625, 0.00000000, 0.00000000, 0.00000000, 0.00000000, 0.00390625, 0.00000000, 0.00000000, 0.00000000, 0.00000000, 0.00000000, 0.00000000, 0.00000000, 0.00000000, 0.00000000, 0.00000000, 0.00000000, 0.00000000, 0.00000000, 0.00000000, 0.00000000, 0.00000000, 0.00390625, 0.00000000, 0.00000000, 0.00000000, 0.00000000, 0.00000000, 0.00000000, 0.00000000, 0.00390625, 0.00000000, 0.00000000, 0.00000000, 0.00000000, 0.00000000, 0.00000000, 0.00390625, 0.00000000, 0.00000000, 0.00000000, 0.00000000, 0.00000000, 0.00390625, 0.00000000, -0.00390625, 0.00000000, 0.00390625, 0.00000000, 0.00000000, 0.00000000, 0.00000000, 0.00000000, 0.00000000, 0.00000000, -0.00390625, 0.00000000, 0.00000000, 0.00000000, 0.00000000, 0.00390625, 0.00000000, 0.00000000, 0.00000000, -0.00390625, 0.00000000, 0.00000000, 0.00000000, 0.00000000, 0.00000000, 0.00000000, -0.00390625, 0.00000000, 0.00000000, 0.00000000, 0.00000000, 0.00000000, 0.00000000, 0.00390625, 0.00390625, 0.00000000, 0.00390625, 0.00390625, 0.00000000, -0.00390625, 0.00000000, 0.00781250, 0.00000000, 0.00000000, 0.00781250, 0.00000000, 0.00000000, 0.00000000, 0.00390625, 0.00000000, 0.00000000, 0.00000000, 0.00000000, 0.00000000, 0.00000000, 0.00000000, 0.00390625, 0.00390625, 0.00390625, 0.00000000, 0.00000000, 0.00390625, 0.00390625, 0.00390625, -0.00390625, 0.00000000, -0.00390625, 0.00000000, 0.00390625, 0.00000000, 0.00390625, 0.00390625, 0.00000000, 0.00000000, 0.00000000, 0.00000000, 0.00000000, 0.00390625, 0.00000000, 0.00390625, 0.00000000, 0.00390625, 0.00000000, 0.00000000, 0.00000000, 0.00000000, 0.00390625, 0.00000000, 0.00000000, 0.00390625, 0.00000000, 0.00390625, 0.00390625, 0.00390625, 0.00000000, 0.00000000, 0.00390625, 0.00000000, 0.00390625, 0.00000000, 0.00781250, 0.00000000, 0.00000000, -0.00390625, 0.00000000, 0.00781250, 0.00000000, -0.00390625, 0.00781250, 0.00000000, 0.00000000, 0.00000000, 0.00390625, 0.00000000, 0.00000000, 0.00000000, 0.00000000, 0.00000000, 0.00000000, 0.00000000, 0.00781250, 0.00390625, 0.00390625, 0.00000000, 0.00000000, 0.00390625, 0.00781250, 0.00000000, -0.00390625, 0.00000000, 0.00000000, 0.00000000, 0.00000000, 0.00000000, 0.00390625, 0.00390625, 0.00000000, 0.00000000, 0.00000000, 0.00390625, 0.00000000, 0.00390625, 0.00000000, 0.00000000, 0.00000000, 0.00390625, 0.00000000, 0.00000000, 0.00000000, 0.00000000, 0.00390625, 0.00000000, 0.00390625, 0.00000000, 0.00000000, 0.00781250, 0.00390625, 0.00781250, 0.00000000, 0.00000000, 0.00390625, 0.00000000, 0.00390625, 0.00000000, 0.00390625, 0.00000000, 0.00000000, 0.00000000, 0.00000000, 0.00390625, 0.00000000, 0.00000000, 0.00390625, 0.00000000, 0.00000000, 0.00000000, 0.00390625, 0.00000000, 0.00000000, 0.00000000, 0.00000000, 0.00000000, 0.00000000, -0.00390625, 0.00390625, 0.00000000, 0.00390625, 0.00000000, 0.00000000, 0.00390625, 0.00781250, 0.00000000, 0.00000000, 0.00000000, 0.00000000, 0.00000000, 0.00000000, 0.00000000, 0.00390625, 0.00390625, 0.00000000, 0.00000000, -0.00390625, 0.00000000, -0.00390625, 0.00390625, 0.00000000, 0.00000000, 0.00000000, 0.00000000, 0.00000000, -0.00390625, 0.00000000, -0.00390625, 0.00390625, 0.00000000, 0.00390625, 0.00000000, 0.00000000, 0.00781250, 0.00390625, 0.00390625, 0.00000000, 0.00000000, 0.00000000, 0.00000000, 0.00390625, 0.00000000, 0.00390625, 0.00000000, 0.00000000, 0.00000000, 0.00000000, 0.00390625, 0.00000000, 0.00000000, 0.00390625, 0.00000000, 0.00000000, 0.00000000, 0.00390625, 0.00000000, 0.00390625, 0.00000000, 0.00000000, 0.00000000, -0.00390625, 0.00000000, 0.00390625, -0.00390625, 0.00390625, 0.00000000, 0.00000000, 0.00390625, 0.00390625, 0.00390625, 0.00000000, 0.00000000, 0.00000000, 0.00000000, 0.00390625, 0.00781250, 0.00390625, 0.00390625, 0.00000000, 0.00390625, 0.00000000, 0.00000000, 0.00390625, 0.00390625, 0.00000000, 0.00390625, 0.00000000, 0.00390625, 0.00000000, 0.00000000, 0.00390625, 0.00000000, 0.00390625, 0.00000000, 0.00000000, 0.00390625, 0.00000000, 0.00390625, 0.00390625, 0.00390625, 0.00000000, 0.00000000, 0.00390625, 0.00000000, 0.00390625, 0.00000000, 0.00000000, 0.00000000, 0.00000000, 0.00000000, 0.00000000, 0.00000000, -0.00390625, 0.00000000, 0.00000000, 0.00000000, 0.00000000, 0.00000000, 0.00000000, 0.00000000, 0.00000000, 0.00000000, 0.00000000, 0.00000000, 0.00000000, 0.00000000, 0.00390625, 0.00000000, 0.00390625, 0.00000000, 0.00000000, 0.00000000, 0.00000000, 0.00000000, 0.00000000, 0.00000000, 0.00000000, 0.00000000, 0.00000000, -0.00390625, 0.00000000, 0.00390625, 0.00000000, 0.00000000, 0.00000000, 0.00390625, 0.00000000, 0.00390625, 0.00000000, 0.00000000, 0.00000000, 0.00390625, 0.00000000, 0.00000000, 0.00000000, 0.00000000, 0.00390625, 0.00000000, 0.00000000, 0.00000000, 0.00000000, 0.00390625, 0.00000000, 0.00390625, 0.00000000, 0.00000000, 0.00000000, 0.00000000, 0.00000000, 0.00000000, 0.00390625, 0.00000000, 0.00390625, 0.00000000, 0.00000000, 0.00390625, 0.00000000, -0.00390625, 0.00000000, -0.00390625, 0.00000000, 0.00000000, 0.00000000, 0.00000000, 0.00000000, 0.00000000, 0.00000000, 0.00000000, 0.00000000, -0.00390625, 0.00390625, 0.00000000, 0.00390625, 0.00000000, 0.00000000, 0.00390625, 0.00000000, 0.00390625, 0.00000000, 0.00000000, 0.00000000, -0.00390625, 0.00390625, 0.00000000, 0.00000000, 0.00390625, 0.00000000, 0.00000000, 0.00000000, 0.00000000, 0.00000000, 0.00390625, 0.00000000, 0.00000000, 0.00000000, 0.00390625, 0.00000000, -0.00390625, 0.00000000, 0.00000000, 0.00390625, 0.00000000, 0.00000000, 0.00000000, 0.00000000, 0.00390625, 0.00000000, 0.00390625, 0.00000000, 0.00000000, 0.00000000, 0.00781250, -0.01562500, -0.09375000, -0.04296875, -0.01171875, -0.06640625, -0.03515625, -0.08593750, -0.02734375, 0.05078125, 0.02734375, 0.01171875, 0.03906250, 0.07031250, 0.00000000, -0.02734375, -0.18750000, -0.03125000, -0.06250000, -0.03515625, 0.02734375, 0.07812500, -0.01171875, -0.00781250, 0.09375000, -0.00781250, -0.02343750, 0.03906250, -0.01562500, 0.01953125, -0.02734375, -0.14843750, -0.05078125, -0.22656250, -0.03125000, -0.04687500, 0.03906250, -0.00781250, -0.04687500, -0.05078125, 0.01953125, 0.09765625, 0.00781250, 0.02734375, -0.02734375, -0.03125000, 0.01562500, -0.03515625, 0.03125000, 0.01562500, 0.05859375, -0.05078125, -0.00781250, -0.01953125, -0.06250000, 0.00390625, -0.01562500, -0.12500000, -0.03125000, -0.01953125, -0.01171875, -0.02734375, -0.00781250, -0.03515625, 0.12109375, 0.01953125, -0.08984375, -0.04296875, 0.08984375, 0.12890625, 0.00000000, 0.00000000, -0.01171875, 0.05468750, 0.00390625, 0.02343750, -0.01562500, 0.10546875, 0.05468750, 0.00390625, 0.01953125, -0.05859375, 0.02734375, -0.01562500, 0.14453125, 0.04296875, 0.03515625, 0.00781250, 0.03515625, 0.01953125, -0.05468750, 0.02343750, 0.00781250, 0.01171875, -0.03515625, 0.03515625, -0.07421875, -0.03125000, 0.04296875, -0.03125000, -0.07812500, 0.00390625, 0.00781250, -0.02734375, 0.02343750, 0.06640625, 0.06640625, 0.07421875, -0.01953125, 0.05859375, 0.08593750, 0.08593750, 0.01953125, 0.01171875, -0.17578125, 0.09375000, -0.01953125, 0.01171875, 0.02343750, 0.01171875, -0.00781250, -0.06640625, 0.00000000, 0.00781250, 0.01171875, 0.00390625, 0.07421875, -0.02343750, 0.05859375, 0.00390625, -0.01171875, -0.02343750, 0.21875000, 0.12500000, 0.01171875, 0.05468750, -0.00390625, 0.06640625, -0.03515625, 0.00390625, -0.00390625, 0.02734375, 0.08984375, -0.01953125, -0.01953125, -0.07812500, -0.06640625, -0.03906250, 0.05468750, 0.05859375, 0.07421875, 0.00390625, -0.11328125, 0.01171875, -0.08593750, -0.00390625, -0.00390625, -0.01562500, -0.01562500, 0.05078125, -0.01171875, 0.02734375, -0.02734375, -0.00781250, -0.14453125, 0.00390625, -0.01953125, -0.04687500, -0.12500000, 0.06250000, 0.17578125, 0.06640625, 0.00000000, 0.00390625, 0.01562500, -0.01171875, 0.00781250, -0.01562500, -0.03906250, 0.10546875, 0.03125000, 0.01171875, 0.00781250, -0.03515625, -0.04687500, 0.02734375, 0.00781250, 0.00000000, -0.02343750, 0.01171875, -0.03515625, -0.01953125, 0.11718750, -0.01953125, 0.00781250, -0.01171875, -0.02343750, -0.11718750, -0.07031250, -0.08593750, -0.01171875, 0.04296875, 0.01171875, 0.03515625, 0.02734375, 0.03906250, -0.05078125, 0.00390625, -0.03906250, -0.10156250, -0.02734375, -0.05078125, 0.09375000, 0.00390625, 0.01562500, -0.02343750, -0.07031250, -0.03515625, -0.02734375, -0.04687500, -0.01171875, 0.00000000, 0.01953125, -0.03515625, -0.01953125, -0.25390625, 0.09375000, -0.06250000, 0.11328125, 0.00000000, -0.03515625, -0.02343750, -0.02734375, 0.09375000, -0.03125000, -0.19531250, -0.03515625, -0.00781250, 0.02734375, 0.03125000, 0.04296875, 0.10546875, 0.01953125, 0.14453125, 0.02343750, -0.06250000, 0.00390625, -0.01171875, -0.00781250, -0.06640625, -0.01171875, -0.02343750, -0.02734375, -0.07812500, -0.13671875, 0.00390625, 0.24609375, 0.00390625, -0.12500000, -0.01953125, -0.05468750, -0.07812500, -0.09765625, 0.12109375, 0.00000000, 0.10937500, 0.01953125, 0.01171875, -0.03515625, 0.10546875, 0.10156250, 0.00390625, -0.09765625, -0.14843750, 0.00781250, -0.04687500, 0.18750000, 0.04687500, 0.07421875, 0.00390625, -0.10546875, 0.03515625, 0.06640625, 0.05078125, -0.03125000, 0.00781250, -0.02343750, -0.01171875, 0.05859375, -0.06250000, 0.17187500, -0.08593750, 0.03515625, 0.00390625, -0.05468750, 0.02343750, 0.04687500, 0.00781250, -0.01562500, -0.13671875, -0.01953125, 0.03515625, 0.03515625, 0.12500000, -0.01953125, 0.09765625, -0.15234375, -0.11718750, -0.01171875, -0.03125000, 0.07812500, -0.02734375, 0.00390625, -0.03515625, 0.00000000, -0.01562500, 0.01562500, 0.07421875, -0.06250000, -0.00781250, 0.19140625, -0.01562500, -0.04296875, 0.00390625, -0.04687500, -0.06640625, -0.01953125, 0.05468750, 0.01562500, 0.17187500, -0.01562500, 0.02734375, -0.12500000, 0.01953125, 0.17187500, -0.03906250, -0.23046875, -0.14062500, 0.00390625, -0.09375000, 0.13281250, -0.05078125, -0.06250000, -0.01953125, -0.12890625, 0.01562500, 0.19140625, -0.07031250, 0.02734375, 0.03125000, 0.02343750, -0.10546875, 0.11328125, 0.14062500, 0.05468750, 0.04296875, 0.02734375, 0.01953125, -0.01562500, 0.08593750, -0.04296875, -0.10546875, -0.12500000, -0.11718750, 0.01562500, -0.12109375, -0.01562500, -0.01953125, 0.01171875, -0.03125000, -0.14453125, -0.07031250, -0.10937500, 0.00000000, -0.00781250, -0.04296875, 0.00781250, 0.10156250, -0.02343750, 0.01171875, 0.00781250, 0.01953125, -0.06250000, -0.00390625, 0.05859375, 0.01562500, -0.13281250, -0.03515625, 0.00000000, 0.05859375, -0.13281250, -0.01171875, -0.04296875, -0.02343750, -0.00781250, 0.00390625, -0.02734375, 0.06640625, -0.05468750, 0.00000000, 0.04687500, -0.15625000, -0.07031250, -0.05859375, -0.05859375, 0.14062500, 0.12109375, -0.04296875, -0.15234375, -0.00390625, -0.04687500, 0.03125000, 0.01562500, -0.01562500, 0.00781250, 0.17187500, 0.07812500, -0.06250000, 0.10156250, -0.03906250, 0.12890625, 0.02734375, 0.01562500, -0.08203125, 0.16796875, 0.14062500, -0.01953125, -0.02734375, -0.05078125, 0.08203125, -0.12109375, 0.07421875, 0.02734375, 0.04687500, 0.08984375, 0.06640625, 0.01562500, -0.00781250, 0.06250000, -0.04296875, -0.03515625, -0.08203125, -0.01171875, -0.03125000, 0.01562500, 0.01562500, -0.01562500, 0.00390625, 0.23437500, 0.01953125, -0.22265625, -0.03906250, -0.04687500, 0.05078125, -0.08593750, 0.10937500, -0.01562500, 0.05859375, 0.00000000, 0.00781250, -0.08593750, 0.16015625, 0.06640625, -0.03125000, -0.12109375, -0.11328125, 0.01171875, 0.03515625, -0.02343750, 0.06640625, 0.08203125, -0.02734375, -0.19921875, -0.00781250, 0.04296875, 0.03125000, 0.02343750, -0.02343750, -0.00781250, 0.00781250, 0.13281250, -0.01171875, 0.10156250, -0.06250000, 0.04687500, -0.01562500, -0.03515625, -0.06250000, 0.14453125, -0.04296875, -0.17187500, -0.01171875, -0.01562500, 0.11718750, -0.08203125, 0.06250000, 0.00390625, -0.03515625, -0.03125000, 0.05078125, 0.05078125, -0.04296875, 0.05468750, -0.06640625, -0.00390625, -0.07812500, 0.00000000, -0.06250000, -0.00390625, 0.07812500, 0.06640625, 0.02343750, 0.17578125, -0.01171875, -0.22656250, 0.00390625, 0.11718750, 0.04296875, 0.02734375, 0.01562500, 0.00781250, 0.00781250, 0.04687500, 0.04687500, -0.11718750, 0.00390625, 0.07812500, -0.01953125, -0.17187500, -0.17187500, 0.00000000, -0.01171875, -0.09765625, 0.06640625, -0.04296875, -0.01171875, 0.02734375, 0.01171875, 0.10156250, -0.01953125, 0.02734375, 0.00781250, 0.04296875, 0.10546875, 0.10156250, 0.09765625, 0.02734375, -0.04687500, 0.00781250, 0.03125000, -0.01171875, 0.09765625, 0.12890625, -0.05859375, -0.11718750, -0.06640625, -0.03906250, -0.04296875, -0.06640625, -0.04687500, 0.01953125, -0.04687500, -0.09765625, -0.05078125, -0.03906250, -0.01562500, -0.02343750, 0.03515625, -0.01953125, 0.03515625, -0.00781250, -0.07031250, -0.01953125, -0.06640625, -0.04687500, 0.00390625, -0.04687500, -0.00390625, -0.06250000, -0.01953125, -0.10546875, 0.02734375, 0.00781250, 0.11718750, -0.00781250, 0.02734375, -0.07421875, 0.00390625, 0.02734375, 0.03125000, 0.01171875, 0.03125000, -0.02343750, -0.00781250, -0.02343750, -0.00781250, -0.07812500, -0.03906250, 0.01171875, 0.00390625, -0.04296875, -0.03906250, -0.00781250, 0.01953125, 0.02343750, -0.02734375, 0.01562500, 0.01562500, 0.05859375, -0.03515625, 0.01171875, -0.00390625, 0.07812500, -0.00781250, 0.00390625, 0.22265625, -0.01171875, -0.05859375, 0.03125000, 0.07031250, -0.01953125, 0.03515625, -0.14843750, 0.05468750, 0.00781250, 0.01171875, -0.03125000, -0.04687500, -0.00781250, -0.01562500, 0.08593750, -0.03906250, 0.00000000, 0.03515625, -0.03515625, -0.05468750, -0.00781250, -0.03125000, 0.00390625, -0.00390625, 0.06250000, 0.01953125, -0.05078125, -0.01953125, 0.01562500, -0.10937500, 0.03515625, 0.08203125, -0.02734375, 0.03906250, -0.02734375, -0.01171875, 0.02343750, 0.03515625, 0.03125000, -0.00781250, -0.03125000, 0.03125000, -0.00390625, 0.01171875, -0.01953125, -0.01171875, -0.02343750, -0.00781250, -0.12500000, -0.02734375, 0.01562500, 0.01562500, 0.02343750, -0.00781250, -0.02343750, -0.02734375, 0.01953125, 0.04687500, 0.01171875, 0.03125000, 0.02343750, -0.00390625, 0.01953125, 0.14453125, 0.00390625, -0.03906250, 0.01953125, 0.15234375, -0.00390625, 0.03515625, -0.07812500, 0.01562500, 0.01171875, -0.07421875, -0.02343750, -0.00781250, -0.01562500, -0.02343750, 0.03906250, 0.01562500, -0.00390625, 0.05078125, 0.00390625, -0.05468750, 0.00000000, -0.00390625, 0.02343750, 0.03515625, 0.06250000, 0.01171875, 0.03515625, -0.01953125, 0.06250000, 0.04687500, 0.03515625, -0.06640625, -0.03125000, -0.05859375, 0.01171875, -0.01953125, 0.02734375, -0.00390625, 0.02734375, 0.02343750, 0.06250000, 0.12890625, 0.01562500, 0.00000000, -0.00390625, -0.02734375, 0.03515625, -0.00390625, -0.05468750, -0.01171875, 0.11328125, 0.04296875, 0.01562500, -0.03906250, -0.00390625, 0.08203125, 0.02343750, -0.05859375, 0.00000000, 0.05859375, 0.03906250, -0.02734375, 0.01562500, 0.04296875, 0.05078125, -0.02343750, 0.07031250, 0.12890625, 0.02734375, 0.03125000, -0.07031250, 0.00000000, 0.00781250, -0.01953125, -0.09765625, -0.08593750, 0.02734375, -0.03125000, -0.00781250, 0.06250000, 0.00781250, 0.01953125, 0.01953125, -0.00781250, -0.00390625, -0.02734375, 0.00000000, 0.00390625, 0.00781250, -0.01953125, 0.00781250, -0.02734375, -0.15234375, 0.04296875, 0.08984375, -0.06250000, -0.01562500, -0.00781250, -0.01171875, 0.01171875, 0.00781250, -0.08593750, -0.01562500, 0.06640625, 0.04296875, 0.01953125, -0.05468750, -0.02734375, -0.22265625, -0.11328125, -0.00390625, 0.01562500, -0.03515625, -0.03906250, -0.10937500, -0.01953125, 0.05078125, -0.04296875, 0.04687500, 0.00000000, 0.05078125, 0.01953125, -0.06250000, -0.00390625, 0.08203125, 0.00390625, 0.02734375, 0.02343750, 0.06640625, 0.05468750, -0.08984375, -0.01171875, 0.00390625, -0.04296875, -0.02734375, -0.02343750, 0.03515625, -0.05078125, -0.07031250, -0.00781250, -0.01171875, -0.00781250, -0.01562500, 0.07421875, 0.02734375, -0.07031250, -0.03515625, 0.02734375, -0.04296875, -0.03125000, -0.07812500, 0.04687500, -0.02734375, 0.01171875, 0.04296875, 0.01171875, -0.00781250, -0.09375000, 0.03906250, 0.00781250, -0.01562500, -0.05468750, 0.03515625, -0.00390625, 0.00781250, -0.01562500, -0.03515625, 0.03515625, -0.00781250, -0.00781250, 0.00781250, -0.07421875, -0.09375000, -0.09765625, -0.01171875, 0.00781250, -0.06250000, -0.01562500, -0.09375000, -0.01171875, 0.00000000, -0.02734375, 0.02343750, 0.03906250, 0.01562500, 0.01171875, -0.02343750, 0.06250000, -0.10937500, -0.01171875, 0.07031250, -0.07031250, 0.01171875, 0.10156250, -0.09765625, 0.04687500, 0.01562500, -0.00390625, 0.04687500, -0.02343750, 0.00390625, -0.07812500, -0.10156250, -0.00390625, -0.01171875, 0.03515625, 0.01171875, 0.03515625, 0.03125000, -0.06640625, 0.01953125, 0.03125000, -0.01562500, -0.01171875, -0.00781250, 0.05078125, -0.05078125, -0.01171875, 0.00000000, -0.04687500, -0.02343750, -0.00781250, 0.10546875, 0.01953125, -0.03906250, -0.11718750, 0.00000000, -0.02734375, 0.04296875, 0.05078125, -0.05859375, -0.02734375, 0.05468750, 0.04296875, -0.01562500, 0.02343750, -0.02734375, -0.06640625, 0.03125000, -0.02734375, 0.08203125, -0.03906250, -0.00390625, 0.04296875, -0.01562500, -0.05078125, -0.02343750, 0.05468750, -0.04687500, -0.03906250, 0.02734375, 0.03515625, 0.01562500, -0.02734375, 0.00000000, -0.00390625, 0.01171875, 0.17968750, 0.01953125, 0.07812500, -0.00781250, 0.03515625, 0.03906250, 0.05468750, -0.03515625, 0.07031250, 0.08593750, -0.07421875, 0.08203125, 0.01953125, 0.03906250, -0.02343750, 0.02343750, -0.04687500, 0.00000000, -0.00781250, -0.03906250, -0.02734375, -0.04296875, 0.01953125, -0.13671875, 0.03125000, -0.14062500, -0.00781250, -0.06640625, 0.04296875, -0.07031250, -0.11718750, 0.00000000, 0.00000000, -0.02734375, 0.02343750, 0.01562500, -0.04687500, 0.06640625, 0.04687500, -0.02734375, -0.00390625, 0.01562500, -0.02343750, -0.05078125, -0.07421875, -0.05468750, 0.02343750, 0.00781250, -0.02343750, -0.09375000, -0.00781250, 0.05078125, 0.00390625, 0.03906250, -0.04687500, 0.01953125, 0.02343750, 0.04687500, 0.01562500, 0.03906250, -0.00781250, 0.03125000, -0.12109375, 0.01562500, -0.01953125, -0.12109375, -0.01171875, 0.01171875, 0.02343750, 0.02734375, 0.02734375, 0.02343750, 0.00390625, 0.02734375, -0.00390625, -0.08203125, 0.00000000, 0.01953125, 0.01953125, 0.03515625, 0.01171875, -0.01171875, 0.07031250, -0.01562500, 0.01562500, -0.01171875, 0.04296875, -0.01953125, -0.00781250, -0.04687500, -0.01171875, -0.04296875, 0.12109375, 0.01953125, -0.03906250, -0.01953125, 0.05078125, 0.02343750, -0.01953125, 0.04687500, -0.00781250, 0.02343750, 0.03906250, -0.02343750, 0.02734375, 0.05078125, 0.01171875, 0.01171875, -0.04296875, 0.00000000, 0.01171875, -0.12890625, -0.00781250, -0.04296875, -0.01562500, 0.02343750, -0.00390625, -0.00390625, 0.01953125, 0.06250000, -0.00390625, 0.00781250, 0.02343750, 0.04687500, 0.00000000, 0.03906250, -0.06640625, -0.03515625, 0.04296875, -0.06250000, -0.05859375, 0.02343750, -0.00390625, 0.06640625, -0.00390625, 0.00781250, -0.01953125, 0.01562500, 0.02343750, 0.03906250, 0.03906250, -0.00781250, -0.05468750, 0.03515625, -0.00781250, 0.00781250, 0.08593750, -0.00781250, -0.00390625, 0.01171875, 0.03125000, -0.11718750, -0.05078125, -0.02734375, -0.07812500, -0.00390625, 0.01171875, 0.05078125, -0.04687500, -0.07421875, 0.10937500, -0.03906250, -0.08984375, 0.14453125, 0.03125000, -0.02343750, -0.04687500, 0.08593750, 0.00390625, -0.01171875, 0.06640625, 0.08203125, -0.04687500, -0.12109375, -0.05468750, -0.08984375, -0.08203125, -0.02343750, 0.01562500, -0.03515625, -0.07812500, -0.05859375, -0.01953125, 0.07421875, -0.02343750, 0.03906250, -0.05468750, 0.06250000, -0.06250000, -0.03906250, 0.13281250, -0.11328125, 0.12890625, 0.10546875, 0.00390625, -0.07421875, 0.05859375, 0.00390625, 0.05859375, -0.05078125, -0.05468750, 0.12109375, -0.08203125, 0.11718750, -0.02734375, 0.01562500, -0.09765625, -0.01562500, 0.00000000, -0.06640625, 0.01562500, -0.05468750, -0.01562500, -0.01171875, -0.03125000, -0.11718750, 0.01171875, -0.01171875, 0.03515625, 0.02343750, -0.04296875, 0.00000000, -0.03125000, 0.03125000, -0.01562500, 0.01562500, 0.03125000, 0.06640625, -0.03515625, -0.05859375, -0.01171875, 0.00781250, -0.03906250, 0.00781250, -0.07031250, 0.00390625, -0.00390625, -0.03125000, 0.01171875, 0.00390625, 0.01562500, -0.04687500, -0.02343750, -0.01562500, 0.04687500, 0.01171875, -0.07421875, -0.04687500, -0.01171875, -0.02343750, 0.03515625, -0.05859375, 0.03125000, -0.03125000, -0.01953125, -0.00390625, 0.04687500, 0.00000000, 0.01171875, 0.01562500, -0.04296875, -0.01953125, -0.03515625, -0.01562500, -0.05078125, 0.01171875, -0.00781250, -0.01562500, -0.03125000, -0.02343750, 0.00390625, 0.00000000, -0.02734375, 0.03125000, -0.03515625, 0.01953125, -0.02343750, -0.01562500, -0.01171875, -0.03125000, -0.01562500, -0.01562500, 0.02734375, 0.05468750, 0.05078125, -0.03125000, -0.00390625, 0.01953125, 0.03125000, -0.02343750, 0.00000000, 0.01953125, -0.03515625, -0.03906250, -0.01953125, -0.00781250, -0.02734375, -0.01171875, -0.05078125, 0.01562500, -0.05468750, -0.03515625, 0.01171875, -0.00781250, -0.00781250, -0.03125000, -0.03906250, -0.00390625, 0.01171875, -0.01953125, -0.14453125, 0.02343750, 0.06250000, -0.02343750, -0.00390625, -0.05859375, 0.01171875, -0.03515625, 0.05078125, 0.03125000, -0.01171875, -0.01953125, -0.03906250, -0.02734375, -0.00390625, -0.09375000, -0.00390625, -0.00390625, -0.03515625, 0.00000000, -0.05078125, -0.04687500, -0.02343750, -0.01953125, 0.00000000, -0.01953125, 0.00781250, 0.00781250, -0.03515625, 0.00390625, 0.00781250, 0.00000000, -0.01953125, -0.05859375, -0.02734375, -0.02734375, 0.01953125, 0.09375000, 0.02343750, -0.01171875, 0.00390625, 0.00781250, 0.03125000, -0.00781250, 0.01953125, -0.08203125, -0.02734375, -0.03515625, -0.02734375, 0.01562500, -0.04296875, -0.06250000, -0.05859375, 0.02734375, -0.05078125, -0.05078125, 0.01171875, -0.01171875, -0.00390625, -0.06250000, -0.02343750, -0.03515625, 0.02343750, 0.00000000, -0.06640625, 0.01171875, 0.03515625, -0.01171875, -0.00390625, -0.07421875, 0.01953125, -0.06640625, 0.01953125, 0.07031250, -0.08203125, -0.01562500, -0.08984375, -0.02343750, -0.02734375, -0.03906250, 0.00390625, -0.01171875, -0.01562500, 0.00000000, -0.04296875, -0.00781250, -0.04687500, -0.00390625, 0.04296875, -0.02734375, -0.00390625, -0.01171875, -0.03125000, -0.00390625, -0.00390625, 0.01953125, -0.01953125, -0.08593750, 0.02343750, 0.03515625, 0.05468750, 0.06640625, 0.04296875, 0.03125000, -0.05468750, 0.05468750, -0.02734375, 0.01562500, 0.01953125, 0.06640625, -0.03515625, -0.07031250, 0.01562500, -0.01171875, -0.01562500, -0.00390625, -0.07031250, -0.03906250, 0.00781250, -0.03125000, 0.01953125, 0.00781250, 0.04687500, -0.03515625, -0.05468750, 0.01562500, 0.05078125, 0.01562500, -0.10156250, -0.02734375, -0.05078125, -0.03125000, 0.03515625, -0.01562500, 0.01953125, 0.01562500, -0.05468750, -0.05859375, 0.00000000, -0.00781250, -0.01562500, 0.01171875, -0.04296875, 0.03125000, -0.05078125, 0.00781250, -0.03125000, -0.04296875, 0.00390625, 0.00390625, 0.03125000, -0.04687500, 0.01171875, 0.00390625, 0.00390625, 0.03515625, 0.04687500, 0.05078125, -0.05468750, 0.00000000, 0.00390625, 0.00390625, -0.01562500, 0.03125000, 0.02343750, 0.04296875, 0.10546875, 0.00000000, -0.01953125, 0.03125000, -0.02343750, -0.07031250, 0.02343750, 0.00781250, -0.01562500, -0.03515625, -0.02734375, -0.06250000, 0.01562500, -0.06640625, 0.00000000, -0.00781250, 0.00390625, -0.02343750, -0.01171875, -0.00781250, -0.00390625, -0.01562500, -0.01953125, 0.02734375, 0.01953125, 0.01171875, -0.07031250, -0.02343750, 0.01171875, 0.00781250, -0.01953125, 0.00000000, 0.02343750, 0.01171875, -0.02343750, -0.05859375, -0.08203125, -0.01953125, -0.05859375, -0.00781250, 0.01171875, -0.01562500, -0.03515625, -0.00390625, -0.02734375, -0.01171875, -0.03515625, 0.00000000, -0.00390625, -0.02343750, 0.02734375, -0.03515625, 0.04687500, -0.01953125, -0.01171875, 0.01171875, -0.01562500, -0.00781250, -0.03515625, 0.03906250, -0.01171875, 0.01953125, 0.03125000, 0.01562500, 0.06640625, -0.07031250, 0.03125000, 0.05078125, -0.00781250, -0.03515625, 0.04687500, -0.05468750, -0.00390625, -0.01953125, 0.00390625, -0.03515625, -0.06640625, -0.05468750, -0.03515625, 0.00390625, 0.00781250, 0.02343750, 0.01953125, -0.02734375, 0.01171875, -0.07031250, -0.01562500, 0.01953125, 0.05078125, 0.02734375, -0.03125000, -0.03125000, -0.01171875, 0.01171875, 0.00781250, -0.01953125, 0.03515625, 0.01953125, -0.10546875, -0.05859375, -0.14453125, 0.00000000, -0.05468750, 0.00781250, -0.00781250, -0.02343750, -0.00781250, 0.03125000, -0.05078125, 0.04296875, -0.03906250, -0.10937500, -0.00390625, -0.01171875, 0.06250000, -0.05078125, 0.05078125, 0.01171875, 0.00781250, 0.02734375, -0.01171875, -0.00781250, -0.02343750, -0.01562500, 0.05859375, 0.01953125, 0.05468750, -0.04296875, -0.13281250, 0.01953125, -0.03515625, 0.04687500, -0.03125000, 0.03906250, 0.02734375, 0.01171875, 0.02734375, -0.06640625, 0.00000000, 0.02734375, 0.00781250, 0.05468750, -0.07421875, 0.01562500, -0.05078125, 0.02343750, 0.01953125, -0.01953125, 0.05468750, -0.02734375, 0.01953125, 0.00390625, 0.03515625, 0.02734375, 0.00000000, -0.02343750, -0.05859375, -0.03515625, 0.07031250, -0.01562500, 0.04687500, 0.00390625, 0.01562500, 0.03906250, 0.02734375, 0.00000000, -0.01171875, 0.02734375, 0.00390625, -0.01171875, -0.02343750, 0.03515625, -0.00781250, 0.02734375, -0.01171875, 0.00390625, 0.03125000, -0.01171875, 0.01171875, 0.01171875, -0.03515625, 0.02734375, -0.02343750, 0.06250000, -0.01562500, -0.00781250, 0.03906250, -0.06640625, 0.01171875, 0.04296875, 0.03125000, -0.01562500, -0.05078125, -0.02734375, 0.02343750, 0.00781250, -0.02734375, -0.02734375, 0.00781250, -0.02343750, -0.01562500, 0.00000000, -0.02734375, 0.03515625, 0.02734375, 0.01562500, -0.06640625, 0.04687500, -0.03906250, 0.02343750, -0.00390625, -0.00781250, 0.02343750, -0.03125000, 0.01171875, -0.02343750, 0.01171875, -0.00390625, 0.05078125, -0.02343750, -0.05859375, 0.00781250, 0.03125000, -0.01562500, 0.02734375, -0.04296875, 0.00000000, 0.03515625, -0.03515625, -0.01953125, -0.00781250, -0.00781250, 0.01562500, -0.03125000, 0.00000000, 0.00781250, -0.04296875, -0.04687500, -0.03906250, 0.00781250, -0.03125000, -0.01953125, 0.01953125, -0.03125000, -0.01953125, 0.03125000, -0.04296875, 0.02343750, 0.00390625, 0.03906250, -0.00781250, -0.05468750, 0.01562500, 0.03515625, 0.04296875, -0.00781250, -0.03125000, 0.05859375, 0.05859375, 0.01953125, -0.05468750, -0.00390625, 0.04296875, -0.05859375, 0.08203125, 0.01953125, 0.00000000, -0.05078125, -0.02734375, 0.01562500, -0.03515625, 0.05468750, -0.01562500, 0.03906250, 0.05468750, 0.03906250, 0.03125000, -0.00390625, 0.04296875, 0.01953125, 0.00390625, 0.00390625, 0.01953125, -0.07421875, -0.01953125, 0.05078125, -0.00781250, -0.04687500, 0.03906250, -0.02734375, 0.01562500, -0.01171875, -0.04687500, 0.03515625, -0.01953125, 0.02343750, 0.03515625, -0.02734375, 0.03125000, 0.05468750, -0.03515625, -0.04296875, -0.09375000, -0.05468750, -0.00781250, -0.01562500, 0.02343750, 0.00000000, -0.01171875, 0.03906250, -0.05859375, 0.03515625, 0.01171875, -0.01562500, 0.02734375, -0.08203125, -0.01953125, 0.04296875, 0.00390625, -0.01171875, 0.03515625, 0.04296875, -0.03906250, -0.01562500, 0.08984375, 0.01562500, 0.01171875, -0.00781250, -0.03125000, -0.04687500, 0.00781250, -0.00390625, 0.08984375, -0.00390625, 0.05468750, 0.01953125, 0.03906250, 0.00000000, -0.02343750, -0.00781250, 0.00000000, 0.11328125, -0.01171875, -0.01171875, -0.02734375, 0.03125000, -0.03906250, -0.10546875, 0.09375000, -0.02734375, -0.06250000, -0.01953125, 0.00000000, 0.03906250, -0.03515625, -0.03515625, -0.03125000, 0.03125000, -0.07812500, 0.04687500, -0.01953125, 0.04296875, -0.01953125, -0.00390625, -0.06640625, 0.09375000, -0.01562500, 0.01171875, 0.02343750, -0.04296875, -0.01953125, 0.01562500, -0.12109375, 0.00781250, 0.01171875, -0.01953125, -0.08593750, 0.00000000, 0.00000000, -0.04687500, -0.00781250, -0.10546875, 0.01562500, -0.03906250, 0.16406250, 0.10156250, -0.11718750, 0.00000000, 0.07031250, 0.04687500, -0.00781250, -0.02734375, 0.01562500, 0.02734375, -0.00390625, -0.01171875, -0.07031250, 0.04296875, -0.05468750, -0.03515625, -0.11718750, 0.20703125, 0.02343750, 0.10156250, -0.00390625, 0.17578125, 0.01953125, 0.02343750, -0.00781250, 0.01562500, 0.02734375, -0.07812500, -0.02343750, 0.05468750, -0.05468750, -0.01562500, 0.00000000, 0.05078125, -0.13281250, -0.08203125, -0.15234375, -0.02734375, -0.10156250, 0.00390625, -0.00781250, -0.10937500, -0.05468750, 0.01562500, 0.00000000, -0.04296875, 0.03125000, -0.11718750, -0.00781250, -0.05078125, -0.08984375, -0.03906250, -0.16406250, -0.02343750, -0.00781250, 0.01953125, 0.00390625, 0.04296875, -0.00390625, -0.00781250, -0.00390625, -0.01171875, 0.01953125, -0.01171875, 0.02343750, -0.04687500, 0.14062500, 0.01953125, -0.00390625, 0.09765625, -0.00781250, 0.02734375, -0.01171875, -0.05078125, 0.02343750, 0.03906250, -0.01953125, -0.00390625, -0.03515625, -0.03515625, -0.01562500, -0.01562500, -0.01171875, -0.01953125, 0.04687500, -0.03906250, -0.06250000, 0.05468750, 0.01562500, 0.03125000, 0.07031250, 0.13671875, -0.03125000, 0.08984375, -0.01171875, -0.01171875, 0.04687500, 0.03515625, -0.05468750, -0.07421875, 0.04687500, -0.03515625, -0.03125000, 0.03125000, -0.03906250, -0.07812500, 0.04296875, 0.00781250, 0.00000000, 0.01171875, 0.01171875, 0.21875000, 0.05468750, 0.10546875, -0.09375000, 0.03125000, -0.00781250, 0.01953125, 0.02343750, 0.01953125, -0.01171875, -0.03515625, 0.00000000, 0.00000000, -0.01562500, 0.01953125, -0.01953125, -0.07031250, -0.06640625, -0.07812500, 0.02343750, -0.02734375, 0.12109375, -0.00390625, -0.01953125, -0.06250000, -0.16015625, 0.05468750, -0.00781250, 0.08203125, 0.33203125, -0.07421875, 0.01562500, 0.06640625, 0.00781250, 0.04296875, 0.00390625, -0.07031250, -0.01562500, 0.01171875, -0.14453125, -0.02734375, -0.05859375, -0.01171875, -0.00781250, -0.03906250, -0.05078125, -0.06640625, -0.04687500, 0.03125000, -0.00390625, -0.03125000, -0.08203125, -0.12109375, 0.00390625, -0.14062500, 0.03515625, -0.04296875, -0.08593750, 0.00781250, -0.11718750, -0.01953125, 0.03515625, 0.00390625, 0.11328125, -0.04687500, -0.04296875, -0.12109375, -0.02343750, 0.01562500, 0.11718750, -0.02734375, 0.01953125, -0.05468750, 0.02343750, -0.04296875, -0.03515625, 0.19140625, -0.03906250, -0.03906250, -0.02734375, -0.05859375, 0.10546875, -0.02734375, -0.19531250, -0.03906250, 0.08593750, -0.04687500, -0.01562500, -0.03906250, -0.01171875, -0.01562500, 0.00390625, 0.01562500, 0.20703125, -0.00781250, 0.00390625, -0.01562500, -0.03125000, 0.16406250, 0.01562500, 0.03515625, -0.02734375, 0.01171875, -0.05468750, -0.00390625, -0.04687500, 0.01953125, 0.06250000, -0.02343750, -0.04296875, 0.00000000, -0.01562500, 0.09375000, -0.02343750, 0.01171875, -0.10546875, -0.01562500, -0.12500000, 0.08984375, 0.03125000, -0.02343750, -0.03125000, 0.00781250, -0.06640625, 0.01562500, 0.02734375, -0.06640625, -0.05078125, -0.22656250, -0.03125000, -0.09765625, -0.01562500, 0.00781250, 0.02734375, -0.03515625, -0.07421875, -0.06250000, 0.05859375, 0.09375000, -0.01562500, 0.07812500, -0.01171875, -0.15625000, -0.00781250, 0.05078125, 0.08593750, 0.03125000, -0.01953125, -0.01171875, -0.01171875, 0.03515625, 0.00000000, 0.07812500, -0.04296875, -0.09375000, -0.03125000, 0.13671875, -0.04296875, -0.02734375, 0.07812500, 0.08203125, 0.07031250, 0.05859375, 0.01171875, -0.10937500, 0.04296875, 0.00000000, -0.10156250, 0.01953125, 0.02343750, 0.03125000, 0.17187500, 0.07421875, -0.12500000, -0.04296875, 0.06640625, 0.04687500, 0.02343750, 0.00000000, -0.14843750, 0.04687500, 0.04296875, 0.14453125, -0.07031250, -0.01562500, -0.04687500, 0.13671875, 0.00000000, 0.00390625, 0.04687500, -0.00390625, 0.00390625, 0.09765625, 0.01171875, 0.00000000, -0.03515625, 0.02343750, -0.03515625, 0.00000000, -0.03906250, -0.01171875, -0.03515625, 0.02734375, 0.01953125, -0.14843750, 0.05468750, 0.06250000, 0.05468750, 0.09765625, -0.16015625, -0.01953125, 0.00000000, 0.05859375, 0.08203125, 0.00000000, 0.03515625, 0.00390625, -0.03125000, -0.04687500, -0.05078125, -0.16406250, -0.03515625, -0.00390625, -0.05078125, 0.03906250, -0.01171875, -0.09375000, 0.00781250, -0.05078125, 0.01171875, -0.04687500, -0.07031250, -0.02734375, 0.08593750, -0.01562500, -0.17187500, -0.11328125, -0.08203125, -0.03906250, 0.00781250, -0.01953125, 0.03125000, -0.08593750, -0.00390625, 0.07812500, 0.00000000, -0.21093750, 0.05468750, -0.03906250, -0.09765625, 0.08593750, -0.08203125, 0.01562500, -0.06250000, -0.07421875, 0.00390625, 0.00000000, -0.03906250, -0.10546875, 0.07421875, -0.01953125, 0.08593750, 0.00000000, 0.01171875, 0.02343750, -0.03125000, -0.10546875, 0.02734375, -0.10937500, 0.03515625, 0.05468750, 0.01953125, 0.02734375, -0.20312500, -0.06640625, -0.07031250, 0.04687500, 0.15625000, -0.03515625, 0.03906250, 0.00781250, -0.05859375, -0.05859375, -0.05468750, -0.03125000, 0.05078125, 0.00000000, -0.03125000, -0.05468750, -0.14453125, -0.02734375, -0.01171875, -0.03906250, -0.00781250, -0.11718750, 0.00781250, -0.02734375, 0.06640625, -0.03125000, -0.10937500, -0.12890625, 0.04296875, -0.03515625, -0.03515625, 0.01171875, -0.01953125, -0.07031250, -0.05078125, 0.05859375, 0.08593750, -0.01562500, 0.12500000, -0.02343750, -0.08593750, 0.03906250, 0.00781250, -0.02343750, 0.00781250, -0.16406250, 0.00781250, -0.10156250, -0.07031250, -0.06250000, 0.05078125, -0.07031250, 0.09765625, 0.01171875, 0.00000000, -0.01171875, -0.09765625, -0.16406250, -0.01562500, -0.04687500, -0.02734375, 0.00000000, -0.00390625, 0.09765625, -0.12500000, -0.21484375, -0.06250000, 0.00781250, 0.07421875, 0.00000000, 0.01562500, 0.04687500, -0.05468750, -0.08593750, -0.05859375, 0.04687500, -0.08203125, -0.06640625, -0.02343750, 0.00000000, -0.02343750, 0.04687500, -0.03125000, -0.16406250, 0.02734375, 0.02734375, -0.07812500, -0.03515625, 0.03906250, -0.00781250, 0.03125000, -0.03125000, 0.07812500, 0.02343750, 0.00000000, -0.10156250, 0.00390625, -0.04296875, -0.05468750, 0.01953125, -0.00781250, -0.14453125, 0.06250000, -0.00390625, -0.10937500, -0.02734375, 0.03125000, -0.00390625, -0.03515625, -0.03906250, -0.21484375, 0.01562500, -0.03906250, -0.06250000, -0.00781250, -0.03125000, 0.11328125, -0.00390625, -0.04296875, -0.00390625, -0.01562500, -0.14453125, -0.04687500, -0.02734375, 0.04687500, 0.02343750, -0.00781250, -0.03906250, 0.00781250, -0.01171875, -0.03125000, 0.01171875, 0.02734375, -0.05859375, 0.00000000, 0.02734375, -0.05468750, 0.08984375, 0.01171875, -0.01562500, -0.07031250, 0.00390625, 0.03515625, 0.00390625, -0.03906250, 0.07031250, 0.01562500, -0.12890625, 0.04296875, 0.00000000, 0.09765625, 0.03125000, -0.00781250, 0.02343750, 0.22265625, -0.01953125, 0.03125000, -0.03906250, -0.08203125, 0.14843750, 0.00781250, 0.01562500, 0.05468750, -0.03125000, -0.03906250, -0.15625000, -0.08593750, 0.03906250, 0.07421875, -0.10156250, 0.07031250, 0.01562500, 0.02734375, 0.06640625, -0.07812500, 0.01562500, 0.05078125, -0.00781250, -0.00390625, 0.01171875, 0.08593750, -0.01171875, -0.04296875, -0.01171875, 0.03125000, 0.09765625, 0.03515625, 0.12890625, 0.00390625, 0.29687500, 0.01562500, -0.14453125, -0.04687500, -0.13281250, 0.00000000, 0.04296875, -0.09375000, -0.08984375, 0.00390625, 0.10156250, -0.00390625, -0.15625000, 0.00781250, -0.06640625, 0.09375000, -0.02734375, 0.04687500, -0.17187500, -0.18359375, 0.02343750, 0.02734375, 0.01562500, 0.00781250, 0.19921875, 0.02734375, 0.02343750, -0.02734375, -0.01953125, 0.04296875, -0.07812500, 0.06640625, 0.01562500, -0.01953125, 0.10546875, 0.03906250, 0.02343750, -0.12500000, -0.08203125, 0.01171875, -0.03515625, -0.11718750, -0.00390625, 0.08593750, -0.07421875, 0.02343750, 0.01171875, 0.01171875, 0.07812500, -0.02343750, 0.04687500, 0.00390625, 0.06250000, 0.00390625, -0.02343750, 0.06640625, 0.02343750, 0.01171875, 0.01171875, 0.07421875, 0.07031250, 0.00390625, -0.11328125, 0.01562500, 0.16406250, 0.05859375, -0.02343750, -0.11328125, -0.11328125, -0.12890625, 0.08203125, 0.17187500, 0.02734375, 0.07812500, 0.05078125, -0.04296875, -0.10156250, 0.03515625, 0.02343750, 0.03906250, 0.09375000, 0.10156250, -0.23046875, 0.02343750, 0.04296875, 0.06640625, 0.05859375, 0.03906250, 0.04687500, 0.06250000, 0.04687500, 0.04296875, 0.01171875, -0.03515625, 0.22265625, 0.04296875, -0.14062500, 0.00000000, 0.19921875, 0.06640625, -0.00781250, -0.08593750, 0.14453125, 0.08203125, 0.08593750, -0.12109375, 0.01953125, -0.05078125, 0.09765625, 0.00000000, 0.07031250, 0.10937500, 0.06640625, -0.00781250, -0.15234375, 0.02343750, 0.04687500, 0.08203125, -0.00390625, 0.05859375, 0.02734375, 0.05859375, 0.02343750, -0.00390625, 0.08984375, 0.00390625, -0.17187500, 0.00781250, 0.12109375, 0.00781250, -0.14843750, -0.02343750, 0.02734375, -0.22265625, 0.01171875, 0.10546875, -0.06640625, 0.00390625, 0.05078125, -0.07031250, -0.01562500, -0.03515625, 0.09765625, -0.01953125, -0.14062500, 0.08984375, -0.13671875, -0.12109375, -0.07421875, -0.00390625, -0.08593750, -0.00781250, -0.03125000, 0.02734375, -0.03906250, 0.03125000, -0.02343750, 0.12109375, 0.02343750, 0.07421875, 0.01953125, 0.00781250, 0.05859375, -0.03125000, -0.00781250, 0.06640625, -0.08984375, -0.14453125, -0.12500000, 0.10937500, -0.03125000, -0.03125000, 0.03125000, 0.01171875, -0.03125000, -0.07031250, -0.08984375, -0.08593750, -0.05859375, -0.03515625, -0.01171875, 0.03906250, -0.03906250, 0.23828125, -0.00390625, -0.05468750, -0.01562500, -0.00390625, -0.01953125, -0.00781250, 0.14453125, -0.03515625, 0.03515625, -0.05468750, 0.03906250, 0.20312500, -0.03906250, -0.21093750, -0.02734375, -0.14453125, 0.04687500, -0.04296875, -0.07421875, -0.03125000, 0.00000000, -0.08984375, 0.16796875, 0.07812500, -0.22265625, 0.10156250, -0.07812500, -0.19531250, -0.35156250, -0.03906250, 0.00390625, -0.00781250, 0.27734375, -0.01562500, -0.02343750, -0.00390625, -0.00781250, -0.06640625, -0.08203125, 0.03515625, 0.13671875, 0.03125000, -0.13281250, -0.04296875, -0.01562500, -0.18750000, -0.00781250, 0.02734375, -0.00390625, 0.12890625, -0.06640625, -0.14062500, -0.00390625, -0.10546875, -0.03125000, -0.15234375, -0.07031250, -0.20703125, 0.12890625, -0.01171875, -0.09375000, 0.03125000, -0.05859375, 0.09765625, -0.03906250, -0.05468750, -0.07421875, -0.04687500, -0.11718750, -0.06640625, 0.00390625, -0.08203125, 0.12109375, -0.05859375, -0.07421875, 0.18750000, -0.06640625, -0.05078125, -0.02343750, 0.18359375, -0.00390625, -0.01562500, -0.09765625, -0.11718750, -0.03515625, -0.03515625, 0.18750000, 0.10937500, -0.18359375, 0.11328125, 0.00390625, 0.06640625, 0.03515625, 0.00390625, 0.08203125, 0.00390625, 0.09375000, -0.06640625, 0.03906250, -0.05859375, -0.00390625, -0.01562500, 0.14843750, 0.01953125, -0.07421875, -0.03906250, 0.00390625, 0.01953125, 0.01562500, 0.03515625, 0.01171875, 0.01953125, 0.07031250, -0.07812500, -0.05468750, -0.13281250, -0.13671875, -0.10937500, 0.03906250, -0.02343750, -0.20312500, -0.25781250, -0.10156250, 0.03125000, -0.18750000, 0.07031250, -0.00390625, 0.08203125, -0.02734375, -0.03515625, -0.02343750, -0.01562500, -0.16015625, -0.04296875, -0.00781250, 0.06250000, -0.12109375, 0.06250000, -0.05468750, -0.07031250, -0.02343750, 0.01953125, 0.07031250, 0.16015625, 0.10937500, 0.01953125, 0.09375000, 0.09765625, -0.04687500, 0.05468750, 0.02734375, -0.16015625, 0.01171875, 0.03515625, 0.18750000, -0.01171875, 0.19531250, 0.03906250, -0.03125000, 0.05078125, -0.14453125, -0.04296875, 0.02343750, 0.07812500, -0.08984375, -0.13671875, -0.04687500, 0.07812500, 0.06640625, 0.02734375, 0.05078125, 0.01953125, -0.04296875, -0.19140625, 0.14843750, 0.06640625, -0.10546875, -0.06640625, 0.07812500, 0.01953125, 0.18359375, 0.08593750, 0.03906250, 0.15234375, -0.06250000, 0.08984375, -0.02343750, 0.00781250, -0.01562500, 0.06250000, 0.04296875, -0.03125000, 0.02734375, 0.05078125, 0.05078125, 0.05078125, 0.16406250, 0.00390625, 0.13281250, -0.01171875, -0.07031250, 0.05859375, -0.12109375, -0.04687500, 0.12109375, 0.00390625, 0.05078125, -0.04296875, 0.08593750, 0.01953125, -0.03515625, 0.10546875, 0.13671875, -0.01953125, 0.11328125, -0.17578125, -0.11718750, -0.13671875, 0.17578125, 0.11328125, -0.01171875, -0.00781250, -0.24609375, 0.03125000, -0.07031250, 0.04296875, -0.06640625, 0.05468750, -0.10156250, -0.06640625, -0.15625000, 0.10937500, 0.12890625, 0.13671875, -0.11718750, -0.01171875, -0.08593750, -0.19921875, 0.06250000, 0.08593750, 0.17968750, -0.09765625, -0.00390625, 0.01171875, 0.07031250, 0.05468750, -0.01562500, -0.12109375, -0.07421875, -0.00781250, 0.04687500, -0.05859375, 0.03515625, 0.03906250, -0.04296875, -0.06640625, -0.00390625, -0.05859375, 0.02343750, 0.08984375, -0.02343750, -0.07812500, 0.08593750, -0.03125000, -0.05859375, 0.06250000, 0.23046875, -0.04296875, 0.18359375, -0.00390625, 0.04687500, -0.03906250, 0.04296875, 0.01562500, -0.10937500, 0.03515625, 0.19140625, -0.10156250, -0.22265625, -0.17187500, -0.12500000, 0.00000000, 0.01562500, -0.05468750, 0.05859375, -0.02343750, 0.01953125, -0.02343750, 0.02343750, 0.11718750, -0.02343750, 0.01171875, -0.03125000, -0.06640625, 0.01562500, 0.24218750, 0.13671875, 0.06640625, -0.08984375, -0.01953125, -0.10156250, -0.04296875, 0.10546875, -0.05468750, -0.21875000, -0.07421875, -0.03515625, 0.02343750, -0.06250000, -0.05859375, -0.01953125, -0.13281250, -0.08593750, 0.01953125, 0.00390625, -0.09375000, 0.01171875, 0.10937500, -0.07421875, 0.05078125, -0.01562500, -0.12500000, -0.04687500, 0.03515625, 0.02734375, -0.09375000, 0.00000000, 0.00781250, -0.00781250, 0.00781250, 0.00781250, 0.00000000, -0.01562500, -0.00390625, 0.00781250, 0.00000000, -0.00390625, 0.00390625, -0.00390625, -0.00390625, -0.00390625, 0.00390625, 0.00000000, 0.00000000, 0.01562500, -0.00390625, -0.00390625, -0.00390625, 0.00390625, 0.00390625, -0.00390625, 0.00781250, -0.00781250, -0.00390625, 0.00781250, 0.00781250, 0.00390625, -0.00390625, -0.00390625, -0.00390625, -0.00390625, 0.00781250, 0.00000000, 0.00390625, 0.00390625, -0.00781250, 0.00000000, -0.00390625, -0.00390625, 0.00000000, 0.00390625, -0.00390625, 0.00000000, -0.00390625, 0.00390625, -0.00781250, 0.00000000, 0.01171875, -0.00390625, 0.00781250, -0.00390625, 0.00000000, 0.00781250, -0.00390625, 0.00781250, 0.00781250, 0.00781250, -0.00390625, 0.00000000, 0.00390625, 0.00390625, 0.00000000, -0.00390625, 0.00000000, 0.00781250, 0.00390625, -0.00781250, -0.00390625, 0.00390625, -0.00390625, -0.00390625, 0.00000000, -0.00390625, -0.00390625, 0.00000000, 0.00000000, 0.00390625, 0.00390625, 0.01171875, -0.00390625, 0.00000000, -0.00781250, 0.00000000, 0.00000000, 0.00000000, 0.00390625, 0.00000000, -0.00390625, 0.00000000, 0.00781250, 0.00390625, -0.00781250, -0.00390625, -0.00390625, 0.00000000, -0.00390625, 0.01171875, 0.00000000, 0.00000000, -0.00390625, -0.00390625, -0.00781250, 0.00000000, -0.00390625, -0.00390625, -0.00390625, -0.00781250, 0.00000000, 0.00390625, 0.00000000, 0.00000000, 0.00781250, 0.00000000, 0.00390625, -0.00390625, -0.00781250, 0.00000000, -0.00781250, 0.00390625, 0.00000000, 0.00390625, 0.00000000, 0.00000000, 0.00390625, 0.00390625, 0.00000000, -0.00390625, 0.00000000, -0.00781250, -0.00390625, -0.00390625, 0.00390625, 0.00390625, 0.00000000, -0.01171875, 0.00000000, -0.01171875, -0.00390625, -0.00390625, 0.00000000, 0.00000000, -0.00781250, 0.01171875, -0.00390625, 0.00000000, -0.00390625, 0.00390625, 0.00000000, -0.00390625, 0.00390625, -0.00390625, -0.00390625, 0.00000000, 0.00390625, 0.00000000, -0.00781250, 0.00000000, 0.00781250, -0.00390625, -0.00390625, 0.00390625, 0.00000000, 0.00000000, -0.00390625, 0.00000000, -0.01171875, -0.00390625, -0.01171875, 0.00000000, -0.00390625, -0.00781250, 0.00000000, 0.00390625, 0.01171875, -0.01171875, 0.00781250, -0.00390625, 0.00390625, -0.00781250, -0.00390625, 0.00000000, -0.00390625, 0.00000000, 0.00000000, 0.00000000, -0.00390625, 0.00000000, 0.00000000, 0.00000000, 0.00781250, -0.00390625, 0.01171875, -0.00390625, -0.00390625, 0.01171875, 0.00000000, 0.01171875, 0.00000000, 0.02343750, 0.00781250, 0.00390625, -0.00390625, 0.00000000, 0.00390625, 0.00000000, -0.00390625, 0.00781250, -0.00390625, 0.00390625, 0.00000000, 0.00000000, 0.01171875, -0.00781250, 0.00781250, -0.00390625, -0.00390625, 0.00781250, 0.01171875, 0.00781250, 0.00390625, -0.00390625, -0.00390625, 0.00000000, 0.00781250, -0.01171875, 0.01171875, 0.00781250, 0.00781250, 0.00390625, 0.00390625, 0.00390625, 0.00000000, 0.00781250, -0.00390625, 0.01562500, -0.00390625, 0.00781250, 0.00000000, 0.00000000, 0.00390625, 0.00390625, 0.00781250, -0.00390625, -0.01171875, 0.00781250, 0.00000000, 0.01171875, 0.00781250, 0.01562500, -0.00390625, 0.00000000, 0.00781250, -0.00390625, 0.00390625, 0.00000000, 0.00781250, 0.00390625, -0.00390625, 0.00781250, 0.00390625, 0.00781250, 0.00000000, 0.01562500, 0.00781250, 0.00000000, 0.00000000, 0.00000000, 0.00000000, 0.00000000, 0.00390625, 0.00000000, -0.00390625, 0.00390625, -0.00390625, -0.00781250, 0.00390625, 0.01171875, 0.00781250, -0.00390625, -0.00390625, 0.00000000, 0.00390625, 0.00000000, 0.00781250, 0.00000000, -0.00390625, 0.00000000, -0.00390625, 0.00000000, 0.00781250, 0.00390625, -0.00390625, -0.00781250, -0.00390625, -0.00390625, 0.00000000, 0.00390625, 0.00000000, -0.00390625, 0.00000000, 0.00390625, 0.00390625, 0.00000000, 0.00000000, 0.00390625, 0.00390625, 0.00000000, -0.00390625, 0.00000000, 0.00000000, 0.00390625, 0.00390625, 0.00781250, -0.00390625, -0.00390625, 0.00390625, -0.00390625, 0.00000000, 0.00000000, 0.00781250, -0.00781250, 0.00000000, -0.00390625, 0.00390625, 0.00781250, 0.00390625, 0.01562500, 0.00781250, -0.00781250, 0.00000000, 0.00000000, 0.00000000, 0.00000000, 0.00000000, 0.00390625, -0.00390625, 0.00000000, -0.00390625, 0.00390625, 0.00390625, 0.00000000, 0.00781250, -0.00390625, -0.00390625, 0.00000000, 0.00781250, 0.00390625, 0.01171875, 0.00000000, -0.00390625, -0.00390625, -0.00390625, 0.00000000, 0.00390625, 0.00390625, -0.00390625, 0.00000000, 0.00000000, 0.00000000, -0.00781250, 0.00000000, 0.00000000, 0.00000000, -0.00390625, 0.00390625, 0.00000000, 0.00000000, 0.00000000, 0.00390625, 0.00000000, 0.00000000, 0.00000000, -0.00390625, 0.00000000, 0.00781250, 0.00000000, 0.00781250, -0.00390625, 0.00000000, 0.00390625, 0.00000000, 0.01171875, 0.00000000, 0.00781250, -0.00781250, -0.00390625, -0.00781250, 0.00000000, 0.00781250, 0.00781250, -0.00390625, 0.00781250, 0.00390625, -0.00390625, 0.00000000, 0.00781250, 0.00390625, 0.00000000, 0.00000000, 0.01171875, 0.00000000, 0.00000000, 0.01562500, 0.00781250, -0.00390625, 0.01171875, -0.00390625, 0.00000000, 0.00781250, 0.00781250, 0.00390625, 0.00781250, -0.00390625, 0.00390625, 0.00000000, 0.00781250, 0.00000000, 0.00781250, 0.01171875, -0.00390625, 0.00000000, 0.00781250, -0.00390625, -0.00781250, 0.00781250, -0.00390625, 0.01171875, -0.00390625, 0.00781250, 0.00000000, 0.00390625, 0.00390625, 0.00000000, 0.01562500, -0.00390625, 0.00781250, 0.00781250, 0.00000000, 0.00781250, 0.00390625, 0.01171875, -0.00390625, 0.00000000, 0.00390625, -0.00390625, 0.00000000, 0.00000000, 0.00390625, 0.00000000, -0.00390625, 0.00000000, 0.00000000, 0.00390625, 0.00000000, -0.01171875, 0.00390625, -0.00390625, -0.00390625, 0.00000000, -0.00390625, 0.00390625, 0.00000000, -0.01562500, 0.00000000, -0.00390625, 0.00000000, 0.00390625, 0.00390625, 0.00390625, 0.00781250, 0.00390625, 0.00000000, 0.00390625, 0.00390625, 0.00000000, 0.01562500, -0.00781250, 0.00000000, -0.00390625, -0.00390625, 0.00000000, 0.00000000, 0.00390625, 0.00000000, -0.00781250, 0.00000000, -0.00781250, -0.00390625, 0.00000000, 0.00000000, -0.00390625, -0.00390625, 0.00390625, -0.00390625, 0.00390625, -0.01171875, 0.00000000, 0.00781250, 0.00000000, 0.00390625, -0.00781250, 0.00000000, 0.00390625, -0.00390625, 0.00000000, -0.00390625, -0.00390625, -0.00390625, 0.00000000, 0.00390625, 0.00390625, 0.00781250, 0.00000000, 0.00000000, 0.00781250, 0.00000000, 0.00781250, 0.00390625, -0.01171875, 0.00781250, -0.00390625, 0.00000000, 0.00000000, 0.00390625, 0.01562500, 0.00000000, -0.00781250, 0.00781250, -0.01562500, -0.00390625, 0.00781250, 0.00781250, 0.00000000, 0.00781250, -0.00390625, -0.00390625, 0.00781250, 0.00390625, 0.00390625, 0.01562500, -0.00781250, 0.00000000, -0.00781250, 0.00000000, -0.00781250, 0.00390625, 0.00781250, -0.00781250, 0.00390625, -0.00390625, -0.00781250, 0.00000000, 0.00390625, -0.00781250, 0.00000000, -0.00390625, 0.00390625, 0.00000000, -0.00390625, -0.01562500, -0.00781250, 0.00781250, -0.00390625, 0.00781250, 0.00000000, 0.00000000, 0.00781250, -0.00390625, 0.00390625, -0.00390625, 0.00000000, 0.00390625, 0.00000000, 0.00000000, 0.00000000, 0.00000000, 0.00000000, 0.00000000, 0.00000000, 0.00000000, 0.00000000, 0.00000000, 0.00000000, 0.00000000, -0.00390625, 0.00000000, -0.00390625, 0.00000000, 0.00000000, 0.00000000, 0.00000000, 0.00000000, 0.00000000, 0.00000000, 0.00000000, 0.00000000, 0.00000000, 0.00000000, 0.00000000, 0.00000000, 0.00000000, 0.00000000, 0.00000000, 0.00000000, 0.00000000, 0.00000000, 0.00000000, 0.00000000, 0.00000000, 0.00000000, 0.00000000, 0.00000000, 0.00390625, 0.00000000, 0.00000000, 0.00000000, 0.00000000, 0.00000000, 0.00000000, 0.00000000, 0.00000000, 0.00000000, 0.00000000, 0.00000000, 0.00000000, 0.00000000, 0.00000000, 0.00390625, 0.00000000, -0.00390625, 0.00000000, 0.00000000, 0.00000000, 0.00000000, 0.00000000, 0.00000000, 0.00000000, 0.00000000, 0.00000000, 0.00000000, 0.00000000, 0.00000000, 0.00000000, 0.00000000, 0.00000000, 0.00000000, 0.00000000, 0.00000000, 0.00000000, 0.00000000, 0.00000000, 0.00000000, 0.00000000, 0.00000000, 0.00000000, 0.00000000, 0.00000000, 0.00000000, 0.00000000, 0.00390625, 0.00000000, 0.00000000, -0.00390625, 0.00000000, 0.00000000, 0.00390625, 0.00000000, -0.00390625, 0.00000000, 0.00000000, 0.00000000, 0.00000000, 0.00000000, 0.00000000, 0.00000000, 0.00000000, 0.00000000, -0.00390625, 0.00000000, 0.00000000, 0.00000000, 0.00000000, 0.00000000, 0.00000000, 0.00000000, 0.00000000, -0.00390625, 0.00000000, -0.00390625, 0.00000000, 0.00000000, 0.00390625, 0.00000000, 0.00000000, 0.00000000, 0.00000000, 0.00390625, 0.00000000, 0.00000000, 0.00000000, 0.00000000, 0.00000000, 0.00000000, 0.00000000, 0.00000000, 0.00000000, 0.00000000, 0.00000000, 0.00390625, 0.00000000, 0.00000000, 0.00000000, 0.00000000, 0.00000000, 0.00000000, 0.00000000, 0.00000000, -0.00390625, 0.00000000, 0.00000000, 0.00000000, 0.00000000, 0.00000000, 0.00390625, 0.00000000, 0.00000000, 0.00000000, 0.00000000, 0.00000000, 0.00000000, 0.00000000, -0.00390625, 0.00000000, 0.00390625, 0.00000000, 0.00390625, 0.00000000, 0.00000000, 0.00000000, 0.00000000, 0.00000000, 0.00000000, 0.00000000, 0.00000000, 0.00000000, 0.00000000, 0.00390625, 0.00000000, 0.00000000, 0.00000000, 0.00000000, 0.00000000, 0.00000000, 0.00000000, 0.00000000, 0.00390625, 0.00000000, 0.00000000, 0.00390625, 0.00000000, 0.00000000, 0.00000000, 0.00000000, 0.00000000, 0.00390625, 0.00390625, 0.00000000, 0.00390625, 0.00000000, 0.00000000, 0.00000000, 0.00000000, 0.00390625, 0.00000000, 0.00390625, 0.00390625, 0.00000000, 0.00000000, 0.00000000, 0.00000000, 0.00000000, 0.00000000, 0.00390625, 0.00000000, 0.00000000, 0.00000000, 0.00000000, 0.00390625, 0.00390625, 0.00390625, 0.00000000, 0.00000000, 0.00390625, 0.00390625, 0.00390625, 0.00000000, 0.00000000, -0.00390625, 0.00000000, 0.00390625, 0.00000000, 0.00390625, 0.00390625, 0.00000000, 0.00000000, 0.00000000, 0.00000000, 0.00000000, 0.00390625, 0.00000000, 0.00390625, 0.00000000, 0.00390625, 0.00000000, 0.00000000, 0.00000000, 0.00000000, 0.00390625, 0.00000000, 0.00000000, 0.00390625, 0.00000000, 0.00390625, 0.00390625, 0.00390625, 0.00000000, 0.00000000, 0.00390625, 0.00000000, 0.00390625, 0.00000000, 0.00390625, -0.00390625, 0.00000000, -0.00390625, 0.00000000, 0.00781250, 0.00000000, 0.00000000, 0.00781250, 0.00000000, 0.00000000, 0.00000000, 0.00390625, 0.00000000, 0.00000000, 0.00000000, 0.00000000, 0.00000000, 0.00000000, 0.00000000, 0.00390625, 0.00390625, 0.00390625, 0.00000000, 0.00000000, 0.00390625, 0.00781250, 0.00390625, 0.00000000, 0.00000000, 0.00000000, 0.00000000, 0.00000000, 0.00390625, 0.00390625, 0.00390625, 0.00000000, 0.00000000, 0.00000000, 0.00390625, 0.00000000, 0.00390625, 0.00000000, 0.00000000, 0.00000000, 0.00390625, 0.00000000, 0.00000000, 0.00000000, 0.00000000, 0.00390625, 0.00000000, 0.00000000, 0.00000000, 0.00000000, 0.00390625, 0.00390625, 0.00781250, 0.00000000, 0.00000000, 0.00390625, 0.00000000, 0.00390625, 0.00000000, 0.00390625, 0.00000000, 0.00000000, 0.00000000, 0.00000000, 0.00390625, 0.00000000, 0.00000000, 0.00390625, 0.00000000, 0.00000000, 0.00000000, 0.00390625, 0.00000000, 0.00000000, 0.00000000, 0.00000000, 0.00000000, 0.00000000, 0.00000000, 0.00390625, 0.00390625, 0.00390625, 0.00000000, 0.00000000, 0.00390625, 0.00390625, 0.00000000, 0.00000000, 0.00000000, 0.00000000, 0.00000000, 0.00390625, 0.00000000, 0.00390625, 0.00390625, 0.00000000, 0.00000000, -0.00390625, 0.00000000, -0.00390625, 0.00390625, 0.00000000, 0.00000000, 0.00000000, 0.00000000, 0.00000000, 0.00000000, 0.00000000, 0.00000000, 0.00390625, 0.00000000, 0.00000000, 0.00390625, 0.00000000, 0.00390625, 0.00390625, 0.00390625, 0.00000000, 0.00000000, 0.00390625, -0.00390625, 0.00390625, 0.00000000, 0.00390625, -0.00390625, 0.00000000, 0.00000000, 0.00000000, 0.00390625, 0.00000000, 0.00000000, 0.00390625, 0.00000000, 0.00000000, 0.00000000, 0.00390625, 0.00000000, 0.00390625, 0.00000000, 0.00000000, 0.00000000, -0.00390625, -0.00390625, 0.00390625, -0.00390625, 0.00390625, 0.00000000, 0.00000000, 0.00390625, 0.00390625, 0.00390625, 0.00000000, 0.00000000, 0.00000000, 0.00000000, 0.00390625, 0.00390625, 0.00390625, 0.00390625, 0.00000000, 0.00000000, 0.00000000, -0.00390625, 0.00390625, 0.00390625, 0.00000000, 0.00390625, 0.00000000, 0.00390625, 0.00000000, 0.00000000, 0.00390625, 0.00000000, 0.00390625, 0.00000000, 0.00000000, 0.00390625, 0.00000000, 0.00390625, 0.00390625, 0.00390625, 0.00000000, 0.00000000, 0.00781250, -0.00390625, 0.00390625, 0.00000000, 0.00390625, 0.00000000, 0.00000000, 0.00000000, 0.00000000, 0.00390625, 0.00000000, -0.00390625, 0.00000000, 0.00000000, 0.00000000, 0.00000000, 0.00000000, 0.00000000, 0.00000000, 0.00000000, 0.00000000, 0.00000000, 0.00000000, -0.00390625, 0.00390625, 0.00000000, 0.00390625, 0.00000000, 0.00000000, 0.00390625, 0.00390625, 0.00390625, 0.00000000, 0.00000000, 0.00000000, 0.00000000, 0.00000000, 0.00000000, 0.00390625, 0.00390625, 0.00000000, 0.00000000, 0.00000000, 0.00000000, 0.00000000, 0.00000000, 0.00000000, 0.00000000, 0.00000000, 0.00390625, 0.00000000, 0.00000000, 0.00000000, 0.00000000, 0.00390625, 0.00000000, 0.00000000, 0.00390625, 0.00000000, 0.00390625, 0.00000000, 0.00390625, 0.00000000, 0.00000000, 0.00390625, 0.00000000, 0.00390625, 0.00000000, 0.00390625, 0.00000000, 0.00390625, 0.00000000, 0.00000000, 0.00390625, 0.00000000, -0.00390625, 0.00000000, -0.00390625, -0.00390625, 0.00000000, 0.00390625, 0.00000000, 0.00000000, 0.00000000, 0.00000000, 0.00000000, 0.00000000, 0.00000000, 0.00390625, 0.00000000, 0.00390625, 0.00000000, 0.00000000, 0.00390625, 0.00390625, 0.00390625, 0.00000000, 0.00000000, 0.00000000, 0.00000000, 0.00000000, 0.00000000, 0.00390625, 0.00390625, 0.00000000, 0.00000000, 0.00000000, 0.00000000, 0.00000000, 0.00390625, -0.00390625, 0.00000000, 0.00000000, 0.00390625, 0.00000000, 0.00000000, 0.00000000, 0.00000000, 0.00390625, 0.00000000, 0.00000000, 0.00390625, 0.00000000, 0.00390625, 0.00390625, 0.00390625, 0.00000000, 0.00000000, 0.00000000, 0.00000000, 0.00000000, -0.00390625, 0.00390625, 0.00000000, 0.00000000, 0.00000000, 0.00000000, 0.00000000, 0.00000000, 0.00000000, 0.00000000, 0.00000000, -0.00390625, -0.00390625, 0.00000000, 