//Numpy array shape [3, 3, 128, 256]
//Min -0.492187500000
//Max 0.441406250000
//Number of zeros 44633

#ifndef W29_H_
#define W29_H_

#ifndef __SYNTHESIS__
weight29_t w29[294912];
#else
weight29_t w29[294912] = {0.00781250, -0.00781250, 0.02343750, -0.00781250, -0.00390625, 0.00000000, -0.00390625, 0.00390625, -0.03125000, -0.01953125, -0.01953125, 0.01171875, 0.00000000, 0.00390625, 0.00390625, 0.00000000, -0.00390625, -0.02343750, 0.01171875, 0.00781250, 0.00390625, 0.00781250, -0.01562500, 0.00390625, 0.00000000, -0.03125000, 0.00390625, -0.01953125, 0.00781250, 0.00390625, -0.00390625, 0.00000000, -0.02343750, 0.00390625, -0.00781250, 0.00390625, 0.00781250, 0.00390625, -0.00390625, -0.03906250, 0.00000000, 0.01562500, -0.00390625, -0.02343750, 0.00390625, -0.01171875, 0.00781250, 0.00390625, 0.04687500, 0.00781250, 0.00781250, 0.00000000, -0.01171875, 0.02343750, 0.02734375, 0.00390625, -0.01171875, -0.01171875, 0.00390625, -0.02734375, -0.00390625, -0.01171875, -0.02343750, 0.00000000, 0.01171875, -0.01562500, -0.00390625, 0.00390625, 0.00000000, -0.01562500, 0.00390625, -0.03125000, 0.00781250, -0.01562500, 0.00000000, 0.00390625, -0.02734375, -0.00390625, -0.01953125, -0.01562500, 0.01171875, 0.00390625, -0.01953125, 0.01171875, -0.01171875, 0.01562500, -0.01171875, 0.00000000, 0.00000000, 0.00390625, -0.02734375, 0.00390625, 0.00781250, 0.00000000, 0.01171875, 0.00390625, -0.02343750, 0.00781250, 0.01171875, -0.00390625, 0.00390625, 0.00000000, 0.00781250, 0.00390625, 0.00781250, 0.01171875, -0.01953125, 0.01171875, 0.01562500, 0.00000000, 0.00000000, -0.01171875, 0.00000000, -0.00390625, -0.03906250, 0.00390625, 0.00000000, 0.00000000, -0.00390625, 0.00781250, -0.01171875, -0.01171875, 0.00781250, -0.00390625, -0.02343750, -0.00781250, 0.00781250, 0.01562500, -0.00390625, 0.00390625, -0.01953125, -0.01562500, -0.00390625, -0.00781250, -0.00781250, 0.01953125, -0.02343750, -0.00781250, -0.01171875, -0.01562500, 0.00390625, -0.01171875, 0.00781250, 0.00390625, -0.00781250, -0.00390625, 0.00390625, -0.00781250, 0.00781250, 0.00390625, 0.01953125, 0.00781250, 0.00000000, -0.02343750, -0.00390625, -0.00390625, -0.00390625, 0.00781250, -0.00390625, -0.00390625, 0.01171875, -0.00390625, 0.00390625, -0.00781250, 0.01171875, -0.01171875, -0.01953125, -0.04296875, -0.01171875, 0.01562500, 0.01171875, -0.01562500, 0.01562500, -0.05078125, -0.00390625, 0.00390625, 0.00390625, 0.00781250, -0.00390625, -0.00781250, 0.00390625, 0.01562500, -0.01171875, 0.00000000, -0.01562500, -0.00390625, 0.01953125, -0.00781250, 0.00390625, -0.01171875, -0.03515625, 0.01171875, -0.00390625, -0.00390625, 0.03125000, -0.01171875, 0.01562500, -0.00781250, -0.01953125, -0.01562500, 0.00000000, -0.00390625, -0.01171875, 0.01171875, 0.00000000, -0.02343750, -0.01562500, -0.00781250, 0.00000000, 0.00390625, -0.00781250, -0.00390625, -0.00781250, 0.02343750, -0.00781250, 0.00000000, 0.00390625, -0.00390625, -0.01953125, 0.01562500, 0.01562500, 0.00000000, 0.00390625, -0.01953125, 0.00000000, 0.00781250, 0.00781250, -0.00781250, -0.01171875, 0.00000000, 0.00390625, 0.00390625, 0.00390625, 0.00781250, -0.03125000, 0.00781250, -0.00390625, 0.00390625, -0.01171875, 0.01171875, -0.00390625, -0.00390625, -0.02343750, 0.02343750, 0.01171875, 0.01562500, 0.00000000, 0.01562500, 0.00000000, -0.04296875, -0.00390625, 0.00781250, -0.01953125, -0.00781250, -0.00390625, 0.00000000, -0.00390625, -0.00390625, 0.00781250, 0.00000000, 0.00390625, 0.00000000, 0.00390625, 0.00390625, -0.00390625, -0.00781250, -0.00390625, 0.00000000, -0.00390625, 0.00000000, 0.00390625, 0.00000000, -0.00390625, -0.00390625, -0.00390625, 0.00390625, 0.01562500, -0.00781250, 0.00000000, 0.00390625, -0.01171875, -0.00781250, 0.00000000, 0.00000000, 0.00390625, -0.01562500, 0.00390625, 0.00000000, 0.00390625, -0.00390625, 0.01562500, 0.00390625, 0.00781250, 0.00390625, 0.00390625, -0.00390625, 0.00000000, -0.00390625, 0.00000000, -0.00390625, 0.01171875, -0.03125000, 0.01171875, 0.00390625, -0.00390625, 0.00781250, 0.00781250, 0.01171875, -0.01171875, 0.01562500, 0.00781250, -0.00390625, 0.00390625, -0.00781250, 0.00781250, -0.01171875, 0.00390625, 0.00000000, 0.00390625, 0.00390625, 0.01171875, 0.00000000, 0.01562500, 0.00390625, 0.00390625, -0.01171875, 0.01171875, -0.00390625, -0.00390625, -0.00390625, 0.01171875, 0.00781250, -0.00390625, -0.01562500, -0.00390625, 0.00390625, 0.01171875, 0.00390625, -0.00390625, 0.00781250, 0.00000000, 0.01171875, 0.00390625, 0.00000000, 0.02343750, 0.00781250, -0.00781250, 0.00390625, 0.00781250, 0.00390625, 0.00781250, -0.01953125, 0.00000000, 0.00390625, 0.01171875, 0.00390625, 0.00781250, 0.00390625, 0.01171875, 0.00390625, 0.00781250, 0.01171875, -0.02343750, 0.00390625, 0.01171875, 0.00390625, 0.00390625, 0.00390625, 0.00000000, 0.00781250, 0.00781250, 0.01171875, 0.00781250, 0.01171875, 0.00390625, 0.01171875, -0.00781250, -0.05078125, 0.00390625, 0.01171875, -0.01171875, -0.00781250, 0.00781250, -0.00781250, 0.00781250, -0.01171875, 0.03515625, 0.00000000, -0.01171875, 0.00000000, 0.00390625, 0.00000000, -0.03906250, -0.00781250, -0.02343750, 0.01171875, 0.00390625, -0.01562500, 0.00000000, 0.00000000, -0.00390625, -0.01953125, 0.00000000, 0.01171875, 0.01171875, 0.00390625, 0.00000000, 0.00000000, 0.00390625, 0.00781250, -0.00390625, -0.00781250, -0.00390625, -0.01171875, 0.00781250, 0.00390625, -0.01562500, -0.00781250, -0.00390625, 0.01171875, 0.00000000, 0.00390625, 0.01171875, -0.02343750, 0.00390625, -0.00390625, 0.00000000, -0.02343750, -0.00390625, -0.01562500, 0.01171875, -0.00390625, 0.00390625, 0.00390625, -0.00781250, 0.00000000, 0.00390625, -0.00390625, 0.03515625, 0.00390625, 0.01562500, 0.00781250, 0.00390625, -0.02343750, 0.01171875, -0.00781250, 0.00000000, -0.00390625, 0.00781250, 0.01171875, 0.01171875, 0.00781250, 0.00000000, 0.00390625, 0.01171875, -0.03906250, 0.00000000, -0.00781250, 0.00390625, 0.00781250, -0.01562500, 0.01171875, -0.01171875, -0.01171875, 0.00000000, 0.00000000, -0.01171875, 0.00781250, -0.01171875, 0.00390625, 0.00390625, 0.00000000, 0.01562500, 0.01562500, -0.00390625, 0.00390625, 0.00781250, 0.00390625, 0.01562500, -0.00390625, -0.00781250, 0.00781250, 0.00390625, 0.01171875, 0.01171875, -0.00390625, 0.00781250, 0.00000000, 0.01171875, -0.00390625, -0.00390625, 0.00781250, 0.00000000, -0.00781250, 0.00390625, 0.00000000, -0.00390625, -0.01171875, -0.05468750, 0.00000000, 0.00781250, -0.00390625, -0.00390625, 0.00781250, -0.00390625, -0.01562500, 0.01953125, 0.00390625, -0.03515625, -0.00390625, 0.00390625, 0.00000000, -0.01562500, 0.00781250, 0.00781250, -0.01953125, 0.00390625, 0.00390625, 0.00000000, 0.00000000, -0.03515625, 0.00781250, -0.01562500, 0.00390625, 0.00000000, -0.02343750, 0.00390625, 0.00390625, -0.00781250, -0.00390625, 0.00781250, 0.00000000, -0.00390625, 0.00781250, 0.02343750, 0.00390625, 0.00781250, 0.00390625, -0.00390625, 0.00781250, -0.00390625, -0.00390625, 0.00390625, -0.00390625, 0.00390625, -0.00390625, -0.01562500, -0.01171875, -0.00390625, -0.01953125, -0.01953125, -0.01953125, -0.01171875, -0.01171875, -0.00390625, 0.01171875, 0.00000000, -0.03906250, 0.00000000, -0.00390625, 0.00390625, 0.00781250, -0.01953125, 0.00000000, 0.00390625, -0.02343750, -0.01171875, 0.00000000, 0.00390625, 0.00390625, -0.00390625, -0.00781250, 0.00781250, -0.00390625, -0.02343750, 0.00000000, -0.00390625, 0.00000000, 0.01171875, -0.00390625, -0.00390625, 0.01562500, -0.01953125, -0.05468750, -0.00781250, 0.00000000, -0.01171875, 0.00390625, -0.00390625, 0.00000000, -0.01562500, 0.00000000, -0.01562500, -0.01171875, -0.01171875, -0.01171875, -0.00390625, 0.00781250, -0.01171875, 0.01171875, -0.01171875, -0.01171875, -0.01953125, 0.00390625, 0.01171875, -0.00781250, -0.01171875, -0.05859375, -0.00390625, -0.00781250, -0.01171875, 0.00390625, 0.00000000, -0.01171875, 0.00000000, -0.00781250, -0.01171875, 0.00390625, -0.01171875, -0.00390625, -0.00781250, -0.01953125, -0.00390625, 0.00000000, -0.01562500, -0.01562500, -0.01953125, 0.00000000, -0.00390625, -0.00781250, -0.00390625, 0.01171875, 0.00000000, -0.03515625, -0.01171875, 0.00390625, -0.05468750, -0.00781250, -0.01171875, -0.00390625, 0.00390625, 0.00000000, -0.00390625, 0.00000000, 0.00390625, 0.00000000, 0.00781250, -0.01562500, -0.01953125, 0.00781250, -0.00390625, 0.00390625, -0.00781250, 0.00390625, 0.00000000, 0.00000000, -0.00390625, 0.00000000, 0.00390625, 0.00390625, -0.00390625, 0.00000000, -0.01562500, 0.00781250, -0.00781250, 0.00000000, -0.00390625, -0.01953125, 0.01953125, -0.00390625, 0.00000000, 0.00000000, -0.00390625, 0.00000000, 0.00781250, 0.00781250, -0.01562500, 0.00781250, 0.00781250, 0.00000000, 0.00390625, 0.01171875, 0.00000000, 0.01953125, 0.00781250, -0.01171875, 0.00390625, -0.00781250, 0.00000000, -0.00390625, -0.00390625, 0.00000000, -0.00390625, -0.01171875, 0.00781250, 0.00000000, -0.01562500, -0.00390625, -0.01562500, -0.00390625, 0.00000000, 0.00390625, 0.00390625, -0.01171875, 0.00390625, -0.00390625, -0.00390625, 0.00000000, -0.00390625, -0.00390625, 0.01953125, -0.01562500, -0.00781250, 0.00000000, -0.01953125, 0.00000000, 0.00000000, -0.00390625, -0.00390625, 0.00390625, 0.00000000, -0.00390625, -0.00390625, 0.00390625, 0.00781250, 0.00781250, -0.00781250, 0.00390625, 0.00781250, 0.00390625, -0.00781250, 0.00390625, 0.00000000, 0.00390625, 0.00390625, -0.03906250, -0.00390625, 0.00390625, -0.00781250, 0.00781250, 0.00781250, 0.00000000, 0.00390625, -0.01171875, 0.00390625, 0.00390625, 0.00390625, 0.00000000, 0.00781250, -0.01171875, 0.00000000, 0.00781250, 0.00000000, 0.01562500, 0.00390625, -0.01171875, -0.01171875, 0.00000000, 0.00000000, 0.00390625, -0.00390625, -0.01953125, -0.00390625, 0.01171875, -0.02343750, -0.00781250, 0.00000000, 0.00000000, 0.00390625, -0.00781250, 0.01953125, 0.00781250, -0.00781250, 0.00000000, 0.01562500, 0.00000000, -0.03125000, -0.01562500, -0.00781250, 0.00390625, -0.01171875, -0.01171875, 0.00000000, 0.00781250, -0.00781250, -0.03125000, -0.01171875, 0.01562500, -0.00390625, -0.00390625, -0.00781250, 0.01171875, -0.00390625, 0.00390625, -0.00390625, 0.00000000, -0.00781250, -0.00390625, 0.00781250, 0.00000000, -0.01171875, -0.00390625, 0.00000000, 0.01171875, -0.00390625, -0.00781250, 0.01171875, -0.01953125, 0.00781250, -0.01562500, -0.01171875, -0.02343750, -0.00390625, -0.01171875, 0.01562500, -0.00781250, 0.00000000, -0.00390625, -0.00781250, -0.00390625, 0.00000000, -0.01562500, 0.00000000, 0.00000000, 0.01171875, 0.00390625, 0.00781250, -0.02734375, 0.00000000, -0.00390625, 0.00000000, -0.00390625, 0.00390625, -0.00390625, 0.00000000, 0.00781250, 0.00000000, 0.00390625, 0.01562500, -0.03125000, 0.00000000, -0.01562500, 0.00390625, 0.00390625, -0.02734375, 0.00781250, -0.01953125, -0.00781250, 0.00390625, -0.00390625, -0.01953125, 0.00390625, -0.01562500, 0.00000000, 0.00000000, 0.00000000, 0.00781250, 0.01562500, -0.02734375, 0.00390625, 0.00390625, 0.01171875, 0.01562500, -0.00781250, -0.02734375, 0.01171875, -0.00781250, -0.00390625, 0.00781250, -0.00781250, 0.00390625, -0.00781250, 0.01562500, 0.01171875, 0.00000000, 0.00000000, 0.00000000, -0.01171875, 0.00000000, 0.00390625, 0.00000000, -0.00390625, -0.02734375, -0.00390625, 0.00390625, 0.00000000, -0.00781250, 0.00390625, -0.00781250, -0.01171875, 0.01562500, 0.00781250, -0.03125000, -0.01171875, 0.00390625, 0.00000000, -0.02734375, 0.01171875, 0.01171875, -0.01171875, 0.00000000, 0.00390625, 0.00390625, 0.00000000, -0.06250000, -0.00781250, -0.01562500, 0.00000000, 0.00000000, -0.03125000, -0.00390625, 0.00390625, -0.00781250, -0.00781250, -0.01171875, 0.00000000, -0.01562500, 0.00781250, 0.00781250, 0.00390625, 0.00390625, 0.00000000, -0.00781250, 0.00000000, -0.01953125, 0.00390625, 0.00390625, -0.00781250, -0.00390625, 0.00000000, -0.02343750, -0.00781250, -0.01171875, -0.02734375, -0.02734375, -0.01953125, -0.01171875, -0.00390625, -0.01171875, -0.01171875, -0.00390625, -0.01562500, -0.00390625, -0.00781250, 0.00781250, 0.01562500, -0.01171875, -0.00781250, 0.00390625, -0.03125000, -0.04687500, 0.00000000, 0.00781250, 0.00390625, -0.00390625, -0.00781250, 0.00781250, 0.00000000, -0.04296875, -0.00390625, 0.00000000, -0.00390625, -0.01171875, 0.00000000, -0.00390625, 0.00000000, -0.01562500, -0.06250000, 0.00000000, -0.00781250, -0.00390625, -0.00390625, -0.00781250, 0.00390625, -0.01171875, -0.00781250, -0.00390625, -0.01171875, -0.00390625, 0.00000000, -0.01953125, 0.00390625, 0.00781250, 0.01171875, -0.01953125, 0.00000000, -0.05078125, 0.00000000, 0.00000000, -0.00390625, 0.00390625, -0.06250000, -0.00390625, 0.00000000, -0.01562500, -0.01171875, 0.00000000, -0.01953125, 0.00390625, -0.00781250, 0.00390625, 0.00781250, -0.00781250, 0.00390625, 0.00000000, -0.03906250, -0.00390625, 0.00390625, 0.00000000, -0.01171875, -0.01562500, -0.01171875, -0.00781250, -0.00781250, -0.00390625, 0.01171875, -0.00390625, -0.00781250, -0.01171875, 0.00390625, -0.06640625, 0.00000000, -0.01171875, 0.00000000, 0.00781250, 0.00390625, -0.00781250, 0.00000000, -0.01562500, 0.00000000, 0.01953125, -0.00781250, -0.05468750, -0.01953125, -0.00781250, 0.00390625, -0.02343750, 0.00390625, -0.01953125, 0.00781250, -0.00781250, -0.00781250, -0.00390625, 0.00000000, -0.00781250, -0.01171875, -0.01953125, 0.00390625, -0.01171875, 0.00000000, 0.00000000, -0.01171875, -0.02343750, 0.00390625, 0.00000000, 0.00000000, -0.00781250, -0.00390625, 0.00390625, 0.00781250, -0.02343750, 0.00781250, 0.00390625, 0.00000000, 0.00000000, 0.00781250, 0.00000000, -0.00781250, 0.00781250, -0.00390625, 0.00000000, -0.01171875, 0.00781250, 0.00390625, -0.00781250, 0.00000000, -0.00390625, -0.00781250, -0.00781250, -0.00781250, -0.00390625, -0.00781250, -0.02343750, -0.00781250, 0.00000000, 0.00781250, 0.00390625, -0.00390625, 0.00390625, 0.00390625, -0.02343750, 0.00390625, 0.00000000, -0.01171875, 0.01171875, -0.06250000, -0.01562500, -0.01171875, -0.01953125, 0.00000000, -0.00390625, 0.01171875, -0.00781250, -0.00781250, 0.00390625, -0.01953125, -0.00390625, 0.00390625, -0.01171875, 0.00000000, 0.00781250, 0.01171875, -0.01171875, 0.00000000, -0.03906250, 0.00390625, 0.00000000, 0.00390625, 0.00781250, -0.04687500, -0.01171875, 0.00390625, -0.02343750, -0.01562500, 0.00000000, 0.00000000, 0.00390625, -0.02343750, 0.00390625, 0.00390625, -0.00390625, 0.00390625, 0.00781250, -0.05468750, 0.00000000, 0.00390625, 0.00000000, 0.02343750, 0.00390625, -0.01171875, -0.03125000, -0.01171875, 0.00390625, 0.00390625, -0.01171875, 0.00000000, -0.00390625, 0.01171875, -0.07031250, -0.00781250, 0.00390625, 0.01171875, 0.00390625, 0.00781250, 0.00781250, -0.00390625, 0.02734375, 0.00781250, 0.00390625, -0.00390625, -0.01562500, 0.03906250, 0.00000000, 0.01953125, 0.01171875, -0.00781250, 0.00390625, 0.01562500, 0.00390625, -0.01171875, 0.00390625, 0.00781250, -0.01171875, 0.00000000, 0.00390625, -0.00390625, 0.00000000, 0.00390625, 0.00000000, -0.00781250, 0.01953125, 0.01562500, -0.00781250, -0.00390625, -0.02343750, 0.00000000, 0.02343750, 0.01562500, -0.00390625, 0.00781250, 0.00390625, 0.00000000, 0.00390625, 0.00781250, 0.01171875, -0.00781250, -0.00390625, -0.01171875, 0.00781250, 0.00000000, 0.00000000, -0.00781250, 0.01171875, 0.01171875, 0.00390625, 0.00390625, 0.00781250, 0.00390625, 0.00781250, 0.00781250, 0.00000000, -0.01171875, 0.00390625, -0.02343750, 0.00781250, -0.01562500, 0.00781250, -0.00781250, 0.00781250, 0.01171875, 0.00390625, 0.01171875, 0.02343750, -0.01171875, 0.00000000, -0.00781250, -0.00781250, -0.01171875, -0.01953125, -0.02343750, -0.00781250, 0.00000000, -0.00390625, 0.01171875, -0.01953125, 0.00000000, 0.01953125, -0.00781250, -0.01171875, -0.00390625, 0.00390625, 0.00781250, -0.00390625, -0.01953125, -0.01171875, 0.00781250, 0.00000000, 0.01171875, -0.01171875, 0.00390625, 0.01171875, 0.02343750, 0.00781250, 0.00781250, -0.00781250, 0.00000000, 0.00781250, -0.01171875, -0.01562500, -0.00781250, 0.00390625, 0.05078125, -0.01171875, -0.01953125, 0.00000000, 0.00781250, 0.01562500, -0.00781250, 0.03125000, -0.00781250, 0.01171875, 0.00390625, -0.00390625, -0.00781250, 0.00781250, 0.00390625, -0.00390625, -0.00390625, -0.00390625, -0.01171875, -0.00781250, -0.00781250, 0.00781250, 0.01562500, 0.01562500, 0.00781250, 0.00390625, 0.01953125, 0.00781250, 0.03515625, -0.01562500, 0.00390625, 0.01562500, -0.01562500, 0.02734375, 0.00390625, -0.00781250, 0.00000000, 0.01171875, -0.01171875, 0.03515625, 0.00390625, 0.01953125, -0.02734375, 0.00390625, 0.00781250, 0.01171875, 0.01171875, 0.01953125, 0.00000000, 0.01171875, -0.00781250, 0.02734375, 0.00000000, -0.01953125, -0.00781250, 0.01171875, -0.01171875, -0.00781250, -0.01171875, -0.01171875, 0.00000000, -0.00390625, 0.00390625, -0.01171875, 0.00390625, -0.01953125, 0.01171875, -0.00781250, -0.00390625, 0.02343750, 0.00390625, 0.01171875, 0.00390625, -0.01953125, 0.00781250, 0.00000000, 0.01953125, 0.01562500, -0.00390625, 0.02734375, -0.00390625, -0.00390625, 0.00781250, -0.00781250, -0.01953125, 0.02343750, -0.01562500, 0.02734375, -0.00390625, 0.00000000, 0.00390625, 0.01171875, 0.00000000, 0.01953125, 0.01171875, -0.00781250, -0.01171875, -0.00390625, 0.00781250, 0.00390625, 0.00781250, 0.00390625, -0.00781250, 0.01171875, -0.00781250, -0.00390625, 0.00390625, 0.02343750, -0.01171875, 0.00390625, 0.00390625, -0.01562500, -0.02734375, -0.01171875, 0.02734375, -0.00390625, -0.01953125, 0.02734375, 0.02343750, -0.00781250, -0.00781250, -0.00781250, 0.00390625, -0.00390625, 0.01171875, -0.01562500, 0.00390625, -0.01171875, 0.01953125, -0.03125000, -0.03125000, 0.00000000, -0.02343750, -0.01171875, 0.02734375, 0.04296875, 0.00390625, 0.00781250, -0.01171875, 0.00781250, -0.00390625, -0.00390625, -0.02343750, 0.00390625, 0.00000000, 0.00000000, -0.01562500, -0.00390625, 0.01562500, 0.01562500, 0.00390625, 0.01562500, 0.01562500, 0.00781250, 0.02343750, 0.00781250, 0.03515625, 0.01562500, -0.00390625, -0.00781250, 0.00390625, 0.01562500, 0.00000000, -0.01562500, -0.00390625, 0.01171875, -0.01953125, -0.01171875, -0.01171875, 0.01562500, 0.00781250, 0.00000000, 0.07421875, 0.00781250, 0.01171875, 0.00390625, -0.00781250, -0.01953125, -0.01562500, -0.01562500, -0.00390625, -0.00390625, -0.00781250, 0.00781250, -0.00390625, 0.00390625, -0.01953125, 0.00390625, -0.00390625, 0.00000000, -0.00390625, 0.00000000, 0.00000000, -0.03515625, 0.00000000, -0.01562500, 0.00000000, 0.00390625, 0.00000000, 0.00000000, -0.02734375, 0.00390625, 0.00000000, 0.00390625, -0.01171875, 0.01171875, -0.00781250, -0.00781250, 0.01562500, 0.00390625, 0.01953125, 0.00390625, 0.01953125, 0.01562500, -0.01562500, 0.01953125, 0.01171875, -0.00390625, -0.00390625, 0.00781250, -0.00390625, 0.01953125, 0.00390625, -0.00781250, 0.01562500, -0.01171875, 0.00781250, -0.01171875, 0.00390625, 0.00000000, -0.00390625, 0.00390625, -0.02734375, 0.01171875, 0.00781250, 0.00781250, -0.01171875, 0.02343750, -0.01953125, -0.03515625, -0.00390625, -0.03515625, 0.00390625, -0.00781250, 0.00000000, 0.01171875, 0.01953125, -0.00390625, 0.00781250, -0.03906250, 0.00000000, -0.03125000, -0.01562500, 0.01171875, -0.01171875, 0.00000000, 0.04296875, 0.00390625, -0.03906250, 0.00000000, 0.00390625, -0.00390625, 0.01953125, 0.03515625, 0.01171875, 0.01562500, -0.04296875, 0.00390625, 0.00000000, 0.01171875, 0.00000000, 0.01562500, 0.00390625, 0.00000000, -0.01171875, 0.00390625, 0.00000000, -0.01171875, -0.01953125, 0.00781250, 0.01562500, 0.01562500, 0.02343750, 0.01171875, 0.01953125, 0.00000000, 0.00000000, 0.00000000, 0.02343750, 0.01953125, 0.03515625, -0.00781250, -0.00390625, 0.00781250, -0.00781250, 0.00000000, -0.01171875, 0.01171875, 0.00781250, -0.00390625, -0.01953125, 0.02343750, -0.00390625, 0.02343750, 0.03515625, -0.00390625, 0.02734375, -0.00390625, 0.03125000, 0.01171875, -0.00781250, 0.02343750, 0.05078125, 0.00390625, -0.02343750, -0.00781250, -0.00390625, 0.01171875, 0.00000000, -0.02343750, 0.02734375, 0.01171875, 0.01562500, 0.01953125, 0.03906250, 0.00781250, -0.01953125, -0.00390625, 0.00781250, 0.03515625, -0.00390625, -0.01171875, -0.01171875, 0.01953125, -0.00781250, 0.00390625, 0.00390625, -0.01562500, 0.01953125, 0.00390625, 0.01953125, 0.02343750, -0.00390625, 0.00781250, -0.03125000, 0.01953125, 0.00390625, 0.03125000, -0.00390625, 0.02734375, -0.00781250, -0.00390625, -0.01171875, -0.00390625, -0.03515625, -0.00390625, 0.03125000, -0.00390625, -0.00390625, 0.00781250, -0.01171875, 0.00000000, 0.03515625, -0.01171875, -0.00390625, -0.02343750, -0.03906250, 0.00390625, -0.01171875, 0.00000000, 0.02343750, 0.00000000, -0.00390625, 0.02734375, 0.02343750, -0.00390625, -0.00781250, -0.00390625, 0.01953125, 0.00000000, 0.00000000, -0.01953125, -0.00781250, 0.00000000, 0.00390625, -0.00781250, -0.00390625, 0.00781250, -0.01171875, -0.01953125, 0.02343750, 0.02343750, 0.01562500, 0.00390625, -0.00390625, -0.01171875, 0.01953125, -0.01562500, -0.01171875, 0.00781250, 0.00000000, -0.00390625, 0.01562500, -0.00390625, -0.00390625, 0.00390625, -0.01171875, 0.02343750, 0.00781250, 0.01953125, 0.01171875, 0.00781250, 0.04296875, 0.00390625, 0.00000000, -0.00781250, 0.00000000, 0.01562500, 0.01562500, -0.00781250, 0.00000000, -0.00390625, -0.01953125, 0.00781250, -0.00390625, 0.01562500, -0.01953125, 0.00000000, -0.00781250, 0.00000000, -0.00390625, 0.01562500, 0.00781250, 0.00781250, 0.01171875, 0.02343750, 0.00781250, 0.00000000, -0.01953125, 0.01171875, -0.00390625, 0.01171875, -0.00781250, -0.01562500, -0.02734375, -0.00390625, 0.00390625, -0.02343750, 0.01171875, 0.00781250, 0.01562500, -0.00390625, -0.00390625, 0.00781250, -0.00781250, 0.00781250, 0.00000000, 0.01171875, 0.00000000, 0.00781250, 0.00000000, 0.00781250, -0.00390625, 0.00390625, -0.01953125, -0.00390625, 0.00781250, -0.02343750, -0.01171875, 0.01562500, -0.03125000, 0.00781250, -0.03515625, 0.02343750, 0.00000000, 0.01171875, -0.00390625, 0.01953125, 0.00390625, -0.00781250, -0.01562500, -0.00781250, -0.01953125, 0.00000000, 0.01171875, 0.01562500, -0.01953125, 0.01953125, -0.02734375, 0.00000000, -0.01171875, 0.01171875, -0.02734375, 0.00390625, -0.00781250, -0.02734375, -0.02343750, -0.00390625, 0.00390625, -0.00390625, -0.02343750, 0.02734375, 0.04296875, -0.02343750, 0.00000000, -0.02343750, 0.01171875, -0.00781250, -0.00390625, -0.02734375, -0.00781250, -0.01953125, -0.00390625, -0.00390625, 0.00390625, 0.01171875, -0.03515625, 0.00000000, 0.01562500, 0.01562500, 0.00390625, 0.01953125, -0.01562500, -0.00781250, 0.00781250, -0.02343750, -0.01562500, 0.01171875, -0.00390625, -0.01171875, -0.00390625, -0.00390625, 0.00781250, -0.02734375, -0.03125000, 0.03125000, 0.00390625, -0.01171875, 0.01953125, 0.00000000, 0.02343750, 0.02734375, -0.00781250, 0.00000000, 0.00000000, 0.02343750, 0.00781250, -0.00781250, -0.00390625, -0.00390625, -0.03125000, 0.00781250, -0.00781250, 0.01171875, 0.01562500, 0.00000000, -0.00781250, 0.00390625, 0.01953125, 0.02734375, 0.00390625, -0.00781250, -0.01562500, 0.01562500, 0.00781250, 0.00781250, -0.03906250, 0.02734375, -0.00781250, -0.00781250, 0.00000000, -0.04296875, -0.01953125, -0.00390625, -0.00781250, -0.01562500, 0.00390625, 0.00000000, 0.01171875, 0.00781250, 0.00000000, 0.01953125, -0.00781250, 0.00000000, 0.00000000, 0.00390625, -0.00390625, -0.00781250, 0.00390625, 0.01171875, -0.01171875, -0.00390625, 0.01562500, -0.00781250, 0.01562500, -0.03125000, -0.01953125, 0.01171875, -0.01953125, 0.02343750, -0.03125000, 0.00000000, 0.00390625, 0.02343750, -0.00390625, 0.03125000, -0.00390625, -0.01171875, -0.00781250, -0.01171875, -0.07421875, 0.00000000, 0.02343750, 0.00781250, -0.02343750, 0.00390625, -0.03515625, 0.00390625, -0.02343750, 0.01562500, -0.02343750, 0.00390625, -0.01953125, -0.04687500, -0.03125000, -0.03515625, -0.00781250, -0.00781250, -0.01171875, 0.03125000, 0.00000000, -0.03906250, -0.02343750, -0.01562500, 0.01562500, -0.02734375, -0.01171875, -0.04296875, -0.01562500, -0.01171875, 0.01171875, 0.00000000, -0.00390625, 0.01953125, -0.01953125, 0.00000000, 0.02734375, 0.03515625, 0.00781250, 0.00000000, -0.02734375, -0.00390625, 0.01171875, -0.04687500, 0.00000000, -0.00390625, -0.00390625, -0.01953125, 0.00781250, 0.00000000, -0.01562500, -0.01953125, -0.02343750, 0.03515625, 0.02343750, 0.00781250, 0.02734375, 0.03125000, 0.05468750, 0.03125000, -0.00390625, 0.01562500, -0.01171875, 0.04296875, 0.01171875, 0.00000000, 0.00390625, 0.04296875, -0.01171875, 0.00781250, -0.00781250, 0.01953125, 0.00390625, -0.00390625, -0.00390625, 0.04687500, 0.02343750, 0.04687500, 0.00390625, -0.01171875, 0.01171875, 0.01562500, 0.03515625, -0.02343750, -0.00390625, 0.02343750, 0.01171875, -0.01562500, -0.01171875, -0.00781250, -0.00390625, -0.01171875, 0.02343750, -0.03125000, 0.00390625, -0.00390625, 0.03906250, -0.00390625, 0.00390625, 0.04687500, -0.01171875, -0.00781250, 0.01171875, 0.00781250, 0.00390625, -0.03125000, 0.00390625, 0.03906250, -0.00390625, -0.00781250, 0.00000000, -0.01562500, 0.02734375, -0.01171875, 0.01562500, 0.04687500, -0.02734375, 0.02343750, 0.00390625, 0.01953125, 0.01953125, 0.03125000, -0.00390625, 0.01953125, 0.00000000, -0.00390625, -0.00781250, -0.00781250, -0.02343750, -0.03125000, 0.03515625, -0.00781250, -0.01953125, 0.04687500, -0.01171875, -0.01171875, 0.00390625, 0.01953125, -0.01562500, 0.00781250, -0.05468750, -0.02343750, -0.02734375, -0.01171875, 0.01171875, 0.00000000, -0.01953125, 0.03906250, 0.03906250, -0.00781250, -0.01171875, -0.01953125, 0.02734375, -0.00781250, -0.02734375, -0.02343750, -0.02343750, -0.02734375, 0.02734375, 0.00390625, -0.01562500, 0.02343750, -0.02734375, -0.00390625, 0.02734375, 0.04296875, 0.01171875, 0.00781250, -0.01171875, -0.00781250, 0.00390625, -0.01171875, -0.01953125, 0.01171875, -0.00781250, -0.02343750, -0.01171875, 0.00000000, -0.00390625, -0.01171875, -0.03906250, 0.03515625, 0.01562500, 0.01171875, 0.01171875, 0.03125000, 0.03906250, 0.03906250, -0.00390625, 0.01171875, -0.00390625, 0.03515625, -0.00781250, -0.00781250, -0.00390625, 0.02734375, -0.02343750, 0.01562500, -0.00390625, 0.02343750, -0.00781250, -0.00390625, -0.00390625, 0.03125000, 0.02734375, 0.03906250, 0.00000000, 0.00000000, 0.00000000, 0.01171875, 0.02734375, -0.02343750, -0.02343750, 0.01171875, -0.00390625, -0.00390625, -0.02343750, -0.01953125, 0.00390625, -0.01953125, 0.04296875, -0.02343750, 0.00000000, -0.01953125, 0.03515625, -0.01171875, -0.00390625, 0.02343750, -0.00781250, 0.00000000, 0.00000000, 0.00781250, 0.00390625, -0.01562500, 0.00000000, 0.01562500, -0.00390625, 0.00000000, -0.01171875, 0.00000000, 0.01562500, -0.01171875, -0.00781250, 0.03906250, -0.03515625, 0.01953125, -0.00781250, 0.01953125, 0.01562500, 0.02343750, 0.00000000, 0.00781250, 0.00390625, -0.00390625, -0.00781250, -0.01171875, -0.01562500, -0.02343750, 0.02343750, -0.00781250, -0.02343750, 0.03906250, -0.01171875, -0.01171875, -0.00390625, 0.01171875, -0.01953125, 0.00000000, -0.02734375, -0.02343750, -0.03125000, -0.00781250, -0.00390625, 0.00000000, -0.01953125, 0.01953125, 0.03125000, -0.01562500, -0.01171875, -0.01562500, 0.01562500, -0.00390625, -0.01171875, -0.02343750, -0.01953125, -0.02343750, 0.00781250, 0.00390625, 0.00390625, 0.02343750, -0.05468750, -0.00390625, 0.01562500, 0.01953125, 0.00390625, 0.00390625, -0.01562500, 0.00000000, 0.00000000, -0.03906250, -0.01562500, 0.01171875, -0.00390625, -0.01562500, -0.01953125, -0.00390625, -0.00390625, 0.00000000, -0.04687500, 0.04687500, 0.01562500, 0.01562500, 0.00781250, 0.03125000, 0.04296875, 0.05078125, -0.00781250, 0.01953125, -0.00781250, 0.03906250, -0.00781250, -0.01171875, 0.00000000, 0.01562500, -0.01953125, 0.02343750, -0.01171875, 0.01562500, -0.00390625, -0.00781250, -0.00390625, 0.02343750, 0.02343750, 0.03125000, -0.01171875, -0.00390625, -0.01171875, 0.00390625, 0.03125000, -0.03515625, -0.04296875, 0.00781250, 0.00781250, -0.00781250, -0.01171875, -0.02734375, 0.00390625, -0.01171875, 0.03125000, -0.01953125, -0.00390625, -0.01953125, 0.03906250, -0.01562500, -0.00781250, 0.03906250, -0.00781250, -0.00390625, 0.00390625, 0.02734375, 0.00000000, 0.00000000, 0.00000000, 0.01171875, -0.00390625, 0.00000000, 0.00000000, -0.00390625, 0.02343750, -0.01562500, -0.00390625, 0.03515625, -0.02734375, 0.02734375, 0.00000000, 0.00781250, 0.01953125, 0.03515625, -0.00390625, 0.00781250, 0.00390625, -0.00781250, 0.00000000, 0.00000000, -0.02343750, -0.02734375, 0.02734375, -0.00390625, -0.01953125, 0.02734375, -0.00390625, -0.01562500, 0.00000000, 0.02343750, -0.01953125, 0.00781250, -0.04687500, -0.01953125, -0.02343750, -0.01562500, 0.00390625, -0.00390625, -0.01562500, 0.01171875, 0.01953125, -0.01953125, 0.00781250, -0.01562500, 0.03125000, -0.01171875, -0.02734375, -0.00781250, -0.02343750, -0.01562500, 0.00781250, 0.00390625, -0.00390625, 0.03125000, -0.03125000, 0.00000000, 0.01562500, 0.01953125, 0.00000000, 0.00390625, -0.00781250, 0.00000000, 0.00390625, -0.03906250, 0.00390625, 0.01562500, -0.00390625, -0.03125000, -0.01562500, 0.00000000, -0.00781250, 0.01562500, 0.00390625, 0.00000000, -0.00390625, -0.00390625, 0.00390625, 0.00781250, 0.00000000, -0.00390625, -0.00781250, 0.01171875, -0.00390625, -0.01171875, 0.00000000, -0.00390625, -0.02343750, 0.00000000, 0.00390625, 0.00390625, -0.01171875, 0.01171875, -0.00390625, -0.01171875, -0.00390625, 0.00390625, -0.00390625, -0.00390625, -0.00390625, -0.00781250, -0.00390625, 0.00000000, -0.00781250, -0.00390625, -0.00390625, -0.00390625, -0.00390625, -0.00781250, -0.00781250, -0.00390625, -0.00781250, -0.01171875, 0.00000000, 0.00390625, -0.00390625, 0.00000000, -0.00390625, 0.00390625, 0.00000000, -0.00781250, 0.00000000, -0.01562500, 0.00781250, 0.01562500, -0.00781250, 0.00781250, 0.00390625, 0.00390625, -0.01562500, -0.00781250, -0.00390625, 0.00390625, -0.00390625, 0.00781250, 0.00781250, 0.00000000, 0.00781250, 0.00390625, -0.00781250, -0.01171875, 0.00390625, -0.00390625, -0.01562500, 0.00390625, 0.00000000, -0.03125000, -0.00781250, -0.01562500, -0.00781250, 0.00390625, -0.00781250, -0.01562500, 0.00390625, 0.00390625, 0.00390625, -0.00781250, -0.00781250, -0.01562500, 0.00390625, 0.00781250, 0.01171875, 0.00390625, 0.00390625, 0.00390625, 0.00000000, -0.01562500, 0.00390625, 0.00000000, 0.00390625, 0.00390625, 0.00781250, 0.00390625, -0.00781250, 0.00390625, 0.00390625, 0.00390625, 0.00781250, 0.01171875, 0.00000000, 0.00781250, 0.00390625, -0.00390625, 0.00000000, -0.00781250, -0.00390625, -0.00390625, -0.00390625, 0.00390625, 0.00390625, -0.01171875, -0.00781250, -0.00390625, 0.00781250, -0.00781250, -0.00781250, 0.00390625, 0.00390625, -0.01953125, -0.01171875, 0.00000000, 0.00000000, 0.00781250, 0.00000000, 0.00000000, 0.00781250, 0.00000000, -0.00390625, 0.01171875, 0.00000000, 0.00781250, -0.01171875, 0.00390625, -0.00390625, 0.00000000, -0.00390625, -0.00390625, 0.00390625, 0.01171875, 0.00390625, 0.00781250, 0.00390625, 0.00390625, 0.01562500, 0.01171875, -0.00390625, -0.00390625, 0.00781250, 0.00390625, -0.00781250, 0.01171875, 0.00000000, 0.00000000, 0.00390625, 0.00000000, -0.00781250, -0.01171875, 0.00000000, 0.00390625, 0.00390625, 0.00000000, 0.00390625, 0.00390625, 0.00390625, -0.00781250, -0.00781250, -0.01562500, -0.00390625, 0.00000000, 0.00390625, 0.00781250, -0.00781250, 0.00000000, 0.00390625, 0.00781250, 0.01171875, 0.00390625, -0.00390625, 0.00390625, 0.00781250, -0.00781250, 0.00781250, 0.00000000, -0.00390625, 0.01171875, -0.00390625, 0.00781250, 0.00000000, 0.01171875, 0.00000000, -0.00390625, 0.00000000, 0.01171875, 0.00000000, 0.00000000, 0.01171875, -0.00390625, -0.00390625, -0.00390625, 0.00781250, 0.00000000, 0.00000000, 0.01171875, 0.00390625, 0.01562500, 0.00781250, 0.01562500, 0.00390625, 0.00781250, 0.00781250, 0.00390625, -0.00390625, 0.00000000, 0.00781250, 0.00000000, 0.00000000, 0.00781250, 0.00390625, -0.00390625, -0.00781250, 0.00000000, 0.00000000, 0.00390625, -0.00390625, -0.00390625, 0.00390625, -0.00781250, 0.00781250, -0.00781250, 0.00390625, -0.00781250, -0.00390625, -0.01171875, 0.00781250, 0.00781250, 0.00781250, 0.00000000, 0.00390625, 0.00390625, 0.00390625, -0.00390625, 0.00000000, 0.00390625, -0.00781250, 0.00000000, -0.01171875, 0.00000000, 0.00390625, -0.00390625, 0.00000000, -0.00390625, -0.00781250, -0.01171875, -0.00390625, 0.00390625, 0.00390625, -0.00390625, 0.00000000, -0.00390625, 0.00000000, -0.00390625, -0.00390625, 0.00390625, 0.00390625, 0.00781250, 0.00000000, 0.00000000, 0.00390625, 0.00390625, 0.00000000, 0.00390625, -0.01562500, 0.00390625, 0.00390625, 0.00781250, -0.00390625, 0.00390625, -0.00781250, -0.00390625, -0.00390625, 0.00390625, -0.00390625, 0.00000000, 0.00000000, -0.00390625, 0.00000000, -0.01562500, -0.00781250, -0.00781250, 0.00390625, 0.00000000, -0.00390625, 0.00390625, -0.00390625, 0.00781250, 0.00000000, -0.00390625, -0.00390625, 0.00390625, 0.00000000, 0.00000000, 0.00390625, -0.00781250, 0.00000000, -0.00390625, 0.00390625, 0.00390625, -0.00390625, -0.00781250, 0.00000000, 0.00390625, -0.01171875, -0.00390625, 0.00781250, -0.00781250, -0.00390625, 0.00390625, 0.00390625, 0.00000000, 0.00781250, -0.00390625, 0.00000000, 0.00781250, -0.00390625, 0.00390625, 0.00390625, 0.00390625, 0.00000000, 0.00781250, 0.00390625, 0.00000000, -0.00781250, -0.00781250, -0.00390625, -0.00390625, 0.00000000, -0.00390625, 0.00390625, -0.00781250, 0.00000000, 0.00390625, 0.00000000, 0.00781250, 0.00000000, 0.01171875, 0.00781250, 0.00000000, -0.00390625, 0.00390625, 0.00000000, 0.00390625, 0.00781250, -0.00390625, 0.00390625, 0.00390625, -0.00390625, -0.00390625, -0.00390625, 0.00390625, 0.00781250, 0.00000000, -0.00390625, 0.00000000, -0.00390625, 0.00781250, 0.00390625, 0.00781250, 0.00000000, 0.00000000, 0.00000000, 0.00000000, 0.00781250, 0.00390625, 0.00000000, -0.00390625, -0.01171875, 0.00781250, 0.00781250, -0.00390625, -0.00390625, -0.00390625, 0.00390625, 0.00390625, 0.01171875, 0.01171875, 0.00000000, 0.01171875, -0.00781250, -0.00390625, -0.00390625, -0.00390625, -0.01953125, 0.00000000, 0.01171875, 0.01171875, 0.00390625, 0.01171875, 0.00000000, -0.00390625, -0.00781250, -0.00390625, 0.01171875, 0.00000000, -0.00390625, -0.00390625, -0.00390625, 0.00781250, -0.00781250, 0.00781250, 0.01562500, 0.00390625, -0.00390625, -0.00781250, -0.00781250, 0.01171875, -0.00390625, -0.02734375, 0.00000000, 0.01562500, 0.00781250, 0.00000000, -0.00390625, 0.00000000, 0.00000000, 0.00000000, 0.00000000, -0.00390625, -0.00781250, 0.01562500, -0.00781250, 0.00390625, -0.00390625, 0.00781250, -0.01562500, -0.01562500, 0.00390625, 0.00781250, 0.00390625, 0.01171875, -0.00781250, 0.00390625, 0.00390625, 0.00781250, 0.01562500, 0.01953125, 0.00390625, -0.00390625, -0.00781250, 0.01562500, -0.01171875, -0.01562500, 0.00000000, -0.01171875, 0.00000000, 0.01953125, 0.00390625, -0.00390625, 0.01562500, 0.00781250, 0.00390625, -0.00390625, 0.00000000, 0.00781250, 0.00781250, 0.00000000, 0.01562500, 0.00390625, 0.01171875, 0.00781250, 0.00781250, -0.00781250, 0.00781250, 0.00781250, 0.01171875, 0.00781250, 0.01562500, 0.01171875, 0.00390625, 0.00781250, 0.00781250, -0.00781250, 0.01171875, 0.01171875, 0.00781250, -0.01562500, 0.00000000, -0.01171875, -0.01562500, -0.01171875, 0.00390625, 0.01562500, 0.00781250, 0.00000000, 0.00781250, 0.00000000, 0.00781250, 0.00781250, 0.01171875, 0.00390625, -0.00390625, 0.01562500, -0.00390625, -0.00390625, 0.00000000, 0.00781250, -0.00781250, 0.00390625, 0.00781250, 0.00390625, 0.00390625, 0.00000000, 0.00000000, -0.00781250, 0.00000000, -0.00390625, -0.00781250, 0.00781250, 0.00781250, 0.00000000, 0.00000000, 0.00781250, 0.00000000, 0.00390625, 0.00781250, 0.01171875, -0.01562500, 0.00000000, -0.00390625, 0.00781250, 0.00390625, 0.00390625, -0.00781250, 0.00390625, 0.00000000, 0.00781250, 0.00781250, 0.00781250, -0.01171875, 0.00390625, -0.00781250, -0.01562500, -0.00390625, -0.01562500, -0.00390625, -0.00781250, 0.00000000, 0.00000000, 0.00000000, 0.00000000, 0.00781250, 0.00000000, -0.00390625, 0.00000000, -0.01562500, 0.00781250, -0.00390625, -0.01953125, 0.00000000, 0.00390625, 0.00390625, -0.00390625, -0.00390625, 0.00390625, 0.00390625, -0.01562500, 0.00781250, 0.00390625, -0.00390625, 0.00781250, 0.01562500, 0.00000000, -0.00390625, -0.00781250, 0.00000000, 0.00390625, 0.00000000, -0.00390625, -0.00390625, -0.00390625, 0.00390625, 0.00000000, 0.00000000, 0.00390625, 0.00000000, 0.00000000, 0.00781250, 0.00000000, 0.00390625, -0.00390625, 0.00390625, 0.00390625, -0.00781250, 0.00390625, 0.00390625, 0.01562500, -0.00390625, 0.01171875, -0.00390625, 0.00000000, 0.00000000, 0.00000000, 0.00000000, -0.00781250, -0.00781250, 0.00781250, 0.00000000, 0.01171875, 0.00781250, -0.01171875, 0.00781250, 0.00390625, 0.00000000, -0.00390625, 0.00000000, 0.00000000, 0.00390625, -0.01953125, 0.00781250, 0.00390625, -0.00390625, -0.00390625, 0.01562500, 0.00390625, 0.00000000, -0.01171875, -0.01562500, 0.00000000, 0.00000000, -0.00390625, -0.00781250, 0.00390625, 0.00000000, 0.01171875, 0.00390625, 0.00000000, -0.00390625, 0.00390625, -0.00390625, 0.00000000, 0.00390625, 0.00781250, 0.01171875, 0.00000000, 0.00000000, -0.00390625, -0.00390625, 0.00390625, 0.00390625, 0.00000000, 0.00000000, 0.00781250, -0.00781250, 0.00000000, 0.00000000, 0.00390625, 0.00390625, -0.00781250, 0.00000000, -0.00390625, 0.00390625, 0.00390625, 0.00390625, 0.00390625, -0.00390625, -0.00781250, 0.00000000, -0.00781250, 0.00390625, 0.00390625, 0.00390625, 0.01171875, 0.01562500, 0.00390625, 0.00390625, 0.00390625, -0.00390625, -0.00781250, -0.00781250, 0.00390625, 0.00781250, 0.00000000, 0.00390625, 0.00390625, 0.00390625, 0.01171875, 0.00390625, 0.00781250, 0.00781250, 0.00000000, 0.00390625, 0.00781250, 0.00390625, 0.00781250, -0.00390625, 0.00390625, 0.00390625, 0.00000000, 0.00000000, -0.00390625, 0.01171875, -0.00390625, 0.00000000, -0.00390625, 0.00390625, -0.00390625, 0.00781250, 0.00390625, 0.00000000, 0.00000000, 0.00000000, 0.00000000, -0.00390625, 0.00000000, 0.00390625, 0.00781250, 0.00390625, -0.00390625, 0.00000000, -0.00390625, 0.00390625, 0.00000000, 0.00390625, -0.00390625, 0.00390625, 0.00390625, 0.00390625, 0.00390625, 0.00390625, -0.00390625, -0.00390625, 0.00390625, 0.00781250, 0.00390625, -0.00390625, 0.00000000, 0.00000000, 0.00000000, 0.00390625, 0.00390625, 0.00000000, 0.00390625, 0.00000000, 0.00000000, 0.00000000, 0.00000000, -0.00390625, -0.00390625, -0.00390625, 0.00390625, -0.00390625, 0.00000000, -0.00781250, 0.00390625, 0.00000000, 0.00000000, -0.00390625, 0.00390625, -0.00390625, 0.00390625, -0.01562500, 0.00000000, -0.00390625, 0.00390625, -0.00390625, -0.00781250, 0.00000000, 0.00390625, 0.01171875, 0.00390625, 0.00000000, 0.00000000, 0.00000000, 0.00000000, 0.00000000, 0.00390625, -0.01171875, -0.00390625, 0.00390625, -0.00390625, -0.00390625, 0.01171875, 0.00000000, 0.00000000, 0.00390625, 0.00000000, 0.00000000, 0.00000000, -0.01171875, 0.00000000, -0.00390625, 0.00000000, 0.00000000, 0.01171875, 0.00000000, 0.00390625, -0.00781250, -0.00781250, 0.00000000, 0.00390625, 0.00000000, -0.01953125, -0.00390625, 0.00390625, 0.00000000, 0.00781250, 0.00000000, -0.00781250, -0.00781250, -0.00390625, 0.00000000, 0.00000000, 0.00781250, 0.01953125, 0.00390625, 0.00000000, -0.00390625, 0.00390625, -0.00781250, -0.00390625, 0.00000000, -0.01171875, 0.00000000, 0.00390625, 0.00781250, 0.00781250, 0.00390625, -0.00390625, -0.00390625, 0.01171875, 0.00390625, 0.00000000, 0.00390625, 0.00000000, 0.00000000, -0.01171875, -0.00781250, 0.00000000, -0.00390625, 0.00390625, 0.00000000, -0.00781250, 0.00781250, 0.00000000, -0.00390625, 0.01562500, -0.00390625, -0.01171875, 0.00390625, 0.01562500, 0.00000000, 0.00000000, 0.00390625, 0.00390625, 0.00781250, 0.00000000, 0.00390625, 0.00390625, 0.00390625, 0.00000000, 0.00000000, 0.00390625, 0.00000000, 0.00390625, 0.00390625, 0.01171875, 0.00000000, 0.00781250, 0.00000000, -0.00390625, 0.00000000, 0.00390625, -0.00390625, -0.00390625, 0.00390625, 0.00390625, 0.00000000, 0.00000000, 0.00390625, 0.00000000, 0.00000000, -0.00390625, 0.00390625, 0.00390625, -0.00390625, 0.00390625, 0.00000000, -0.00781250, -0.01562500, 0.00000000, -0.01562500, 0.00390625, 0.00000000, 0.00000000, 0.00000000, 0.00000000, 0.01171875, 0.00000000, 0.00000000, 0.00000000, -0.00781250, 0.00000000, 0.00390625, 0.00390625, 0.00000000, 0.00781250, 0.00000000, 0.00390625, -0.00390625, 0.00000000, 0.00000000, 0.00000000, 0.00000000, 0.00000000, 0.00390625, 0.00390625, 0.00390625, -0.00390625, 0.00000000, 0.00000000, 0.00390625, -0.00390625, -0.01171875, 0.00390625, 0.00000000, -0.01562500, 0.00000000, -0.00390625, -0.00390625, 0.00390625, -0.00390625, -0.00390625, 0.00000000, -0.00781250, 0.00390625, 0.00390625, 0.00781250, 0.00390625, -0.00390625, 0.00390625, -0.00390625, 0.00000000, 0.00000000, -0.00390625, 0.00000000, 0.00000000, 0.00000000, 0.00000000, 0.00390625, -0.00781250, 0.00390625, 0.00000000, 0.00000000, 0.00000000, -0.00781250, 0.00000000, 0.00000000, -0.00781250, 0.00000000, 0.00390625, 0.00000000, 0.00781250, -0.00390625, 0.00000000, 0.00390625, 0.00000000, -0.00781250, 0.00390625, 0.00390625, -0.00390625, 0.00000000, 0.01171875, 0.00390625, 0.00390625, 0.00390625, 0.00390625, -0.00390625, 0.00000000, 0.00390625, 0.00000000, 0.00000000, 0.00781250, 0.00000000, 0.00000000, -0.00390625, 0.00390625, 0.01171875, 0.00000000, -0.00390625, 0.00390625, 0.00390625, 0.00390625, 0.00000000, -0.00390625, 0.00781250, 0.00000000, 0.00000000, -0.00390625, -0.00390625, 0.00390625, 0.00781250, -0.00390625, 0.00000000, 0.00000000, 0.00000000, -0.00390625, 0.00781250, -0.00390625, -0.00390625, -0.00781250, -0.00390625, 0.00000000, -0.00390625, -0.00390625, 0.00390625, 0.01171875, 0.00390625, -0.00390625, 0.00390625, -0.01562500, -0.00781250, 0.00390625, 0.00390625, 0.00000000, 0.01171875, -0.00390625, -0.00390625, 0.00390625, 0.00781250, -0.00390625, 0.00000000, -0.00781250, 0.00000000, 0.00781250, -0.00390625, 0.01171875, -0.00781250, -0.00390625, -0.00390625, -0.01171875, 0.00000000, 0.00000000, 0.00781250, 0.00000000, 0.00781250, -0.00390625, 0.00390625, 0.03906250, 0.00000000, 0.00390625, 0.00000000, 0.00000000, 0.00781250, 0.00781250, -0.00781250, -0.00390625, 0.00781250, -0.00390625, 0.00000000, 0.00781250, 0.00000000, 0.00000000, -0.00781250, 0.00390625, 0.00390625, -0.00781250, 0.00000000, -0.00781250, -0.00390625, 0.00000000, -0.00390625, -0.00390625, -0.01171875, 0.00000000, 0.00000000, -0.00781250, -0.00390625, 0.00390625, 0.00390625, 0.00000000, -0.00390625, 0.00000000, -0.00390625, -0.00390625, -0.01171875, 0.00390625, -0.00390625, 0.00000000, -0.00390625, 0.00000000, 0.00000000, 0.00000000, 0.00390625, -0.00390625, 0.00390625, 0.00000000, -0.00390625, -0.00390625, 0.00390625, 0.00000000, -0.00390625, 0.00390625, 0.01171875, -0.01953125, 0.00390625, -0.00781250, 0.00781250, -0.00390625, 0.00000000, 0.00000000, 0.00000000, -0.00781250, 0.00390625, 0.00000000, 0.00781250, -0.00390625, 0.00000000, 0.00781250, -0.01562500, -0.00390625, 0.00390625, 0.00000000, 0.00390625, 0.00781250, -0.00781250, 0.00390625, 0.00390625, 0.00390625, 0.00390625, 0.00390625, 0.00000000, 0.00781250, 0.00781250, 0.00390625, 0.00000000, -0.00781250, -0.00390625, -0.00781250, 0.00390625, -0.00390625, 0.00000000, 0.00781250, 0.00781250, -0.00781250, 0.03515625, -0.03125000, 0.06250000, -0.01171875, 0.05078125, 0.07421875, -0.00390625, 0.00000000, 0.06250000, -0.00390625, 0.16796875, 0.02343750, -0.01953125, 0.01171875, 0.07812500, -0.03515625, -0.02343750, 0.12109375, -0.00390625, -0.03515625, -0.01953125, -0.17578125, -0.01562500, -0.02343750, 0.02343750, -0.03515625, -0.06250000, 0.05468750, 0.04687500, -0.01562500, 0.03515625, -0.06250000, 0.03906250, 0.01171875, -0.06640625, -0.02343750, 0.16015625, -0.04687500, -0.01953125, 0.00000000, -0.17968750, -0.00781250, 0.07812500, 0.01562500, -0.00781250, 0.03906250, -0.01171875, 0.13281250, 0.06640625, -0.01171875, -0.05859375, -0.02734375, -0.02734375, -0.01953125, -0.03906250, 0.07812500, -0.04296875, -0.03906250, 0.00000000, -0.01953125, 0.04296875, 0.00000000, 0.02734375, -0.03515625, 0.06250000, -0.07812500, 0.02734375, -0.00781250, -0.00781250, -0.12890625, 0.03515625, 0.03125000, -0.03906250, -0.01953125, -0.08593750, -0.02734375, -0.04687500, -0.05468750, -0.03515625, -0.04687500, 0.00000000, 0.00781250, -0.02734375, 0.06250000, -0.01562500, 0.02343750, 0.01953125, 0.01953125, 0.02734375, -0.10156250, -0.03515625, 0.01953125, 0.02343750, -0.01953125, 0.00781250, -0.02343750, 0.03125000, -0.02734375, 0.03906250, -0.02343750, 0.07421875, -0.03515625, -0.01953125, -0.00390625, -0.02734375, 0.04687500, -0.06250000, -0.10937500, 0.03125000, -0.05078125, -0.01171875, 0.01562500, 0.05859375, -0.08984375, 0.00781250, -0.02734375, -0.03515625, -0.00390625, 0.00000000, -0.02734375, 0.00390625, 0.01171875, -0.00781250, 0.01171875, 0.00390625, -0.01953125, 0.14062500, 0.00390625, -0.03515625, -0.00781250, 0.04296875, 0.00000000, 0.03125000, 0.01171875, -0.04296875, -0.00781250, 0.04296875, -0.07421875, 0.00390625, 0.03906250, -0.03125000, -0.01171875, 0.03125000, -0.01562500, 0.00390625, 0.08593750, 0.04687500, -0.02343750, 0.05078125, -0.13281250, 0.01953125, 0.02734375, 0.04296875, -0.03515625, -0.04687500, 0.05859375, 0.10156250, 0.01171875, 0.05078125, -0.05078125, 0.03515625, -0.05078125, 0.04296875, -0.00390625, 0.03125000, -0.04296875, -0.01562500, 0.01171875, -0.02734375, 0.00390625, 0.05468750, 0.02734375, 0.01171875, -0.06640625, -0.06250000, 0.13671875, 0.05859375, 0.03125000, 0.10937500, 0.02343750, 0.01562500, -0.00390625, -0.00390625, 0.03125000, -0.00781250, -0.05859375, 0.01171875, -0.02343750, 0.01562500, -0.00390625, -0.05078125, 0.01953125, 0.00000000, -0.10546875, 0.00000000, -0.06250000, 0.03125000, -0.02734375, -0.01562500, 0.01171875, 0.01562500, -0.04296875, -0.06640625, 0.01171875, -0.03125000, -0.00781250, 0.00390625, -0.01562500, 0.01171875, 0.01562500, 0.01171875, -0.01171875, 0.00781250, 0.06250000, 0.06250000, -0.01562500, 0.03906250, -0.10546875, 0.01953125, 0.01171875, 0.00781250, 0.01171875, 0.00390625, 0.01171875, 0.03125000, -0.01171875, -0.01562500, 0.03515625, -0.02343750, 0.01171875, 0.01562500, -0.00390625, -0.02734375, -0.01171875, -0.01953125, -0.00781250, 0.01171875, -0.02343750, -0.00781250, 0.02734375, -0.03515625, 0.02343750, -0.05078125, -0.08203125, -0.03906250, -0.01953125, 0.00000000, 0.03906250, 0.01562500, 0.02343750, 0.04296875, -0.00390625, -0.00390625, 0.05078125, 0.08593750, -0.07421875, -0.00390625, -0.04296875, 0.00781250, -0.05859375, 0.03125000, -0.02343750, -0.05859375, -0.01953125, -0.03515625, -0.03515625, -0.04687500, 0.00390625, -0.04296875, -0.01562500, -0.03125000, 0.01171875, 0.01171875, -0.05468750, 0.00390625, 0.01171875, 0.04687500, 0.00000000, 0.00000000, 0.03125000, -0.04296875, -0.03125000, -0.01171875, -0.02734375, -0.00390625, 0.00000000, 0.00390625, 0.03906250, -0.02343750, 0.00781250, 0.00000000, -0.02343750, -0.02734375, -0.04687500, -0.02734375, -0.02734375, 0.01562500, -0.00390625, -0.04687500, -0.02734375, -0.00781250, -0.04296875, 0.00781250, -0.04296875, -0.09375000, -0.02734375, -0.00781250, 0.00781250, 0.06250000, -0.12890625, 0.01562500, -0.07031250, -0.01953125, -0.07812500, 0.00781250, -0.02343750, -0.06250000, -0.03125000, -0.03125000, -0.00781250, -0.00781250, -0.03515625, 0.03906250, -0.08203125, -0.00390625, -0.05078125, -0.00781250, -0.05859375, 0.02734375, -0.10937500, 0.01562500, 0.01953125, -0.01953125, 0.00781250, -0.00781250, 0.00390625, -0.05468750, 0.01562500, -0.00781250, -0.06640625, -0.00781250, -0.03906250, -0.00781250, -0.00781250, 0.02343750, 0.01953125, -0.00781250, 0.01953125, -0.05468750, 0.00000000, 0.03906250, 0.02734375, -0.02734375, -0.03515625, -0.04296875, -0.01562500, -0.05078125, 0.00390625, -0.02734375, -0.05468750, -0.01562500, 0.01953125, 0.00000000, -0.01562500, -0.06250000, -0.00390625, -0.05468750, -0.01953125, 0.02343750, -0.04296875, -0.04687500, -0.07031250, -0.01171875, 0.00781250, 0.03906250, 0.02734375, -0.01953125, 0.01171875, -0.05468750, -0.02343750, 0.00781250, -0.01562500, -0.03906250, 0.09765625, -0.01171875, -0.05468750, 0.01171875, -0.01171875, 0.01953125, 0.02734375, -0.00390625, -0.00781250, -0.06250000, -0.03125000, 0.00390625, 0.00781250, 0.08593750, 0.01171875, 0.03125000, -0.01953125, -0.01171875, 0.03515625, 0.00000000, -0.02734375, -0.02343750, -0.05078125, 0.01953125, 0.00000000, 0.00390625, 0.00000000, 0.00390625, 0.02734375, 0.00781250, -0.01171875, 0.03125000, -0.01953125, 0.01562500, -0.01953125, -0.03515625, -0.00781250, 0.13281250, 0.07421875, 0.03515625, -0.01171875, 0.01953125, 0.00390625, -0.01562500, 0.00000000, 0.06250000, 0.00781250, 0.00000000, 0.02734375, 0.03125000, 0.02343750, -0.02734375, -0.01171875, 0.01562500, -0.03125000, 0.00000000, -0.08203125, -0.05078125, -0.01171875, -0.01171875, -0.01953125, -0.00781250, 0.09765625, 0.00000000, -0.00390625, 0.16015625, -0.01562500, -0.07812500, 0.00781250, -0.01953125, -0.05078125, 0.00000000, 0.00000000, -0.00781250, -0.01562500, -0.01171875, -0.01562500, -0.03906250, -0.01562500, -0.03125000, -0.05078125, 0.00390625, 0.00781250, 0.00781250, -0.06250000, -0.02734375, -0.01562500, 0.02343750, -0.04687500, -0.01562500, -0.06640625, -0.09375000, 0.01171875, -0.06250000, -0.02343750, -0.01171875, -0.00390625, -0.02343750, -0.01171875, 0.00000000, 0.03125000, 0.07421875, -0.00781250, 0.00781250, -0.02734375, -0.08203125, 0.03906250, -0.02343750, -0.01171875, -0.03515625, -0.01953125, 0.00000000, 0.01953125, 0.01171875, -0.03906250, -0.01562500, -0.02343750, 0.00000000, -0.00781250, -0.00390625, -0.00781250, 0.04296875, -0.01953125, 0.01562500, -0.02734375, -0.02343750, -0.00390625, 0.04296875, 0.01171875, -0.01562500, 0.01171875, -0.00390625, 0.04296875, -0.03125000, -0.03125000, -0.08203125, -0.02734375, -0.07031250, -0.04296875, 0.01171875, -0.01171875, 0.02734375, -0.01171875, 0.00000000, -0.00781250, -0.00390625, -0.00781250, 0.02343750, -0.06250000, 0.03515625, -0.07421875, -0.03515625, 0.05078125, 0.03125000, -0.03906250, -0.07812500, -0.03515625, -0.05078125, 0.01953125, -0.00390625, -0.05859375, 0.01562500, -0.03515625, 0.03515625, -0.03515625, 0.00390625, 0.00390625, -0.00390625, 0.01562500, 0.01953125, 0.01171875, -0.05859375, -0.00781250, 0.02734375, 0.01562500, -0.01171875, 0.02734375, -0.02343750, 0.01171875, 0.00781250, 0.05859375, 0.03515625, 0.02343750, 0.01953125, 0.00000000, 0.03515625, -0.05468750, 0.00000000, 0.03125000, 0.00781250, 0.00000000, -0.04687500, -0.00781250, 0.02343750, -0.05468750, 0.02734375, -0.05468750, 0.00390625, -0.05468750, -0.05468750, -0.02734375, 0.00781250, -0.07031250, 0.00390625, -0.01171875, -0.01562500, 0.00781250, -0.00781250, -0.02343750, -0.05078125, 0.00390625, -0.03515625, -0.08203125, 0.00390625, 0.01562500, -0.03515625, -0.05078125, 0.03515625, -0.02343750, -0.07421875, 0.05078125, 0.01171875, 0.01953125, -0.01953125, 0.01171875, 0.02343750, -0.03125000, -0.07421875, 0.02343750, -0.01562500, 0.00781250, -0.02343750, -0.03515625, -0.02343750, -0.00390625, -0.05468750, -0.01171875, -0.02734375, 0.00781250, 0.05468750, 0.00781250, -0.01171875, 0.00390625, -0.05468750, -0.07031250, -0.08984375, -0.01953125, 0.00390625, 0.03906250, 0.00781250, -0.04687500, 0.00781250, -0.07031250, 0.01562500, -0.05078125, -0.02343750, -0.02343750, -0.00781250, 0.00781250, -0.00781250, -0.03125000, -0.00390625, 0.01562500, -0.03906250, -0.05078125, -0.10156250, 0.00781250, 0.03125000, 0.00390625, -0.00390625, -0.05859375, -0.01171875, 0.03906250, -0.00781250, -0.05468750, 0.03515625, 0.00390625, 0.02343750, 0.00000000, 0.01562500, 0.06250000, 0.01953125, -0.04687500, 0.05468750, -0.11328125, -0.01953125, 0.04296875, -0.02343750, 0.02343750, -0.05859375, -0.00781250, 0.02343750, -0.04296875, -0.01953125, -0.02734375, -0.00390625, 0.03906250, -0.00390625, 0.09375000, -0.08984375, -0.00781250, -0.03125000, 0.01953125, -0.05468750, -0.02734375, -0.01953125, -0.04687500, 0.02343750, 0.08593750, 0.01562500, -0.04296875, 0.06640625, 0.04296875, 0.05078125, -0.02734375, -0.00390625, 0.03125000, 0.08593750, 0.02343750, -0.04687500, -0.00781250, 0.06250000, -0.04687500, -0.00390625, -0.05468750, 0.02734375, -0.02343750, -0.06250000, -0.10156250, 0.03125000, -0.06250000, 0.03125000, 0.01953125, -0.00390625, 0.00390625, -0.01171875, 0.00781250, -0.05468750, -0.01562500, -0.01562500, -0.05859375, 0.00000000, -0.00390625, -0.01562500, -0.01562500, 0.02734375, 0.00000000, 0.00390625, 0.03906250, -0.00781250, 0.02343750, 0.01562500, 0.00781250, -0.01171875, -0.03906250, -0.08593750, 0.03125000, -0.03125000, 0.00390625, -0.06640625, 0.01171875, 0.00000000, 0.08593750, -0.00781250, -0.01562500, 0.00000000, 0.00781250, 0.00000000, -0.08203125, 0.00390625, -0.00781250, -0.05468750, -0.02734375, -0.06250000, -0.02734375, 0.00390625, 0.05078125, -0.04296875, -0.00390625, -0.01953125, -0.03906250, -0.03906250, 0.01562500, -0.03515625, 0.11328125, -0.04296875, -0.04687500, 0.00000000, -0.03125000, -0.08203125, -0.06640625, -0.03515625, -0.00781250, -0.07421875, -0.09375000, 0.01171875, 0.01953125, 0.08593750, -0.01171875, -0.01171875, 0.01171875, -0.01171875, -0.05078125, -0.00781250, -0.05859375, 0.00781250, 0.01171875, -0.01953125, -0.00781250, 0.01171875, -0.01953125, 0.00781250, -0.02343750, -0.00781250, 0.00000000, -0.05859375, 0.03906250, 0.01562500, -0.00390625, -0.00390625, -0.01953125, 0.10156250, 0.02343750, 0.04687500, -0.04687500, 0.05078125, -0.02343750, -0.06640625, 0.00390625, 0.11328125, 0.02734375, 0.01171875, 0.08984375, -0.03515625, 0.04687500, -0.00390625, -0.01171875, 0.06640625, 0.02734375, 0.01562500, -0.06250000, -0.01171875, 0.00000000, -0.00781250, -0.00390625, -0.05078125, 0.02343750, 0.00000000, -0.01171875, -0.01953125, -0.01953125, -0.07812500, 0.01562500, -0.08593750, 0.09375000, 0.00390625, -0.03515625, -0.01562500, 0.00000000, -0.00390625, -0.00390625, -0.10156250, -0.00390625, -0.16015625, -0.02734375, -0.01171875, 0.01562500, 0.00390625, -0.11328125, -0.02343750, -0.01171875, -0.10937500, -0.04687500, -0.00781250, -0.03515625, -0.04296875, -0.01562500, -0.03906250, -0.05078125, 0.01171875, -0.01562500, 0.01171875, -0.00781250, 0.03906250, -0.02734375, -0.04296875, -0.01953125, 0.03906250, -0.05468750, -0.07421875, -0.06250000, -0.05468750, -0.03515625, 0.02734375, -0.00390625, -0.00390625, -0.03515625, -0.03515625, 0.00781250, -0.01953125, -0.08984375, -0.00390625, -0.00390625, -0.02343750, -0.01171875, 0.09375000, -0.04687500, 0.05078125, 0.00781250, 0.03125000, -0.02734375, 0.15234375, -0.06640625, -0.03125000, -0.03515625, 0.03515625, 0.05078125, -0.01953125, 0.00781250, 0.03515625, -0.02343750, 0.01171875, -0.05078125, -0.01562500, 0.00781250, 0.00390625, 0.02343750, 0.04687500, -0.03906250, -0.01953125, -0.03515625, 0.02343750, -0.04296875, 0.01562500, 0.03125000, -0.02343750, 0.00390625, 0.00390625, 0.02734375, 0.01562500, -0.02734375, -0.01562500, -0.01953125, -0.01562500, -0.07421875, 0.06250000, 0.00781250, 0.03906250, -0.00390625, -0.02734375, 0.00390625, 0.01171875, 0.01562500, -0.00781250, 0.04687500, 0.00390625, 0.01953125, 0.01953125, -0.05078125, 0.03515625, -0.01562500, -0.05859375, 0.09375000, 0.00000000, 0.00000000, 0.00000000, 0.16406250, -0.03515625, -0.03515625, -0.02734375, 0.03125000, -0.01562500, -0.00390625, 0.03906250, 0.02343750, 0.04296875, 0.02343750, 0.04687500, 0.00781250, -0.01562500, 0.03515625, 0.03906250, 0.00000000, -0.03515625, 0.01562500, -0.01562500, 0.06640625, -0.01953125, -0.01953125, 0.00390625, -0.02734375, -0.00781250, -0.03515625, 0.00000000, -0.01562500, -0.01562500, -0.07812500, -0.03906250, 0.04296875, -0.09375000, -0.03125000, 0.03125000, -0.10937500, 0.00781250, -0.00781250, 0.03125000, -0.03125000, 0.04687500, -0.00390625, 0.02734375, 0.04687500, 0.01562500, 0.03515625, 0.00000000, -0.01171875, 0.03125000, -0.07812500, -0.08203125, 0.00390625, -0.06250000, 0.00000000, -0.01953125, -0.03125000, -0.00781250, 0.01171875, 0.05078125, -0.03125000, 0.03125000, -0.04687500, 0.02343750, 0.03906250, -0.00390625, -0.00390625, 0.01562500, 0.02734375, 0.01171875, -0.02343750, 0.00000000, 0.03515625, -0.03906250, 0.02343750, 0.02734375, 0.05859375, 0.01953125, 0.00781250, 0.02734375, 0.02343750, -0.03515625, -0.03906250, 0.00781250, -0.01562500, -0.02734375, -0.01171875, 0.00781250, 0.00390625, 0.01562500, -0.01953125, -0.01953125, -0.02343750, 0.00000000, -0.05859375, 0.01953125, -0.02343750, 0.04296875, 0.01171875, -0.00781250, -0.01171875, 0.00000000, -0.10156250, -0.02343750, 0.04296875, 0.01562500, 0.02343750, -0.01562500, -0.01953125, -0.00781250, -0.03125000, 0.01171875, 0.03125000, -0.05078125, 0.00000000, -0.01562500, 0.03906250, 0.00781250, -0.02734375, 0.00000000, 0.01171875, -0.01171875, -0.03125000, -0.01953125, -0.04296875, -0.03125000, -0.00781250, -0.00781250, -0.06640625, -0.03906250, 0.04296875, -0.00781250, -0.02343750, -0.00781250, -0.01171875, -0.03515625, 0.00000000, -0.05859375, 0.00390625, -0.02734375, -0.01953125, 0.00000000, -0.01171875, 0.01171875, 0.04687500, -0.07031250, -0.04296875, -0.01562500, -0.01562500, -0.01953125, -0.03515625, 0.01562500, -0.00781250, 0.03906250, -0.02343750, 0.00000000, -0.01562500, -0.00781250, -0.00390625, -0.01171875, 0.03515625, -0.01562500, -0.05078125, -0.00781250, 0.01171875, 0.00000000, -0.01953125, -0.01953125, -0.05859375, 0.00000000, -0.00781250, -0.01562500, -0.03515625, -0.02343750, 0.01171875, 0.01562500, -0.00781250, -0.03515625, -0.04687500, -0.03515625, 0.00781250, -0.04296875, -0.02734375, 0.00390625, -0.01562500, -0.02343750, -0.01562500, -0.00781250, -0.05078125, -0.02734375, -0.01171875, -0.05078125, -0.01562500, -0.00390625, 0.03906250, -0.01562500, 0.02734375, -0.02734375, -0.07031250, 0.01953125, -0.01953125, -0.03125000, 0.00000000, 0.00781250, 0.00781250, -0.00390625, 0.00390625, -0.00390625, 0.00000000, -0.00390625, -0.00390625, 0.00781250, -0.01171875, -0.00781250, -0.01953125, 0.00781250, 0.00000000, 0.00390625, -0.01171875, -0.01953125, 0.00390625, 0.00390625, 0.00000000, -0.01171875, 0.00000000, -0.00390625, -0.01562500, 0.01171875, 0.00390625, -0.01171875, 0.00781250, -0.00390625, -0.00390625, -0.00390625, -0.00390625, 0.00000000, 0.00781250, 0.00000000, 0.00000000, 0.00000000, 0.00000000, -0.01953125, -0.00390625, 0.00390625, 0.00390625, -0.00781250, 0.00390625, -0.01562500, 0.00781250, 0.00390625, 0.00781250, 0.00000000, 0.00390625, 0.01953125, -0.01562500, 0.00390625, 0.00781250, -0.01171875, 0.00000000, 0.00390625, -0.00390625, -0.01953125, 0.00390625, -0.00390625, 0.02734375, 0.00000000, 0.01562500, -0.01171875, 0.00000000, 0.01953125, 0.00781250, -0.00781250, -0.01953125, -0.01171875, 0.00000000, -0.01953125, 0.00390625, 0.03125000, -0.01953125, -0.00390625, -0.01171875, -0.00390625, 0.01171875, 0.00000000, -0.01562500, 0.01171875, 0.00000000, 0.01953125, -0.01953125, -0.00390625, 0.00781250, 0.00781250, -0.01171875, 0.00390625, 0.01953125, 0.00781250, 0.01171875, -0.00390625, -0.01953125, 0.00390625, 0.00000000, 0.00390625, 0.00000000, -0.00390625, 0.01562500, 0.00000000, 0.00781250, 0.00390625, -0.00390625, 0.01171875, 0.01562500, -0.01171875, 0.00781250, 0.00781250, 0.00000000, -0.00781250, 0.00390625, 0.00000000, -0.00390625, -0.00781250, -0.01171875, 0.01562500, -0.01953125, -0.01562500, 0.00390625, 0.01171875, -0.01171875, -0.01953125, 0.00781250, 0.00000000, -0.01171875, -0.00781250, 0.00390625, -0.00781250, 0.00390625, -0.00390625, 0.00000000, -0.00390625, -0.00781250, -0.00390625, 0.00000000, 0.00390625, -0.01562500, -0.01171875, -0.00390625, -0.00390625, -0.01562500, -0.01953125, 0.00390625, 0.00000000, 0.00000000, -0.01171875, -0.00390625, -0.01562500, -0.01953125, 0.02343750, -0.00390625, -0.00781250, 0.00000000, 0.00390625, -0.00781250, 0.00000000, -0.00390625, -0.00390625, 0.00781250, -0.00781250, -0.00390625, -0.01171875, -0.01171875, -0.01953125, 0.00781250, -0.00390625, -0.00781250, -0.00781250, 0.00000000, -0.03125000, 0.00781250, 0.00000000, -0.00390625, 0.00390625, -0.00390625, 0.00390625, -0.01171875, 0.00000000, -0.01562500, -0.01171875, 0.00000000, -0.00390625, -0.00390625, -0.01562500, 0.01562500, -0.00781250, -0.02343750, 0.00000000, 0.00000000, -0.03125000, 0.00000000, 0.00390625, 0.00000000, -0.01171875, -0.03125000, -0.01171875, 0.00000000, -0.01562500, 0.00390625, 0.03906250, -0.01562500, -0.01562500, -0.01562500, -0.00390625, 0.00390625, 0.00000000, -0.00781250, 0.00000000, -0.00390625, 0.01562500, -0.03125000, 0.00000000, 0.01171875, 0.00000000, -0.01953125, 0.00000000, 0.01171875, 0.00390625, 0.00000000, -0.01171875, -0.01562500, -0.00390625, 0.00000000, 0.00390625, -0.00781250, -0.00781250, 0.00000000, -0.00390625, 0.00781250, 0.00390625, -0.02343750, 0.00390625, 0.00000000, -0.00390625, 0.00390625, 0.01171875, -0.00390625, -0.01562500, -0.01171875, 0.00000000, 0.00390625, -0.00781250, -0.01562500, 0.01171875, -0.02343750, -0.02734375, 0.00000000, 0.01171875, -0.01562500, -0.01171875, 0.00000000, -0.00390625, -0.00390625, -0.00390625, 0.00000000, -0.00390625, 0.00000000, -0.00390625, 0.00781250, 0.00000000, -0.00390625, 0.00390625, -0.00390625, 0.00781250, -0.01562500, -0.00390625, 0.00781250, 0.00390625, -0.01953125, -0.01953125, 0.00390625, 0.00390625, -0.00390625, -0.01171875, -0.01171875, 0.00000000, -0.02343750, 0.03125000, 0.01171875, 0.00000000, 0.01171875, 0.00000000, 0.00000000, 0.00000000, 0.00000000, 0.00000000, 0.00781250, 0.00000000, 0.00000000, -0.00390625, -0.00781250, -0.01953125, 0.00390625, -0.01953125, -0.00781250, -0.00781250, 0.00781250, -0.01562500, 0.03125000, 0.00000000, -0.00390625, 0.01171875, 0.00000000, -0.00781250, -0.01171875, 0.00781250, -0.01171875, -0.01562500, -0.00781250, -0.01171875, -0.00390625, -0.01953125, 0.01171875, 0.00000000, -0.01953125, 0.00390625, 0.00781250, -0.01171875, 0.00000000, 0.00781250, 0.00390625, -0.01953125, -0.01171875, -0.00390625, 0.00390625, -0.01953125, 0.01171875, 0.04296875, -0.01953125, -0.01953125, -0.01171875, -0.01562500, 0.01171875, 0.00390625, -0.00781250, 0.00781250, -0.01171875, 0.00781250, -0.01562500, 0.01562500, 0.01171875, -0.00390625, -0.01953125, 0.00781250, 0.00781250, 0.00390625, 0.00781250, 0.00000000, -0.01953125, 0.00390625, 0.01171875, 0.00390625, 0.00390625, -0.00390625, 0.00781250, 0.00000000, 0.01562500, 0.00390625, -0.03515625, 0.00781250, 0.01562500, -0.00390625, -0.00390625, 0.00390625, 0.00390625, -0.00390625, 0.00000000, 0.00390625, 0.00000000, 0.00000000, 0.00781250, 0.01171875, -0.02734375, -0.02343750, -0.00390625, 0.01562500, -0.01562500, -0.02343750, 0.00781250, -0.00390625, 0.01171875, -0.00781250, 0.00390625, 0.00000000, 0.01562500, 0.00000000, -0.00390625, 0.00000000, -0.00781250, 0.00000000, 0.01171875, -0.01562500, -0.00781250, -0.02343750, 0.01171875, 0.00390625, -0.00390625, -0.00781250, 0.01953125, 0.00781250, 0.00390625, 0.00390625, 0.01171875, 0.01562500, 0.00000000, -0.01171875, 0.00390625, 0.00000000, 0.00390625, -0.00390625, -0.00390625, -0.00390625, 0.00390625, 0.00000000, -0.00781250, 0.00781250, 0.01171875, 0.00000000, 0.00781250, 0.00390625, 0.00000000, 0.01562500, 0.00000000, 0.00000000, 0.00390625, 0.00781250, 0.00390625, 0.00000000, 0.01171875, -0.00390625, 0.01953125, -0.00390625, -0.00781250, -0.00390625, 0.01171875, -0.00390625, -0.00781250, -0.00781250, 0.00390625, -0.00781250, -0.01562500, -0.00781250, 0.01171875, 0.00390625, 0.00390625, -0.00390625, 0.00781250, -0.00390625, 0.01953125, 0.00390625, 0.02343750, -0.00390625, -0.00390625, -0.00390625, 0.01171875, -0.01171875, -0.00781250, 0.00390625, -0.00390625, 0.01171875, -0.00390625, 0.00000000, 0.00390625, 0.00000000, 0.01171875, 0.00390625, 0.00781250, 0.00000000, 0.01171875, 0.00781250, -0.01562500, 0.00781250, 0.00000000, 0.00390625, 0.00000000, -0.01171875, -0.00390625, 0.00390625, 0.01953125, 0.00390625, 0.00781250, 0.00000000, 0.00390625, 0.01171875, -0.00390625, -0.00390625, -0.00781250, 0.00390625, -0.00390625, -0.00390625, -0.01562500, 0.00000000, -0.01171875, 0.00390625, -0.01953125, 0.00000000, 0.01953125, 0.00781250, -0.00390625, 0.00390625, -0.00390625, 0.00000000, 0.01171875, 0.00390625, -0.01562500, 0.00000000, 0.00000000, 0.00390625, 0.00781250, -0.00781250, -0.00390625, -0.00781250, 0.00390625, 0.00000000, -0.00390625, -0.01171875, -0.00390625, 0.00000000, 0.00000000, -0.01953125, -0.00390625, -0.01171875, -0.00390625, -0.00390625, -0.00781250, -0.00781250, 0.00390625, 0.00000000, 0.00000000, 0.00000000, 0.00781250, 0.00000000, -0.00390625, -0.01953125, -0.00390625, 0.00000000, -0.01171875, -0.01953125, -0.01953125, -0.01171875, 0.01171875, 0.00000000, -0.00781250, -0.00781250, -0.00390625, -0.00781250, -0.00781250, 0.00000000, -0.01171875, 0.00781250, 0.00390625, 0.00000000, 0.00781250, 0.00390625, 0.00390625, -0.00390625, 0.00000000, -0.01171875, 0.00390625, -0.01562500, -0.00390625, 0.00000000, -0.00781250, -0.01171875, -0.00390625, -0.01953125, -0.01171875, -0.00390625, -0.01562500, -0.00781250, -0.01171875, -0.00781250, 0.01171875, -0.00390625, 0.00000000, -0.00390625, 0.00000000, -0.00781250, 0.00390625, -0.00781250, -0.00781250, -0.00390625, -0.01171875, -0.01562500, -0.00781250, -0.00781250, 0.00390625, 0.00390625, 0.00781250, -0.01171875, 0.00390625, 0.00781250, -0.00390625, 0.00000000, -0.01171875, -0.00781250, 0.00390625, -0.00781250, -0.00781250, 0.00390625, 0.00000000, 0.00390625, 0.00390625, -0.02734375, -0.00390625, 0.00000000, -0.00781250, -0.01171875, 0.00390625, 0.00000000, 0.00781250, -0.00390625, -0.00781250, 0.00781250, -0.01171875, 0.00390625, 0.00781250, -0.02343750, -0.01562500, -0.00390625, -0.01171875, 0.00390625, -0.01953125, -0.00781250, -0.00781250, -0.01171875, -0.00390625, 0.01171875, 0.00000000, 0.00000000, -0.00390625, 0.01562500, -0.01562500, 0.00390625, 0.00781250, -0.00390625, 0.00390625, -0.00781250, 0.01171875, 0.00000000, 0.00390625, 0.00390625, -0.00390625, -0.01171875, -0.00390625, 0.00000000, 0.00000000, -0.02734375, 0.00390625, 0.00000000, 0.00000000, -0.00390625, -0.00781250, -0.00390625, 0.00781250, 0.00390625, 0.01562500, -0.01171875, -0.00390625, 0.00000000, -0.00390625, -0.01953125, 0.00390625, -0.00390625, -0.00781250, -0.02734375, -0.00781250, -0.00781250, 0.00781250, -0.00390625, -0.00781250, 0.00000000, -0.01171875, 0.00390625, 0.00000000, -0.00781250, 0.00781250, 0.00390625, 0.00000000, 0.00390625, 0.00390625, 0.00390625, 0.00390625, 0.00000000, -0.00781250, -0.00781250, 0.00390625, -0.01171875, -0.00781250, -0.00781250, 0.00781250, -0.01562500, 0.00390625, -0.00781250, -0.00390625, -0.00781250, -0.01171875, 0.00000000, 0.00000000, -0.00781250, 0.01171875, 0.00390625, 0.00000000, -0.00390625, -0.01171875, -0.00390625, 0.00000000, -0.00781250, 0.00000000, -0.00390625, -0.00781250, -0.01562500, -0.00781250, -0.01562500, -0.00781250, -0.00781250, 0.00000000, 0.00000000, 0.00390625, 0.00781250, -0.00781250, 0.00781250, -0.02734375, -0.01171875, 0.01171875, 0.00390625, -0.00781250, 0.00390625, 0.00390625, 0.00000000, 0.00390625, -0.01171875, -0.00390625, -0.00390625, -0.01171875, -0.00390625, 0.00781250, 0.01171875, 0.01171875, -0.00390625, 0.00000000, 0.01171875, -0.00781250, 0.00781250, 0.00781250, -0.01171875, -0.01953125, -0.00390625, 0.00390625, 0.00390625, -0.00390625, -0.00390625, -0.01171875, 0.00000000, 0.00000000, 0.00781250, -0.00390625, 0.00000000, -0.00390625, 0.00390625, -0.01171875, 0.00390625, 0.00390625, -0.01171875, 0.00781250, -0.00390625, 0.00390625, 0.00390625, 0.00390625, 0.00000000, -0.00390625, 0.00000000, -0.01171875, -0.00781250, -0.00781250, 0.00781250, 0.00781250, 0.00390625, 0.00000000, 0.00000000, 0.00000000, 0.00000000, -0.00390625, 0.00000000, 0.00390625, 0.00390625, 0.01171875, 0.00000000, 0.00390625, 0.00781250, -0.00390625, 0.00000000, -0.00390625, 0.00000000, 0.00390625, -0.00390625, -0.00781250, -0.00390625, 0.00390625, 0.00390625, 0.00000000, -0.00390625, 0.00781250, 0.00390625, 0.00000000, -0.00390625, -0.00390625, -0.00390625, 0.00000000, 0.00000000, 0.00390625, 0.00390625, 0.00781250, 0.00000000, -0.00390625, 0.00781250, 0.00390625, 0.00000000, -0.00390625, 0.00390625, 0.00781250, 0.00390625, 0.00000000, 0.00390625, 0.00781250, 0.00000000, -0.01171875, 0.00390625, 0.00390625, 0.00390625, 0.00000000, 0.00781250, 0.00000000, -0.00390625, 0.00781250, -0.01953125, 0.00000000, 0.00390625, 0.00781250, 0.00781250, 0.00000000, 0.00000000, 0.00000000, -0.00390625, 0.00390625, 0.00000000, 0.00390625, 0.00000000, -0.01562500, 0.00000000, 0.00390625, 0.00000000, -0.00390625, 0.00781250, 0.01171875, 0.00390625, 0.00390625, 0.00390625, 0.00781250, -0.00390625, 0.00000000, 0.00390625, 0.00390625, -0.00781250, 0.00390625, -0.00781250, 0.00390625, -0.00390625, 0.00390625, 0.00390625, 0.00390625, 0.00000000, 0.00390625, 0.00000000, 0.00390625, 0.00390625, 0.00000000, 0.00000000, 0.00781250, 0.00000000, 0.00390625, -0.00390625, 0.00390625, 0.00000000, 0.00000000, 0.00000000, 0.00000000, 0.00390625, -0.01953125, 0.00000000, 0.00390625, 0.00000000, -0.00781250, 0.00781250, 0.00000000, 0.00390625, 0.00390625, 0.00000000, 0.00000000, -0.00781250, -0.01171875, 0.00000000, -0.01562500, 0.00781250, 0.00390625, 0.00390625, -0.00390625, 0.00000000, 0.00000000, 0.00000000, -0.00781250, 0.00000000, 0.00000000, 0.00000000, 0.00000000, 0.00000000, 0.00000000, 0.00390625, -0.00390625, -0.00781250, -0.00390625, 0.00390625, 0.00000000, -0.00390625, -0.01171875, -0.00390625, -0.00390625, 0.00000000, -0.00781250, 0.00000000, 0.00781250, -0.00390625, 0.00000000, -0.01562500, 0.00390625, -0.01171875, 0.00000000, -0.00781250, -0.00781250, 0.00000000, 0.00781250, 0.00390625, 0.00000000, 0.00390625, 0.00390625, -0.00390625, -0.00390625, 0.00000000, 0.00390625, 0.00390625, -0.00390625, 0.00390625, 0.01171875, -0.00390625, -0.00390625, -0.00390625, 0.00000000, 0.00390625, -0.00781250, 0.00000000, -0.00390625, 0.00390625, 0.00000000, -0.01171875, 0.00000000, 0.00000000, -0.00390625, 0.00390625, 0.00390625, -0.00781250, 0.00000000, 0.00000000, 0.00390625, -0.00390625, -0.00390625, 0.00000000, -0.01171875, 0.00390625, 0.00000000, 0.00000000, -0.01562500, 0.00000000, 0.00000000, 0.00390625, 0.00000000, 0.00390625, 0.00000000, -0.01562500, 0.00000000, 0.00390625, -0.00781250, 0.00390625, 0.00000000, -0.00390625, 0.00390625, -0.00781250, 0.00000000, 0.00390625, -0.01171875, 0.00390625, 0.00390625, -0.00781250, 0.00390625, 0.00390625, 0.00390625, 0.00000000, 0.00390625, -0.00781250, -0.01562500, -0.01171875, 0.00000000, 0.00000000, 0.00000000, -0.00390625, -0.01171875, 0.00390625, -0.01562500, -0.00390625, 0.00390625, 0.00390625, 0.00000000, 0.00390625, -0.01171875, 0.00390625, -0.00390625, 0.00000000, 0.00781250, 0.00390625, -0.00390625, -0.00390625, -0.01953125, 0.00781250, -0.00390625, 0.00000000, 0.00000000, -0.00390625, -0.00390625, 0.00390625, -0.00390625, 0.00000000, 0.00000000, -0.00390625, -0.00781250, 0.00390625, -0.00390625, 0.00390625, 0.00781250, -0.00390625, 0.00390625, 0.00390625, 0.00000000, -0.00390625, -0.00390625, -0.00390625, 0.00390625, 0.00000000, 0.00000000, 0.00390625, 0.00390625, -0.00390625, 0.00000000, 0.00000000, -0.00781250, 0.00000000, 0.00390625, 0.00000000, 0.00000000, 0.00390625, 0.01171875, 0.00390625, 0.00781250, 0.00000000, 0.00000000, 0.00390625, 0.00000000, 0.00000000, -0.00390625, -0.00390625, -0.00781250, 0.00000000, 0.00390625, 0.00000000, 0.00390625, 0.00781250, 0.00000000, -0.00781250, 0.00390625, 0.00000000, 0.00781250, -0.01171875, -0.00390625, -0.00390625, 0.00390625, 0.00000000, 0.00000000, 0.00390625, 0.00000000, -0.00390625, 0.00000000, -0.01562500, 0.00390625, -0.00390625, 0.00390625, 0.00390625, -0.00781250, 0.00390625, 0.00390625, 0.00781250, -0.00781250, 0.00000000, -0.00390625, 0.00781250, 0.00000000, 0.00390625, 0.00390625, 0.00000000, 0.00000000, 0.00000000, 0.00390625, 0.00390625, 0.00390625, -0.00781250, 0.00390625, -0.00390625, 0.00390625, 0.00390625, -0.01953125, 0.00390625, 0.00390625, -0.01171875, 0.00390625, 0.00781250, 0.00390625, 0.00390625, 0.00781250, 0.00390625, 0.00000000, 0.00000000, 0.00000000, 0.00390625, -0.00390625, 0.00000000, 0.00000000, 0.00390625, -0.00390625, 0.00000000, 0.00390625, 0.00390625, 0.01562500, 0.00000000, -0.01171875, -0.02343750, -0.00781250, -0.00390625, 0.00390625, -0.00390625, -0.01953125, 0.00390625, -0.01171875, 0.00390625, -0.00781250, 0.01953125, -0.00390625, 0.00000000, -0.00390625, -0.01171875, -0.01171875, -0.00781250, 0.00000000, -0.01953125, -0.02734375, -0.04296875, -0.00781250, -0.00390625, -0.00390625, -0.01953125, 0.00781250, 0.00390625, -0.00781250, 0.01562500, -0.04687500, 0.00390625, -0.00781250, -0.01562500, -0.00390625, 0.01171875, 0.01562500, -0.01562500, -0.01953125, 0.00781250, 0.00390625, -0.00781250, -0.00390625, -0.03125000, 0.01171875, 0.00390625, 0.00000000, 0.00390625, 0.00000000, -0.00390625, 0.00000000, 0.01171875, 0.01171875, -0.00781250, -0.00390625, 0.00390625, -0.00390625, -0.01562500, 0.01562500, -0.04296875, -0.01562500, 0.00000000, -0.00390625, -0.02734375, -0.00781250, -0.01562500, -0.00390625, -0.02734375, 0.02734375, -0.02343750, 0.00781250, -0.01562500, -0.01171875, 0.03125000, -0.01171875, -0.02734375, -0.00781250, -0.02734375, 0.00000000, 0.00000000, -0.01171875, 0.00000000, -0.00390625, 0.00390625, -0.03515625, 0.00781250, -0.02343750, -0.00781250, -0.03515625, -0.00781250, -0.00781250, 0.00000000, 0.00000000, 0.00390625, -0.01562500, -0.00390625, 0.00000000, 0.00781250, -0.00781250, -0.00390625, -0.00390625, 0.00000000, 0.00390625, 0.00000000, -0.02343750, 0.00390625, 0.00390625, -0.03515625, 0.02343750, 0.00390625, 0.00781250, -0.03125000, -0.00390625, -0.00781250, -0.00781250, -0.00390625, -0.01171875, 0.00000000, -0.02343750, -0.02734375, -0.02343750, 0.00390625, -0.01953125, -0.01562500, 0.00000000, 0.00781250, -0.02734375, 0.01562500, 0.01562500, 0.00390625, -0.03125000, -0.00781250, -0.00781250, 0.00000000, -0.00781250, -0.01953125, -0.01953125, 0.03125000, 0.00781250, -0.01171875, 0.00000000, 0.01562500, 0.00781250, -0.01562500, 0.00390625, 0.00781250, 0.00781250, 0.00000000, -0.00390625, 0.00781250, -0.00390625, 0.03125000, -0.01171875, -0.01171875, 0.00000000, 0.01953125, 0.00000000, 0.01953125, 0.00000000, 0.00781250, 0.01562500, 0.01171875, 0.01171875, -0.00390625, -0.01953125, -0.00390625, 0.00390625, 0.01171875, -0.01171875, -0.01171875, -0.00390625, -0.01171875, 0.01953125, 0.00390625, 0.01953125, 0.02343750, -0.00390625, 0.00781250, -0.00390625, 0.00781250, 0.03125000, 0.00000000, 0.00000000, 0.01171875, 0.01171875, -0.01562500, 0.00390625, -0.01562500, -0.00781250, 0.00390625, 0.00000000, -0.00781250, 0.00000000, 0.02343750, 0.01171875, 0.01171875, 0.01953125, 0.00000000, 0.01171875, -0.01171875, 0.01953125, 0.07031250, -0.01171875, 0.02343750, -0.01171875, -0.02734375, -0.00390625, 0.00390625, -0.00781250, -0.00390625, -0.00390625, 0.00390625, 0.02343750, 0.02343750, 0.02734375, 0.00390625, -0.00390625, -0.00390625, 0.00390625, 0.00000000, -0.00390625, 0.01953125, -0.01953125, 0.00781250, 0.00781250, 0.01562500, 0.00781250, -0.01562500, -0.00390625, 0.00390625, 0.00390625, -0.01171875, 0.01562500, 0.00000000, 0.00390625, 0.03125000, 0.04687500, 0.00781250, 0.00390625, -0.00390625, 0.00000000, 0.01171875, 0.00390625, 0.01953125, 0.01171875, 0.00781250, -0.00781250, -0.01171875, 0.01562500, 0.00390625, -0.00781250, -0.02343750, -0.00781250, 0.02734375, -0.03125000, -0.00781250, -0.01171875, -0.01953125, -0.01953125, 0.00000000, 0.00390625, 0.01171875, -0.01171875, -0.01171875, -0.01171875, -0.00781250, -0.00781250, -0.02343750, 0.00000000, 0.00781250, 0.00000000, -0.00781250, -0.00390625, 0.00000000, -0.00781250, 0.00390625, 0.02343750, -0.00390625, 0.00000000, 0.02734375, -0.00390625, 0.01171875, -0.01171875, 0.00781250, 0.00000000, -0.00390625, -0.01171875, 0.00781250, 0.00390625, -0.01171875, 0.00781250, -0.01953125, -0.02343750, -0.01953125, -0.01562500, 0.01953125, -0.00781250, -0.00390625, 0.00000000, -0.03515625, 0.01562500, 0.00000000, -0.00390625, -0.00781250, 0.00390625, 0.00000000, -0.00781250, 0.00000000, -0.02343750, 0.00000000, -0.00390625, -0.00390625, 0.00781250, -0.00781250, -0.00781250, 0.01171875, -0.02343750, 0.01562500, -0.00390625, -0.02734375, 0.01171875, 0.00390625, 0.00781250, 0.01953125, 0.00000000, -0.01953125, 0.00000000, -0.00781250, -0.00781250, 0.01562500, -0.00781250, 0.00781250, -0.00781250, 0.00781250, -0.01171875, 0.00390625, -0.01953125, -0.00781250, -0.01171875, 0.00781250, 0.01171875, 0.01171875, -0.01562500, -0.01171875, -0.01171875, -0.00390625, 0.00390625, 0.00390625, 0.00000000, 0.00000000, -0.01171875, 0.00390625, 0.00390625, -0.01171875, 0.00390625, -0.02343750, 0.00390625, 0.00000000, 0.00390625, -0.01562500, -0.00781250, -0.00781250, 0.00781250, 0.00781250, 0.00781250, 0.01562500, -0.01562500, 0.01953125, -0.01953125, 0.00390625, -0.00390625, 0.01171875, 0.00390625, 0.01171875, -0.00781250, -0.04296875, -0.01562500, 0.00781250, -0.01171875, -0.00781250, -0.00390625, -0.00390625, 0.00781250, 0.00000000, -0.01953125, -0.01171875, -0.00390625, 0.00000000, 0.00781250, 0.00000000, -0.02343750, 0.00390625, 0.00000000, -0.00781250, -0.00781250, -0.00781250, 0.00390625, 0.00390625, -0.01171875, -0.01562500, 0.00000000, 0.00000000, 0.00000000, -0.03125000, -0.00390625, 0.01562500, -0.01953125, -0.01562500, 0.00000000, 0.01562500, 0.00390625, -0.00390625, -0.01171875, 0.00390625, 0.01171875, 0.00781250, -0.00781250, -0.00390625, 0.00390625, 0.00390625, 0.01171875, -0.02734375, -0.01953125, 0.01171875, 0.00390625, -0.01562500, -0.00781250, -0.00390625, 0.00781250, -0.00781250, -0.00781250, -0.00390625, 0.01562500, 0.00000000, -0.00781250, -0.00390625, 0.01171875, -0.01562500, -0.00781250, -0.00781250, 0.00781250, -0.02734375, -0.00781250, -0.00781250, 0.01171875, 0.00390625, -0.00390625, 0.00781250, 0.00000000, -0.01171875, 0.00781250, -0.01171875, -0.00390625, -0.02734375, 0.00390625, -0.01562500, 0.00000000, -0.01562500, -0.01562500, -0.03125000, -0.00390625, 0.00781250, -0.00390625, 0.00781250, -0.03125000, -0.00390625, 0.00781250, 0.00000000, -0.01953125, 0.00390625, 0.01953125, -0.00781250, -0.02734375, 0.00000000, 0.00000000, -0.00390625, -0.00390625, -0.00390625, -0.01953125, -0.00390625, 0.00781250, -0.00390625, -0.00390625, 0.01171875, -0.00390625, 0.00781250, -0.00390625, -0.00781250, -0.02343750, 0.00000000, -0.00781250, -0.01953125, -0.01171875, 0.00000000, -0.00781250, -0.01953125, -0.02734375, 0.00000000, 0.01171875, 0.00781250, -0.01171875, 0.00000000, -0.01562500, -0.00390625, 0.00000000, 0.00390625, -0.01562500, -0.01171875, -0.00390625, 0.00000000, 0.00781250, -0.00781250, 0.00781250, -0.01562500, -0.01562500, -0.01171875, -0.00390625, 0.00000000, 0.00000000, -0.01953125, 0.00390625, -0.01953125, 0.03515625, -0.04687500, -0.01171875, 0.01953125, 0.00000000, -0.01171875, 0.00781250, 0.01171875, 0.00781250, -0.00781250, 0.03125000, 0.02343750, 0.00000000, -0.00390625, 0.00781250, 0.01171875, 0.00390625, -0.01171875, 0.00000000, -0.00390625, 0.00390625, -0.00781250, -0.00781250, -0.01562500, 0.00781250, -0.02343750, -0.02343750, 0.00000000, -0.01953125, -0.01171875, -0.03515625, 0.00390625, -0.01562500, -0.00390625, 0.01171875, -0.00781250, 0.01171875, 0.00390625, 0.00781250, -0.00781250, -0.00390625, 0.02343750, 0.01171875, -0.00781250, 0.01562500, 0.00000000, 0.01562500, -0.01953125, -0.01562500, 0.01562500, -0.02734375, 0.00000000, -0.01562500, 0.01171875, 0.00000000, 0.00390625, 0.01562500, -0.01562500, 0.03906250, 0.00000000, 0.00390625, -0.00781250, 0.02343750, 0.00390625, -0.01953125, 0.01562500, -0.01171875, 0.01171875, -0.00390625, 0.00000000, -0.00390625, -0.00390625, 0.01562500, -0.01953125, 0.01562500, 0.00390625, 0.01562500, -0.01171875, -0.01171875, -0.00390625, -0.01171875, 0.01171875, -0.00781250, -0.01171875, -0.00781250, 0.00781250, 0.00781250, -0.00390625, 0.00390625, 0.00390625, -0.01562500, 0.00390625, 0.00390625, -0.00781250, 0.02343750, -0.01171875, -0.00390625, 0.00000000, -0.00390625, 0.00390625, -0.00390625, -0.00781250, -0.00781250, -0.00390625, 0.01562500, 0.01562500, 0.01171875, -0.00390625, 0.00000000, 0.00000000, 0.00390625, 0.00390625, -0.00781250, -0.01953125, -0.01562500, 0.01562500, -0.01562500, 0.00781250, -0.00390625, -0.02343750, 0.00781250, 0.00000000, -0.01171875, -0.00390625, -0.01953125, -0.01171875, 0.01953125, -0.01171875, 0.02343750, -0.01953125, 0.00000000, 0.00000000, -0.00390625, -0.00390625, 0.00390625, -0.00781250, 0.00390625, 0.00000000, 0.03125000, -0.00390625, -0.00390625, 0.00390625, 0.00000000, 0.00781250, -0.01562500, -0.00390625, -0.00781250, -0.00390625, -0.00781250, 0.00000000, -0.01562500, -0.02343750, 0.00781250, -0.01562500, 0.00000000, 0.00390625, -0.02734375, 0.00000000, 0.00390625, -0.00390625, 0.00390625, -0.02734375, -0.00390625, 0.00000000, -0.02343750, 0.00000000, 0.00390625, 0.00000000, -0.00390625, -0.01171875, 0.00000000, -0.00781250, 0.02343750, 0.00000000, 0.01171875, -0.00390625, -0.01171875, 0.00000000, -0.01171875, 0.00000000, 0.00000000, -0.00390625, 0.00390625, -0.00781250, -0.00390625, 0.00781250, 0.00781250, -0.01953125, 0.00390625, -0.01171875, -0.00390625, -0.00781250, 0.00000000, 0.01171875, -0.00781250, 0.01171875, -0.01562500, 0.00390625, -0.00781250, -0.00390625, 0.00390625, 0.00000000, 0.00390625, -0.00390625, -0.01171875, -0.00781250, -0.01562500, -0.00390625, -0.00390625, -0.00781250, -0.00781250, -0.02343750, -0.01171875, 0.00000000, -0.00390625, 0.00000000, 0.00000000, -0.00390625, -0.00390625, 0.00000000, -0.02343750, -0.00390625, 0.00000000, 0.00000000, 0.00390625, -0.01562500, -0.00781250, 0.00781250, -0.00781250, -0.01171875, -0.01171875, 0.00000000, 0.00390625, 0.00000000, -0.00390625, -0.00390625, -0.00390625, -0.01562500, -0.02343750, 0.00000000, -0.02343750, -0.00781250, 0.00000000, -0.01171875, 0.00781250, 0.00000000, -0.01953125, -0.02343750, -0.01171875, 0.00390625, 0.00781250, 0.00000000, -0.02343750, -0.01953125, -0.01171875, -0.02343750, -0.01171875, -0.00390625, 0.00000000, 0.00390625, 0.00000000, 0.00000000, -0.00781250, -0.01171875, -0.00781250, -0.01171875, 0.00390625, -0.01562500, -0.01171875, -0.01953125, 0.01171875, -0.00390625, 0.00390625, -0.00781250, -0.01562500, 0.00781250, 0.00781250, 0.00000000, -0.00781250, -0.02343750, 0.00000000, -0.00390625, 0.00390625, 0.00000000, -0.01953125, 0.01171875, 0.00000000, -0.01562500, -0.00781250, -0.01171875, 0.00000000, 0.00781250, -0.00781250, 0.00390625, -0.00390625, -0.01562500, -0.01562500, 0.01171875, -0.00390625, -0.00781250, -0.01171875, -0.00390625, -0.00390625, 0.00000000, -0.01171875, 0.00781250, 0.01953125, 0.00000000, -0.00390625, 0.00390625, 0.00000000, -0.00781250, 0.00390625, -0.01171875, 0.01562500, -0.03906250, 0.00390625, 0.00000000, 0.00000000, -0.01171875, 0.00000000, 0.00781250, 0.00390625, 0.01171875, -0.00781250, 0.00781250, 0.00390625, -0.00390625, -0.01171875, 0.00000000, 0.01171875, 0.00781250, -0.00781250, -0.00781250, -0.01953125, -0.01171875, 0.00000000, -0.01171875, -0.00390625, -0.01953125, -0.00390625, -0.00781250, -0.00390625, -0.01171875, -0.01171875, -0.00390625, 0.00000000, 0.00000000, -0.00390625, -0.01171875, -0.00390625, 0.00390625, -0.00390625, -0.02734375, -0.00781250, 0.00390625, -0.00781250, 0.00000000, -0.02734375, 0.00390625, -0.00781250, 0.00000000, -0.00390625, 0.00390625, -0.01953125, -0.00390625, -0.02343750, 0.00390625, -0.03515625, 0.00000000, -0.00781250, 0.00000000, -0.00390625, -0.01953125, 0.00390625, -0.01953125, -0.00781250, -0.01171875, -0.00390625, -0.00390625, -0.00390625, -0.00390625, 0.00000000, -0.00781250, 0.00781250, -0.00781250, -0.00390625, 0.00000000, 0.00000000, -0.01562500, -0.00390625, -0.00390625, 0.01562500, -0.01562500, -0.01562500, -0.01171875, -0.00390625, 0.00781250, -0.00781250, -0.00781250, -0.00390625, -0.00390625, -0.00390625, 0.00390625, 0.00781250, -0.01562500, -0.00781250, 0.01171875, -0.00390625, 0.00390625, 0.00000000, 0.00390625, 0.00781250, 0.00781250, -0.00390625, 0.00000000, -0.01562500, -0.00781250, 0.00000000, -0.00390625, -0.00390625, -0.00390625, -0.01171875, 0.01562500, -0.01171875, -0.03125000, 0.01562500, -0.00390625, 0.00781250, 0.00390625, 0.00390625, -0.01562500, -0.01171875, -0.01171875, -0.00390625, -0.00390625, -0.00781250, -0.01562500, -0.00781250, -0.00390625, -0.01171875, 0.01562500, 0.01953125, 0.00390625, -0.00390625, -0.01562500, 0.01171875, 0.00000000, -0.02343750, 0.01171875, -0.00390625, -0.01562500, -0.01562500, 0.00000000, -0.01171875, -0.01562500, 0.00781250, -0.00781250, 0.01562500, 0.00000000, 0.01562500, 0.00390625, -0.03515625, -0.01171875, -0.00781250, -0.01171875, 0.00000000, -0.01953125, -0.01562500, -0.01171875, -0.00390625, 0.00781250, 0.00000000, 0.00781250, -0.01562500, -0.00781250, -0.01562500, -0.01562500, -0.01171875, -0.01171875, -0.01953125, -0.01171875, -0.00390625, 0.01953125, 0.00000000, 0.00390625, 0.00390625, -0.01171875, 0.00781250, 0.00781250, 0.00781250, -0.01953125, -0.01171875, 0.00390625, 0.00000000, 0.00000000, -0.00781250, -0.01171875, -0.01562500, 0.00781250, -0.03515625, 0.01562500, -0.00781250, -0.01562500, 0.01171875, -0.01953125, -0.01953125, 0.00000000, -0.01171875, 0.00390625, 0.00781250, -0.01171875, 0.01171875, -0.02343750, 0.00781250, -0.00390625, 0.00000000, -0.00390625, 0.01953125, 0.00390625, 0.01562500, 0.00390625, 0.03906250, 0.01562500, 0.00390625, -0.00390625, -0.00390625, 0.00390625, 0.00781250, 0.00390625, -0.00781250, -0.01562500, 0.00781250, 0.00390625, -0.01562500, -0.00390625, 0.01562500, -0.02734375, -0.01562500, 0.00000000, -0.00781250, -0.01171875, -0.00781250, 0.01562500, -0.00390625, 0.00390625, -0.00390625, 0.00390625, 0.00000000, 0.00000000, 0.00781250, -0.00390625, 0.00000000, -0.01562500, 0.00000000, 0.00000000, 0.00000000, -0.00390625, 0.00000000, -0.00390625, -0.00781250, 0.00781250, -0.02734375, 0.01562500, 0.00781250, -0.01953125, 0.00390625, 0.00000000, 0.00781250, 0.00390625, -0.00390625, -0.00390625, 0.00390625, -0.00781250, 0.01953125, 0.00000000, -0.00781250, 0.01171875, -0.01171875, 0.00781250, -0.01171875, 0.00000000, -0.00390625, 0.00000000, 0.00390625, 0.00781250, -0.00390625, 0.00390625, 0.00000000, 0.00000000, -0.03906250, -0.01171875, 0.00000000, -0.00390625, -0.00390625, -0.04296875, -0.01171875, 0.00390625, 0.01562500, 0.01562500, 0.00390625, -0.01171875, 0.00781250, 0.01171875, -0.01562500, -0.01171875, -0.01562500, 0.00000000, 0.00390625, -0.04296875, 0.00000000, -0.00390625, 0.00000000, -0.00781250, -0.00781250, 0.01171875, 0.02343750, 0.00781250, 0.00390625, 0.01562500, 0.00000000, 0.00781250, -0.02343750, 0.00390625, -0.02343750, -0.00781250, 0.00000000, -0.00781250, -0.03125000, 0.00000000, -0.00390625, -0.01562500, -0.01171875, 0.00781250, 0.00390625, -0.00390625, 0.00781250, -0.00390625, 0.00390625, 0.00390625, 0.02343750, 0.00781250, -0.01171875, -0.00390625, -0.00781250, -0.00781250, -0.02343750, -0.01562500, 0.00390625, -0.00781250, 0.01953125, -0.00781250, -0.00781250, 0.00000000, 0.00000000, 0.00390625, -0.01171875, 0.00000000, -0.00781250, -0.00781250, -0.00390625, -0.00781250, -0.00781250, -0.01171875, -0.00390625, 0.00000000, 0.01171875, 0.00000000, -0.01171875, -0.00781250, -0.01171875, 0.00781250, -0.00390625, 0.01562500, -0.01171875, -0.00781250, -0.02734375, 0.00000000, -0.00781250, 0.00000000, -0.00390625, 0.00000000, 0.01562500, -0.00781250, 0.00781250, -0.01171875, 0.00000000, -0.00390625, -0.00781250, -0.00390625, -0.00781250, 0.00000000, -0.00781250, -0.00390625, -0.00390625, -0.01171875, -0.00781250, -0.01562500, 0.01171875, 0.01171875, -0.00390625, -0.00390625, -0.01171875, 0.00000000, -0.00781250, 0.00390625, -0.00781250, 0.00390625, -0.00390625, -0.00390625, 0.00000000, -0.00390625, 0.00390625, -0.00781250, 0.00390625, 0.00781250, -0.00390625, -0.01562500, 0.03906250, 0.00000000, -0.00781250, 0.00000000, -0.00781250, 0.02343750, -0.00390625, -0.01171875, -0.00390625, 0.00390625, -0.01953125, 0.01953125, -0.01171875, -0.00390625, -0.00781250, -0.00390625, 0.00781250, -0.00390625, -0.00390625, 0.00390625, 0.00000000, 0.00390625, -0.00390625, -0.00781250, 0.01562500, -0.00781250, -0.00781250, -0.00390625, 0.00000000, -0.00781250, -0.00781250, 0.01171875, -0.01171875, 0.00000000, 0.01171875, -0.00390625, -0.00390625, -0.01171875, -0.00390625, -0.00781250, 0.00000000, -0.01171875, 0.00000000, 0.01562500, 0.01562500, 0.00781250, 0.01171875, 0.00000000, 0.00390625, -0.01171875, 0.01953125, 0.00000000, 0.00781250, 0.01953125, -0.00390625, -0.00781250, 0.00000000, -0.00781250, 0.00390625, -0.01171875, 0.00390625, 0.00000000, -0.00781250, 0.00781250, 0.01562500, 0.00000000, 0.01171875, 0.02343750, -0.00390625, 0.02734375, 0.00390625, 0.01171875, -0.01171875, -0.00781250, 0.00781250, 0.00781250, -0.00390625, -0.00390625, -0.00781250, -0.00781250, -0.01171875, 0.00390625, 0.00000000, 0.01562500, 0.00000000, 0.00000000, -0.00781250, 0.03125000, 0.00000000, -0.00781250, -0.00781250, 0.00390625, 0.03125000, -0.00781250, 0.00781250, -0.00390625, 0.00781250, -0.00390625, -0.00390625, 0.00390625, -0.00390625, 0.00781250, 0.00000000, 0.00390625, 0.00390625, -0.00781250, 0.00390625, -0.00781250, 0.02734375, 0.01171875, 0.01562500, -0.00390625, 0.00390625, -0.00781250, -0.00390625, -0.00390625, -0.00390625, -0.00390625, 0.00000000, 0.01562500, -0.00390625, 0.00000000, 0.01171875, -0.00781250, 0.01171875, 0.02734375, 0.00390625, -0.00781250, 0.02343750, 0.00000000, -0.00390625, -0.01171875, 0.00000000, 0.02343750, -0.00781250, -0.00390625, 0.00781250, 0.01562500, -0.00781250, 0.00000000, -0.00390625, 0.00781250, 0.00390625, 0.00781250, 0.00781250, 0.01171875, -0.00390625, 0.01562500, -0.00390625, 0.00781250, 0.01562500, -0.00781250, -0.00390625, 0.00781250, 0.00781250, 0.01171875, 0.01953125, 0.00390625, -0.01171875, 0.01562500, -0.01562500, -0.00390625, 0.01562500, -0.00390625, 0.00000000, 0.01953125, -0.00781250, -0.00781250, -0.01562500, -0.02343750, 0.01171875, -0.00390625, 0.00000000, 0.00781250, 0.01562500, 0.00781250, 0.00390625, 0.00000000, 0.00781250, -0.00390625, 0.01171875, 0.01562500, -0.00390625, -0.00390625, -0.00781250, -0.00781250, 0.00390625, -0.01171875, -0.00390625, -0.01562500, -0.00781250, -0.00390625, 0.00000000, 0.00390625, 0.01953125, 0.01562500, 0.00000000, 0.02734375, -0.00390625, 0.01953125, -0.01171875, -0.01562500, 0.01171875, -0.00390625, -0.01171875, 0.00000000, -0.02343750, -0.01171875, -0.01171875, 0.00000000, -0.00390625, 0.00000000, 0.00000000, 0.01171875, 0.00000000, 0.01562500, 0.00781250, -0.00390625, -0.00390625, -0.00390625, 0.00000000, -0.01171875, -0.00390625, -0.00390625, 0.00781250, -0.00781250, -0.00390625, -0.00781250, -0.00390625, 0.00781250, -0.00781250, -0.01562500, 0.00000000, -0.00390625, 0.01171875, -0.00390625, -0.00390625, 0.00781250, 0.01953125, 0.00000000, 0.00781250, -0.01953125, -0.00781250, 0.00390625, -0.00390625, -0.00390625, -0.00390625, 0.01953125, -0.00390625, -0.00781250, 0.01171875, -0.01953125, -0.01953125, 0.00390625, 0.00390625, -0.01562500, 0.00000000, -0.00781250, 0.00000000, -0.01171875, -0.00390625, 0.01171875, 0.00000000, -0.01171875, 0.01171875, 0.01171875, -0.00781250, -0.01171875, -0.01171875, 0.01953125, 0.00000000, 0.00390625, -0.01562500, 0.00390625, -0.00781250, -0.00781250, -0.00781250, 0.00781250, 0.01562500, -0.00781250, -0.00390625, 0.00781250, 0.00390625, 0.01953125, 0.00000000, 0.00000000, -0.01171875, 0.00781250, -0.01562500, -0.00390625, 0.01171875, -0.00781250, -0.01171875, 0.00000000, -0.01171875, 0.00390625, -0.00390625, -0.01953125, -0.00781250, -0.00390625, -0.00781250, 0.00390625, 0.01171875, 0.01562500, -0.00390625, 0.00000000, 0.00781250, 0.00000000, 0.00390625, 0.00000000, -0.00390625, -0.01171875, -0.00781250, -0.01171875, 0.00781250, -0.00781250, 0.00390625, 0.00000000, -0.00390625, -0.00390625, 0.00390625, 0.01562500, 0.01171875, -0.01953125, -0.00781250, -0.00781250, 0.00781250, 0.00000000, 0.01562500, -0.00781250, 0.00390625, -0.00781250, -0.02343750, -0.00390625, -0.01171875, -0.00781250, 0.00000000, 0.00000000, 0.01171875, -0.01562500, -0.01171875, 0.01171875, -0.01171875, -0.00781250, 0.00781250, -0.00390625, -0.00390625, -0.00390625, 0.00390625, -0.00390625, -0.01562500, -0.00781250, 0.00781250, -0.01171875, -0.00781250, 0.00390625, -0.01953125, 0.00781250, 0.00781250, -0.01171875, 0.01171875, 0.01171875, 0.00000000, 0.00781250, -0.03515625, 0.00390625, 0.00390625, -0.00390625, 0.00390625, -0.00781250, -0.01562500, 0.00781250, -0.00390625, -0.00390625, 0.01562500, 0.00390625, -0.00390625, 0.00781250, -0.01171875, 0.00781250, -0.01562500, -0.00781250, 0.00000000, 0.00000000, 0.00000000, 0.01953125, 0.01562500, 0.01171875, 0.00390625, 0.01171875, -0.00781250, 0.00390625, 0.00781250, 0.00781250, -0.02343750, 0.01171875, 0.00781250, 0.00781250, 0.00000000, 0.00390625, 0.00000000, 0.00781250, 0.01953125, 0.00781250, -0.00390625, 0.00390625, 0.00390625, 0.00390625, -0.01562500, 0.00781250, 0.00000000, 0.00781250, 0.00000000, 0.01562500, -0.00390625, -0.01562500, -0.00781250, 0.01562500, 0.00000000, -0.00781250, 0.00390625, -0.01562500, -0.01171875, -0.01562500, 0.02343750, 0.00781250, -0.00390625, -0.00781250, 0.00781250, 0.01562500, 0.00781250, 0.00000000, 0.01953125, -0.00781250, 0.01171875, -0.01171875, 0.00781250, 0.00781250, 0.00390625, -0.00390625, 0.00781250, 0.02343750, 0.02343750, 0.00000000, 0.01171875, 0.00781250, -0.00390625, -0.00390625, 0.01171875, 0.00390625, 0.01171875, -0.00781250, 0.00000000, 0.00390625, 0.01953125, 0.00000000, 0.01953125, 0.01171875, 0.00781250, -0.00781250, -0.01562500, -0.00390625, 0.01562500, -0.00781250, -0.00390625, -0.00390625, 0.01953125, 0.00000000, 0.02734375, 0.00390625, -0.00781250, -0.00390625, 0.00390625, -0.00781250, -0.00781250, -0.00390625, 0.01953125, -0.00390625, -0.00781250, -0.00390625, 0.02734375, -0.00390625, -0.01171875, 0.01562500, -0.00781250, 0.01562500, 0.02343750, 0.01171875, 0.01171875, 0.01171875, 0.01562500, 0.00000000, -0.01171875, 0.01562500, 0.01171875, 0.00000000, 0.02343750, -0.00781250, -0.00390625, 0.01171875, -0.00390625, -0.01562500, 0.01953125, 0.01562500, 0.00000000, 0.02734375, 0.00390625, 0.01953125, 0.00000000, 0.00781250, 0.03515625, 0.01562500, 0.00781250, 0.00781250, 0.02734375, 0.00390625, 0.02343750, 0.01953125, 0.00000000, 0.01562500, 0.01171875, 0.01562500, 0.02343750, 0.00390625, 0.02343750, 0.00390625, 0.02343750, 0.01562500, 0.00781250, 0.03125000, 0.02734375, 0.03906250, -0.00781250, -0.01171875, 0.00781250, -0.01171875, -0.01171875, 0.01562500, 0.01953125, 0.01562500, 0.01171875, 0.01953125, -0.00390625, 0.00390625, 0.01171875, 0.00781250, 0.00390625, 0.00000000, 0.02343750, 0.01562500, -0.00781250, -0.00390625, 0.00781250, -0.00390625, -0.00390625, -0.01171875, -0.01171875, 0.00000000, 0.00390625, 0.00390625, 0.00390625, -0.01171875, -0.00390625, 0.00000000, 0.00000000, 0.00000000, 0.00000000, 0.00390625, 0.00390625, 0.00390625, 0.00000000, -0.00781250, 0.00000000, 0.00000000, -0.00781250, -0.00390625, 0.00390625, 0.01562500, 0.00390625, -0.01171875, -0.01171875, -0.00781250, 0.00390625, 0.00000000, 0.00781250, -0.00781250, 0.00390625, 0.00000000, 0.00000000, 0.00390625, -0.00390625, -0.00781250, 0.00000000, 0.00000000, 0.00390625, -0.00390625, 0.01171875, -0.00390625, -0.00781250, -0.01562500, 0.00000000, -0.00390625, -0.01171875, -0.01171875, 0.00000000, -0.00390625, -0.00390625, -0.01171875, 0.00390625, 0.00390625, 0.00000000, 0.00781250, 0.00390625, 0.00000000, 0.01171875, -0.00390625, 0.00000000, 0.00390625, 0.00000000, 0.00390625, -0.01171875, -0.00390625, 0.00000000, 0.00000000, 0.00390625, -0.00390625, 0.00000000, 0.00781250, 0.00000000, 0.00000000, 0.00781250, 0.00390625, 0.00781250, 0.00390625, 0.00390625, 0.00390625, -0.01171875, -0.00390625, 0.00390625, -0.00390625, -0.00390625, 0.00781250, 0.00781250, 0.00000000, 0.01171875, 0.00781250, 0.00390625, -0.00390625, 0.00781250, 0.00390625, 0.00781250, -0.00390625, 0.00781250, 0.00000000, 0.01171875, 0.00781250, -0.00390625, 0.00390625, 0.00390625, 0.00000000, -0.00781250, -0.01171875, -0.00390625, 0.00000000, 0.00000000, 0.00000000, 0.00390625, 0.00390625, 0.00000000, 0.00000000, -0.00390625, -0.00390625, 0.00000000, 0.00000000, 0.00390625, 0.00390625, 0.00390625, -0.00781250, -0.01562500, -0.01171875, 0.00781250, -0.00390625, 0.00781250, -0.01562500, -0.02734375, 0.00000000, 0.00390625, 0.01562500, 0.00781250, 0.00000000, 0.00390625, -0.03125000, -0.00781250, -0.02343750, 0.00390625, 0.00000000, 0.00000000, 0.00000000, 0.00781250, 0.01562500, -0.00390625, 0.00390625, 0.00781250, 0.00781250, -0.00781250, 0.00390625, -0.00390625, -0.00781250, 0.00390625, -0.03125000, 0.00390625, -0.01562500, 0.00781250, 0.00390625, 0.00000000, -0.01953125, -0.01171875, 0.00781250, 0.00000000, 0.01171875, -0.00390625, 0.00390625, 0.00781250, -0.00781250, -0.00781250, -0.01562500, -0.02343750, -0.01953125, -0.00390625, 0.00390625, 0.00390625, -0.01562500, 0.03125000, 0.00390625, 0.00390625, 0.00000000, -0.00390625, -0.00390625, -0.00390625, 0.00390625, 0.00390625, -0.00781250, 0.00781250, -0.01171875, -0.00781250, -0.00390625, 0.00390625, 0.00390625, -0.00390625, 0.00000000, -0.01562500, 0.00000000, 0.00000000, 0.00000000, -0.00390625, 0.00390625, -0.00390625, 0.00781250, 0.00781250, -0.00390625, 0.00000000, 0.00781250, 0.02343750, 0.01171875, 0.00000000, -0.01171875, 0.00390625, 0.00390625, -0.00390625, 0.01171875, 0.00000000, 0.00781250, 0.00000000, 0.01953125, 0.00390625, 0.00390625, 0.00781250, 0.01562500, 0.00000000, 0.00390625, 0.00781250, 0.00000000, 0.00000000, 0.00000000, 0.00390625, 0.00390625, 0.00781250, 0.02343750, -0.00390625, -0.01953125, -0.01562500, -0.00781250, 0.00000000, -0.00390625, -0.00390625, -0.00390625, 0.00000000, 0.00390625, 0.00781250, -0.00781250, 0.00000000, 0.00000000, 0.00781250, 0.00390625, 0.00781250, -0.03125000, -0.00390625, -0.01562500, -0.00781250, 0.00390625, -0.00390625, 0.00000000, 0.00000000, 0.01171875, -0.00390625, -0.00390625, 0.01562500, -0.00390625, 0.00781250, -0.01171875, 0.00781250, -0.00390625, 0.00781250, 0.00390625, 0.01171875, 0.00781250, 0.01171875, 0.00781250, 0.01171875, 0.00781250, 0.00781250, 0.00390625, 0.01953125, 0.00781250, 0.01171875, 0.00000000, 0.00000000, -0.00390625, 0.02734375, 0.00781250, 0.00781250, 0.01171875, 0.01171875, -0.00390625, -0.01562500, 0.00390625, 0.00390625, 0.01562500, -0.00390625, -0.01562500, 0.00390625, 0.00390625, 0.02734375, 0.00781250, -0.00390625, 0.00000000, 0.00390625, -0.00390625, 0.00390625, -0.00390625, 0.00781250, 0.00390625, -0.01562500, -0.00390625, 0.00000000, 0.00390625, -0.00781250, 0.00390625, -0.01171875, 0.01562500, 0.00781250, 0.00000000, 0.01171875, 0.01171875, 0.01562500, -0.00390625, 0.00000000, 0.00390625, 0.00781250, 0.00781250, 0.01171875, -0.00390625, 0.00390625, 0.00000000, 0.00000000, 0.00000000, 0.00390625, 0.01171875, 0.00781250, 0.00781250, -0.01562500, 0.00390625, 0.00000000, 0.00000000, 0.00781250, 0.01171875, 0.00390625, 0.00390625, 0.00390625, 0.00000000, 0.00781250, 0.00781250, 0.01171875, 0.00390625, 0.00390625, 0.00000000, 0.00390625, 0.00390625, 0.00390625, 0.01171875, 0.00781250, 0.00000000, 0.01171875, 0.00781250, 0.00390625, 0.00000000, -0.00390625, -0.00390625, 0.00000000, 0.01562500, -0.00390625, 0.01562500, 0.01171875, 0.01562500, 0.00390625, 0.01171875, 0.00781250, 0.00390625, 0.01171875, -0.00390625, 0.00390625, 0.00781250, 0.00390625, 0.00000000, 0.00390625, 0.00781250, 0.00781250, 0.00781250, 0.00000000, -0.00781250, -0.00781250, -0.01953125, 0.00390625, 0.00000000, -0.00390625, 0.00000000, -0.00390625, 0.00781250, -0.00390625, -0.01171875, 0.00781250, 0.01562500, 0.00000000, 0.00000000, 0.00000000, 0.00781250, -0.00781250, -0.00390625, 0.00781250, 0.00390625, -0.01171875, 0.00390625, -0.01171875, 0.00000000, 0.00390625, -0.00390625, 0.00000000, -0.01171875, 0.00000000, -0.01171875, 0.00000000, 0.00390625, 0.01171875, 0.01171875, -0.00781250, 0.00781250, 0.00390625, 0.00000000, 0.00000000, 0.00781250, -0.01171875, -0.00781250, 0.00781250, -0.00390625, 0.00000000, 0.00781250, 0.00000000, 0.00390625, 0.00390625, 0.00000000, -0.00390625, -0.00781250, 0.00390625, 0.01171875, -0.00390625, -0.01171875, 0.01171875, -0.01171875, 0.00390625, 0.00000000, -0.00781250, -0.00390625, -0.01562500, 0.00000000, 0.00390625, 0.00390625, -0.00781250, 0.00781250, -0.01562500, -0.00781250, 0.01171875, 0.00390625, 0.01171875, 